0.5428794712059686
0.41186919861893445
4.245741609078339
-1.4113204106116188
3.2550621107183484
-0.9447884334842125
-0.9838760801626849
-0.02010308505342895
-3.2797053928013993
2.872574752323894
-3.250059922912268
0.8732971883114183
-2.2540048599122855
2.6634244382141343
-0.6146495278216996
-0.8317983498409509
1.431776250828348
-0.6784308932963155
0.35066548517825424
1.5155194896762398
0.7544432494984705
-1.0421207897877174
1.17204945168637
0.013953988728698796
2.112466370434702
3.7090404318501964
-0.8811767179950234
0.920367083216348
-0.5138248202556888
-1.611406622614143
-1.4573870310208084
0.5305551285983952
-0.13007462326744545
3.1365078660160144
3.5665974047835567
-1.6133155902599374
2.632488876330121
2.2235416266889487
-0.21889703352626055
2.967637021395412
0.4619155264080237
-0.8333638875422311
-2.398204019094525
0.01851655354779691
-0.44888086479595746
-1.6884052307340198
-0.053277310493195174
-1.3244354940544052
-3.3195659234145145
-1.9607005481254276
1.8884472274593191
0.5427358974792766
0.853396563982695
0.7517093547573561
-0.06246343277777955
-3.123813068111563
-2.858003362799347
-0.20610326493653375
-1.3863555689289684
-0.9670803908338654
0.3976548784372853
-1.5316327027533507
1.960441185433801
-2.6601595345140727
1.4841699762216476
1.2979154931467307
-2.339357309727877
-1.4605239786610391
3.688889812496078
-2.3067346361622993
1.40738593585368
1.9686003325671417
1.9683554698109487
-1.818253493524443
-0.8117963794002434
-0.3739780076486392
2.684667034060021
-1.6467454741383545
0.13784408674412552
0.2857816575040326
1.48882275039339
0.6797478636346177
-2.383808252281002
2.8120096077932892
2.0072803332302214
-0.6354710508035613
1.1675327848766912
-1.1683070784680196
-2.0120083100149446
-1.6224396268073336
-2.982580019135977
-0.07839651020763583
1.5621597104182476
-2.1669333646443585
-0.23661555250968558
-0.5343636965319903
0.2779672636372421
-1.1343289500562759
2.915745358691183
-0.6611928506187614
-4.437470114120111
-2.83868253348446
0.94476708555676
1.574161161314397
0.2683211090135771
0.2992278048826913
0.49041447149746364
0.16884076611681476
-2.039681290868249
-0.938856130113005
-1.6090449515304748
3.18556476878899
1.6001259660822091
-2.1358954806484856
-0.8133403971143531
0.3057671166958422
4.283314201651962
-0.526990890456962
-0.24515018237281305
0.9906452986712333
-0.31376177144852635
-0.8507855828066404
-1.2674557502283557
-1.5936303986253844
-0.12142566931567034
-1.6085820259262102
-1.6170492255946272
-0.7302973428786417
-1.8421686362361402
-1.5749243162775144
1.5620585422746593
-0.22972165512075038
-0.43791607378948827
3.596605240708731
-3.558424355505866
2.725791564815281
1.7171790089553818
-0.17137521334432781
1.6444656065714498
1.1263477245677995
-1.3253361180092162
-1.707524209791763
-0.550668710847011
-1.7757773619357304
0.39668833992680685
-0.545717956140645
-0.28010343896527656
-0.6747172073531789
0.5441282448308855
2.6507933922921416
-2.78416523112219
0.4383148971864661
0.22418296706867447
1.3512649675641186
-0.05880354466437532
3.938516827616559
0.3536937369290798
4.261620769308523
1.1866833383750541
1.4013974669560598
0.2944366998446135
2.427153557371673
2.9220205564638966
-1.2366622202294268
0.4166368684260595
-2.509991073514023
-1.8053238704418264
-1.0349387113059914
1.2469560190645885
1.257704636327881
0.19117889550312395
2.2342655479007596
-3.1427974855404015
1.7389361958041847
0.617283648264269
-0.8363380384126282
0.15001401366290246
0.802915826108299
0.053233172980398535
1.7406785970916598
-2.3022375333921685
-1.3815018144243063
-2.0596304449606415
-2.5149295650181944
1.7909328762545038
0.029340278903299044
-0.14465844755795154
-3.1493085177740343
-2.6477769353485083
3.021347071116975
-0.2718393678270592
-0.952324052510233
1.3726177141844351
-0.5613485045494679
-0.3396453049832999
-3.558719032478758
2.5256837713002582
3.1043808970610134
-5.317102568920262E-4
-2.316362139846833
-1.3836607081153725
0.5024571861334515
2.326161842872767
-0.26533590514085437
-0.4796549492445218
-0.8233166616537462
3.0101579598877146
-1.0716131693047053
3.2707677161948037
-0.9966360367147725
-0.008714389534120404
1.2409241030877953
-2.052332958774624
-3.506287495728371
0.4418714456964268
1.916377862059428
2.027254978484916
2.2822918961225795
1.966728910843301
-0.39311252344723524
0.8467774567708455
1.957741467826624
-0.0030039592582666863
0.18309149994382157
-3.158631038717664
0.39203885380373604
-0.965930527848804
-4.628748324178134
1.2091297615630854
-0.275453354005474
0.3998866777366368
1.3732860105537141
-0.33932414533424904
1.157094860127911
4.149806265681477
2.6259616879585614
-0.09058860696433091
0.7163479798365362
-2.1956645561222388
0.8554993464774379
-1.4412259628362007
-0.8602929440772304
-0.44404498576239737
-0.4161635605746943
0.04270233195428408
1.0409980086303272
-1.3927072157893707
-0.7571988757959272
0.2755765899378413
-1.4878065935252789
0.2968938239006347
-1.9475534382670796
2.667882454782192
-0.6825787463266426
-1.3311615441338502
-1.1802053122115743
-0.8361545755189235
-0.1644926108237721
-0.8575412098160968
1.814240976638604
-1.0427094259321352
-2.09269586473164
-1.0615983628781334
-1.1241314118888934
-2.458026775962074
0.7440530653436621
2.917290174622762
-1.0870765070145136
-1.2473674408484277
3.053034081786494
2.4872322774505413
-0.05530095764439369
-2.546982032884745
0.5367486735605929
0.23642766168329743
-2.1539192437117958
0.527138835214155
-1.0781110516047434
-2.0528786956297242
-3.049998116413732
-1.1700147352861616
-1.3256586477503194
0.647156111600312
-2.3359418016967384
-2.2460266531694533
-4.443523552572071
-0.6446285247644892
-3.742465999572853
-0.9326382104644386
2.1829721719093382
0.17710136210973226
-3.0249125861487682
1.6808916763480513
0.7314239629235751
-2.593981722077528
-3.3666540940305056
-1.0011012459149575
-3.0360104601358153
-1.7114239209245312
1.8566628042224314
0.5111486151126221
0.7163177807621333
2.1072999863393678
-0.8917167992663173
0.2816443945844189
-1.9899855206978163
1.2391749109526362
2.6731696478344404
-0.009342800800124174
-0.05510781857057312
1.8453796274761802
0.7487390903539475
4.186228291921897
3.527255025883648
-3.151378966750276
-0.2002407977010856
0.40139615491281777
-0.4095304124950139
3.854314240634059
2.3336554992943457
1.793393431814768
-2.035929885548877
0.6718611772632741
-1.7475226800971893
-0.03893119121568267
0.04764953069851385
-3.907723504770847
-0.06222409016021391
-4.403219897993809
3.945784669473705
-1.4215884727291361
-3.77535938396045
-0.37098929463049934
-2.679751996943095
0.5240250908921567
0.4211467971182776
-2.488041279230676
-1.8842465594658062
0.7379532940894844
-2.4705368291776466
-0.6816517574919314
-1.6845123606233279
2.809625504485532
0.8248695227995446
3.291713608375566
0.8826761905622753
2.012179082586428
2.9489344344320005
0.5144065359171774
0.04443619762435835
-1.600579064973234
1.673102910987431
3.3475754663527235
0.07416155460473606
-1.247112480054747
0.48894505794356224
0.299367928725204
2.7286965411146076
0.0352521054131677
-0.8186856543622882
-0.022394976775299558
3.496541655295267
-2.9936702045286574
-0.45933488001955025
1.7831796558302764
1.8133464833181523
1.657929348215292
-3.629217853783854
1.000426133099178
0.40093680447160596
2.123804908187391
3.948169310271954
-4.059286952730648
-1.1138726967931738
3.7209522816731866
-1.9106521195077533
-0.2044910023444646
1.855569396870349
4.77850578288718
-1.0176840008457764
-0.14482938018663605
1.5028838368620336
-0.08951927332002008
-0.06158242861249752
1.7497032880155912
0.02432900755618128
-1.6113853099742492
2.220872295399259
1.3677450055961518
1.919253835666698
0.27155574716570463
1.106214331075439
-2.889978386467992
1.351586457911369
-2.053351210990206
3.334892468446706
0.1335265140274977
-0.2713925148496603
-4.2594303037057255
1.1072797401245094
0.24267207089565257
-1.3467415851925875
0.2550563164289392
-2.2186562999318404
0.08366260524575919
3.40623626492345
-0.9160121983289833
0.42822613235219764
0.2983424812651192
2.1141217033950204
0.5680617801001908
-0.598016066164424
-1.7062354932614943
0.7597934593811164
2.243318309328519
0.0797387423090341
3.2837325901281273
-0.8086221449469808
0.6397620960764678
1.9284883951267051
0.2585661885375625
-1.71401725710277
0.08633290012432804
0.05482711934608142
-4.460662193826532
-1.5755324820328016
-1.8215281195200879
-0.6061734301931101
1.5728327912620594
-0.5665023292701071
-4.435461950897241
1.693327298382026
-1.3765176069890548
2.1511350283622885
-2.292680241194894
0.44988934356401655
-3.9814815674963544
1.772212150143842
1.2768956141872723
-1.0473458686766075
0.6026023372567089
3.1297428443638666
-2.1689069895168105
-3.4086341451382385
0.058174509140981545
3.0686181664595753
2.4397930267324486
-1.4151970404259409
3.7477789360652958
0.0678358424901715
-0.09066550248541017
4.285870210522768
-1.2653919514513259
1.267516873505289
1.2632645740516812
4.219601000163067
3.637521986521252
2.0569557747970797
-1.864312295154765
1.010318808999803
-2.0232103383342066
-1.6200429119928716
-2.266538237736166
-0.645789691864116
-0.33319742310963574
-3.086294038817984
-3.976507648822162
0.193557228253602
-1.687988082512129
3.2774250622196774
-3.1986259739424545
-0.7511207395288988
1.9623367463291925
-1.5729346027170439
4.297630421206652
0.06523697626064362
-0.015702680581511697
-1.6077161788368548
-3.0221999911093747
1.7289444986734726
-0.2958815515690272
2.5119538425944383
0.19262165070021098
1.4109425511856712
-0.5209428499208306
0.3244630330427243
0.334566954932915
1.8930824359736684
0.8532026381717657
2.269045132085762
3.156969582019145
-0.7664315613100476
-2.546001348619831
-0.6456024497950268
-1.0879969443699706
0.7278121917798694
3.285738929291679
1.9508330326581245
-3.0362435235644627
3.3209460463752505
-1.9237156603517327
-2.1377819521016983
-2.467343060564909
-2.3717531758626498
2.333254331995048
-0.16605542195411793
-1.7725098620081337
-2.2802795736480768
-0.23406064200776378
2.6531891414775837
-1.9787312249431657
1.8250954678992746
4.729186933614727
-0.002294945512919533
-3.672801523425602
-0.8845222454933954
2.34550992064402
1.1894004209767295
-0.16900872540947853
-2.2820846644725905
3.961668212560497
-1.9910477470225456
-0.2642237194506176
-0.8808779236466369
0.5959718061943591
1.72770421906734
2.075859478944605
-0.8853864939830527
2.0325574128186723
0.5131011056949895
3.7555798776253186
0.4595016174915565
-0.7811119943468281
-2.6360935546030753
1.9695129763476058
2.377199321509314
-2.3772761188164275
-1.2685420384630133
-0.339726441756814
2.082286670327142
-0.7951824630085365
-1.0167946535939079
-0.3298351085060309
-1.5262143965463846
-4.3364192800178625
0.8647853203334948
0.24292522829725005
3.155096002319401
0.6079734890138058
2.116880872833721
-0.46817631970082485
3.936841221514115
-1.6851324798825082
3.4031157591384096
1.7703518127270765
-4.02112590456694
1.727130667090408
-2.294765494101507
2.7617639304680006
0.7276929290611909
-2.651315739405957
-3.6581830122508063
2.3437149315214003
-2.1944820498028883
-0.30721559462927317
-3.233221202901259
-3.5157538321240653
0.007277284809632079
2.9397739158324963
-2.6960939782015383
1.6653671461570658
1.561753826899357
2.460558906350854
3.9736761000899623
-0.7895117980388537
-0.18685793544217955
-1.1379439940510134
-0.43138670701871895
2.2119470628395197
-4.520735331025265
-2.7891353392401244
0.13342880431997273
-2.285114001529755
1.6426994727077848
-0.9085905491294195
4.006197739499496
1.8137251551899762
-3.3689332070228692
0.1548072574451611
-1.4231813137640579
0.31748393054622626
-4.057273316782211
0.8147059948858546
-0.08098891141629316
2.6401998593444507
-1.6258634843131037
-2.2536541303769315
0.45209567608649515
1.5726954512398783
1.5051187018764134
-1.1549063199100864
-0.21118822187224007
-3.4080573251340684
1.6982879849528163
-0.6992996255862334
-1.0745818735185266
-1.635725663543731
-1.2311098773689007
-3.5564703763342194
-2.0696699179423423
2.098694357632283
0.4812992340362481
1.0190106074330578
2.287541751488719
-2.5934651407914258
-2.9715731789475903
-2.453437006928168
-1.948917497716054
-2.6762893599220723
-4.34971041129869
1.419244101656712
0.9667596204536749
-0.8481774656930123
0.5479883299920763
0.40036929672237553
-0.28256434924500473
-0.22564274472807677
-1.7506534355940468
3.1733544712256867
3.4480908223560123
-1.8957647155289057
-1.4175405926812843
-2.398967884140551
-1.2730789627785262
2.3189565745123772
1.4134026261229646
-3.6493106773948645
1.098720631923901
4.539593835772811
-0.6956479376700893
2.54107779104549
1.3867998686423668
0.6098828036991993
1.248362704860548
-1.9323512638215004
-3.10031050470307
2.6316618639505416
2.6370578918290546
-2.7377425991643825
2.6988771151744553
1.912907377612881
1.617480086696717
3.5435933497011893
3.0838327723886074
-0.015382022242892646
-3.0056504662259544
1.7145805774836966
-1.549434039667628
0.34279559518062275
2.8339846231352
-1.436997285833872
2.6799702673729833
-1.4282247074894812
-0.07386734589183819
-0.5784012990094243
-3.7877977372098277
3.5051512919801255
-0.740040984048079
-1.6561168229769145
-0.036654825233651156
2.0805523191378823
-2.3295515332268915
-0.44806215597645505
0.2406090298244501
0.5445130517539365
0.8114654862120498
-2.187573589661107
-0.18768577075662662
-0.33630557634561686
-1.3882750757409064
0.39708213825925665
0.2889113494338189
1.598700317806625
-1.6300768000133656
-1.7160825336885435
0.971286376978644
1.096743547397364
0.6452792609009346
-0.7445928848847299
-0.6774000815103944
-1.3405918623139264
-1.9002644433008413
0.549893030689808
-1.7800870512541351
3.3417596152825624
-2.551930346253964
-1.2775373516588013
0.14184629616162236
-2.160946478618869
-0.32783400100248494
-0.6284504984288142
-1.5514732729285086
3.5172908008618977
-1.3443028814186908
-0.6124936074608653
0.9100668278809576
3.043871177861452
-1.6045339305583175
4.379401340609957
-4.360168676946869
3.2745944363221313
-1.0543422843751493
-1.063713548985371
-0.4112625249860282
1.0532587789711172
1.251251839705212
2.3791892496035647
-0.243158764628284
-0.4198923266452508
1.026844394330123
-2.3399242683501464
-2.7215417163512026
-1.9946268337136193
-3.1628689035237034
1.064038246961298
-0.46292964367670164
1.904168267426071
-2.4647010756625205
0.370953743967978
0.4662671199653108
-2.711024287201841
-0.7844200570460674
-0.8671339089092869
-0.8070280203915172
0.815985187424392
1.8362136890555942
-0.2766593942396409
2.179205130880172
-1.1584719684878078
0.6690703060552812
-2.1849587688621437
-0.9813712547424047
-2.0151407257984535
-2.2678160620807226
0.9417804280559128
-2.955869273782726
-0.1464621925505547
-1.6385538113341378
3.8012913281625655
-0.09730911743615955
2.5876540225147253
-1.9222904712518312
-2.045026219590558
-4.746216129457037
1.8791546785409436
-0.09444879987002297
-1.4191389198498654
-3.252433598191049
-0.8774838861605074
2.299946979770193
0.936061546188907
0.43910083367760544
-0.6469847286526367
-2.1628946466753867
-0.8150792335303181
0.7948612231245611
1.6288467431353046
2.825711533286545
0.24915785818165492
1.447778282296448
-0.48666007519919807
-2.0051682011309344
0.3362240961688845
0.8570667092918987
4.313521504389343
0.41472863493176426
-3.197866469870084
-1.9709114992409025
-1.2687226978273927
1.8068341670225423
3.0050169247270153
3.455501382508159
3.583361219124455
-1.6008635323433862
3.8056484940794615
0.4249426119237659
0.2465010635923942
2.4832232506710503
-0.6288052468962824
-3.135501594036554
1.4838533353421668
0.8292376777886385
-0.06156385073217052
-2.132793433682124
-1.6909452751836451
0.11499377446161407
-0.8072883087074785
-0.9381534211678477
0.5441218852440184
-0.4744986637483346
-1.0811642517497582
0.9812637901889212
-1.2725519449938758
-4.320848153869712
2.580238055158488
4.585478660696839
0.028148460422809496
0.03681461340361902
0.4825759495070372
-1.9041687275360542
-4.1769975941850115
-1.0499083255863706
-0.821931019254236
0.2964115702587995
-1.407756764051721
-3.495014938437694
2.7668075248758632
0.45902342817636166
0.7904464618975576
0.3172222240959135
3.7512823424215105
0.047935478103077855
-1.6512351487456773
-4.5645071653330636
-3.899612394005562
-3.6393340264656886
1.464761816796458
1.5088447767675373
-1.820853056568311
-1.7389467908717773
0.33609183003677146
-1.6255081980059154
-1.799588330042257
-0.8391387717591319
-1.5057208062300949
0.22227931113206978
-0.1452187231080826
-2.593829821841764
1.3948433784933423
-1.5079376873570927
0.7749975855264273
-0.775197837142926
-2.0799764765791826
-1.3397580619638876
1.4910609200624565
-0.6089670784142742
-2.549650736117441
-3.9282872204309873
-2.467681558369061
-0.23616302065285755
0.161309889784234
0.9734711550478004
2.3327770205989076
0.8549197268191648
3.2013713065990177
-2.093868352211127
-1.4041140536892676
-3.417216594758024
0.40758952530916104
-0.39039439720704827
0.7750450552147647
2.3690790381975027
3.2150737290502063
0.5991892252141724
1.3260833530072746
1.7334931484558282
0.4165448861593801
0.5683107898514708
3.3879621471222907
1.5434196626856491
-0.5717560740432155
2.774190195679935
-2.452050968202072
1.0746668107793287
1.718436043007392
-2.437344245210533
0.34751592248393415
0.039449497095373154
0.054763432558901926
1.188374653498065
-2.814790730039596
0.737917322897927
0.22669577961828846
0.08673996335033696
-2.7272576273230906
-0.5105339449129183
-0.10067202685851173
-4.246328913196626
-1.6994382080160868
2.500085775237657
-2.745224142084848
0.3895710368512355
-1.5308656385013482
-3.6780055273842844
2.077418825052672
3.463697435390188
3.5422088814399006
-1.9381951982391687
-3.0607579346598226
-0.6448094449298716
1.578299287197043
-4.506521643761183
1.1415233375469622
1.2270135758008012
2.996640551747231
2.2323131674961743
0.06912065221475494
1.2890521059485507
-1.366132014512036
3.126218333386138
-2.386394873006161
-2.3933766289793836
-1.5523321596623942
0.020520963756927024
-0.6785066721221478
2.6106473352791415
3.5236521913511583
-1.9474382681421276
-1.0761741889031051
3.465725763239351
-0.958294444331032
2.632322877849529
-4.096656129659235
-0.547616427343365
0.8580536888482762
-2.7346575055181654
1.7555146313390428
1.5197180389221492
-1.6406937347737554
2.3741638586096263
-2.4003474503378777
-0.8352895740108984
1.2447213491669606
0.27456991331928027
0.7963896889440805
-0.2055535766868024
-2.107057083193798
1.4628527819228556
3.2277429844031165
0.7274969836971605
2.9694605272393755
-2.6296315814064606
-1.1039709192789187
-1.0092907057159062
1.9310421792489962
-0.25837312705479754
-1.5021225921505579
4.06765843250829
0.0833900485635537
1.792167081236958
3.6295904446754825
-1.2449919018562352
-1.1517320934300368
1.302467034034585
-1.7198980168723366
-1.7169668660725044
1.8963518526224
0.8041390525735652
0.2677827896888014
-2.1434498602649446
3.8020536824103623
0.014660874643972477
0.27734358282633087
3.772509861361124
-1.1234326675641433
0.6768907921258602
1.153086585953425
-1.7295004039664894
-2.1646131710071224
-1.0403812669117247
0.10475415881994465
-1.7275954726584248
-0.04345232818478095
0.5754021266269871
1.4822247983715222
-1.8325194469555424
-1.6141590996503803
-1.228062972256246
-2.224692752850092
-3.2009132266180793
1.2452501336925663
0.3532146815467202
1.4948829257670981
-1.1906719573151516
1.2008597145606825
-0.11328711351233256
0.5916438512476718
0.49785768905915906
-3.853512324399926
2.2528724104215416
0.06868087713183302
0.35109065592856703
-1.340710427758002
3.6931090112968574
2.44416740547683
4.39807620163448
1.8835862298579915
1.51261027318111
-0.2796074874204395
-3.4507180244996287
4.499163163055342
2.5941677349240155
-0.484609871325834
-0.9254638521326664
2.4302933737615424
0.8792941182091432
3.0134170213345266
-1.6236172347305748
-0.048267521968500926
3.9728756852619176
-2.6094717655077755
1.215093431976817
2.847936378110019
-0.9723900200005968
0.37149945454441147
-3.45840690322144
1.2817519943052802
3.064478237831783
-0.4256519152939915
-1.9054574008018381
0.028830453641921938
2.8855036864764214
4.298701306987787
-2.082165885113962
-1.2659875697143805
-0.2649560945926549
2.4142616463560356
0.9547441660388062
-0.1540629536354725
-1.1341301925944873
0.005621222181814822
-4.12500033396277
-3.113877014901827
4.166278441257251
-3.5703278532025484
2.2910013661295494
0.7087718092488711
3.0044918065372093
2.4418661189134134
-0.4805408697292708
1.4075451170384816
1.446590146121871
-0.9524299243332037
-2.955312868765338
3.525562995348186
0.004231087806146228
-0.2652287509222395
1.8398085512324576
-2.775124001609467
0.06840347319810691
-1.2556215093148464
2.702121083903525
3.0716595272817577
1.1854665002063065
3.034371496504138
1.7588725228893571
3.093381050564283
-0.6682760141297508
0.5940486703789492
-1.7003036817536148
-4.235810660869381
1.3427838543078003
-2.235378392910884
0.09195720547171371
-2.425222354285299
0.6539525820242942
3.2224068587764747
-2.6647430625903032
3.842967618216079
-0.4920847731022331
1.2808669893648137
-0.588649031128784
-3.578731962308613
-2.2140499719729725
-2.8322518467275843
-0.4142758874231144
0.9576545742320413
3.618928649791823
-3.066435138015175
2.817077133843112
-3.634177062070931
-4.0656487191707855
-0.3523160568403121
-3.1690263562732457
-0.8388356251411571
-0.9043325622419717
-0.4617455184709094
1.6138959797918426
0.3187141716570602
-0.20986950773741908
0.7322365658350884
2.483962861481176
2.309322565649612
1.3214393790707626
2.25177756821483
1.8945559446343396
3.9702984260844314
0.4634143113447835
0.9231854275096918
0.12710739158269924
-4.133224896567022
2.0309571297990328
-0.1452498783935905
0.02929662444419945
3.80005000439834
1.3245477314233254
0.1396626512730409
0.9549082290369144
-1.8808544240349265
-0.39547391346108984
-1.5597180244603426
2.0615997730806255
1.491844224703239
2.751407490269395
-1.890001300454031
0.12282874939054533
2.791444407626919
3.2684853255255444
-3.491052182449066
-2.9898082709307783
-0.24450913214548242
0.7829669719293642
1.169817970922045
2.0024214336278496
3.0727264003827166
1.2018964672241426
2.470008480718054
-0.9227043693931047
-0.44548314537727896
-0.32088925231121346
0.466384892938299
-0.657294873750812
-2.9530010058151785
2.5494827760798935
3.5488809432911284
3.7631325991270073
-1.2597999851665205
-1.6133014673685182
-3.4308007558234963
1.3377914854272717
-0.46961912570362196
-1.659180610503478
1.100859047770109
-2.1133255753778157
-2.9081483611968233
0.9118801224156234
0.4868420467995511
0.6007626368978212
0.3145096589329168
1.3157719938344465
-2.668915060570991
-1.4873548549784443
2.763350344267748
0.5986601181739495
1.090071135453217
-0.9562022035895086
3.816200529868046
-0.3438129978334139
-1.5792313089105812
0.7847730097385721
0.13592494912464392
-1.686288752554812
-1.0588329269144054
-2.335450170684492
0.13335431588714952
-0.37616974644041923
4.059660062951015
-0.3347071726106271
-0.9228126069307896
-0.4625601425846142
-3.4704714803854886
0.23877279036732024
-2.492884896405143
-2.895422785887332
3.3847683741655614
-4.4193029414460145
0.6064169002184165
0.36130022770788073
-0.08648167995835943
-4.080801120876657
-3.8097200912262714
-1.9411482259722308
2.325333764409839
-1.0262612171757852
-1.0339081935567853
-2.6086413287026256
1.7685591944262016
0.7406647364319663
-1.2780448816181016
-2.121683826091789
2.3540476847891583
-1.2383170361404847
0.09967411780435642
1.5581079450887794
0.8414788062008514
3.031489093666611
1.6084657381599858
-0.35118965334748564
0.6445233631294889
-0.29919115632850435
1.535641584685242
0.832532342689838
2.8111062949923253
-2.268900534974159
-1.589486353948856
1.319540972966509
1.63501698871629
-1.3428387690371395
-1.3222281635240412
-3.1515787657966463
-2.4448825572738153
-0.3860910740191925
-0.7634147760366901
-3.22147840840175
-0.0016020226477126975
-0.21644670877599748
2.5016748515182265
0.43093440580029885
2.8231306336840816
0.4194433503990691
1.642610007001346
0.8342616781331893
0.018369955861945897
-1.3971820671391826
-1.3424234064681384
1.0314159208183293
-0.6839475835793976
-0.11128171321909708
-2.0621312889586254
-1.8962938175342834
1.3719417209845706
-0.002690049977891462
2.9793522499008414
0.06845888657151411
2.171673412597788
0.7068657716313576
3.897151383705357
0.8064246308773946
1.3181467570457226
0.10465810256271624
3.399808773795746
3.175219413237718
-1.1434861723207637
2.3520116015086545
-1.1208340232408736
-4.534948791667803
3.2930157827553046
-2.8802333883982603
3.272219188824172
-3.647018149013776
-1.5360811384929576
-1.1495982028497238
2.3511957753119677
3.5119738838378174
-3.0892043038844
1.0030677098035579
1.0981046328955935
1.0309727721481952
-2.581594714639746
0.43778004781605095
1.8200085150383645
0.8022738454717193
-0.6285788240730548
-2.9049768397808826
1.6612687606606462
3.0324251885460694
1.5862562797684248
4.127014273203101
2.169013983672252
-3.9670852019628864
-1.7257644128702188
-1.363123468173197
3.568079736153254
0.44689360002836476
-0.2076325611933112
-1.8180262069512283
1.4016723419479626
-1.9318171315930894
0.8379610409714722
3.197654592645166
3.1940043604897417
0.4088179370589229
3.7433428232852717
0.49765635936348085
2.7911526424472135
2.1713757774511544
-0.47308060186277645
3.0074201300975085
0.03639053482886956
-0.21766159098264337
-0.6431601292594604
0.8865649022818785
3.436240428765058
0.14274194910017268
-0.9164967537303617
-0.8032269306155505
-1.5264987376575982
-0.24764038091702822
-0.5028340810575893
-2.7286653399154366
-0.7765033498310299
-0.6363291768578416
-0.0331041912043889
-0.057397055397456764
0.9297973579756103
-0.6781347131933346
3.1171235116975025
-4.216390126173501
1.195665135036243
0.7471316150403613
-1.8019573837188028
2.5200907854579713
-2.5525295693803627
2.7154823117721074
0.8061062005815434
-0.23082920836981202
-1.673668620215472
0.594362832449868
-3.389128337941003
-0.7390394314130604
1.6642267337421508
0.6892959664855385
1.744443799519777
-2.300688719333179
-3.2991696563844752
-3.6421880476124753
2.509764128290603
-2.582018127389503
-1.8026802761920742
0.7469133127677599
-2.9360010451394962
-0.011535337360379372
0.10340533523438733
1.310324812020173
1.7332750864176956
2.9357217252670225
1.4338340086983785
-3.7382213585555837
-0.3849876512672612
-0.28191842743452833
-2.9893850631931937
-1.8794149889055864
-0.8758955299750237
3.1275459406456063
-4.272782368608008
4.505737433561695
0.13919795129831192
-2.7332435864122235
-1.0090073409804572
1.3348034750195166
0.4053174260452872
-1.7411282653403437
2.000065743643681
-1.4161492942274245
-0.1509101134796782
-1.153395282499487
0.5109540373321808
-1.2353424174429741
0.46281545991722783
2.0366695325981823
0.7531543285585998
-1.7245402601063402
-0.5863630373597601
-1.0541105261674621
0.14695563976847525
1.7814811992215707
-1.965943636961494
1.005214490295376
1.4807224819442601
-0.21849947391970925
-0.6499508858054064
1.6778987371721237
-1.7960973665139923
-0.4832966187813015
-3.196974320770165
-2.151910855471177
-1.507993990844211
-0.6219319313683949
1.821892551821581
1.03607242656917
0.7398072198041477
1.9685386556461681
-2.098542524964782
-1.4035653405510722
-1.8609793016934137
-4.023769147551274
-1.156563921450792
0.055378764049905715
-0.0033027328619444907
-2.9850744012967643
-1.183695958670432
-1.2565464997398108
-2.5494045066381825
2.5880953956402917
-3.109753439091807
3.879941991371834
1.2377737262284234
1.3327172881866236
3.703457506465922
-1.7348392225605056
-0.8273443583794817
1.6991205902521003
-2.0839657745781204
1.7369187573156983
0.9908191373469357
0.22311960695964417
0.10772082776482272
0.5473864221598133
-1.7852438863904285
-0.45331794536171266
-3.2242509529281214
-2.1833745893113514
-3.3021435155806147
1.3433817932370458
2.08902704375881
0.21902737335542877
-0.4971357476917654
-0.6951126084562911
-4.945074377963782
1.0589145599108885
2.7710562353980746
2.344735214372032
-0.24508836993062255
-0.10845089412355913
-2.7616065601574036
3.175639073642059
1.3052798029554546
-1.1541972381690613
3.0548955921970333
-2.583417028151306
0.1992319984519355
0.8047377663312538
0.5634866640628458
3.3859505444651825
2.6865538184713125
-0.39965349145110807
-0.3054342221350991
2.7369392943985424
-0.1528609436080237
-2.6212979029468313
-4.367451505112749
-2.908490276729289
-1.9853880367996188
-0.7082302840026689
-1.5893686901968014
-4.170880535700771
-1.7937028235320622
0.6721260422607833
4.090029568232163
0.18649349012670347
-2.784213365374509
1.846841075152154
0.17993723571648235
-1.1753216602955243
-1.975644593298607
0.7467691306857165
-2.0455408183144876
0.019632555166854804
-2.8125261771649432
3.46749992476882
4.3227674615382
0.6326010492839078
1.8526679847436283
2.9382201480973498
0.9087285351211755
2.016525594429171
-0.93502149985474
-4.145265480054086
-2.003746126690952
-1.9852591327161957
0.016265198979869222
-1.9671020097515335
-4.003376054298027
0.2082038443710177
-3.1053888973020585
3.3387075556154313
2.094033347281399
-4.4324896215151695
-0.009926372024309238
-3.6486959824214624
-0.2743898882228848
1.6659454845082826
-2.286967354657379
-1.0848656161164065
-1.447843551954124
-0.3901802509251233
2.1813875464049572
0.7375241235353265
-2.424136723337552
-0.15765996830393503
-1.9671494440348032
-0.8120904706203222
-0.9387538989534189
0.977266499279549
2.1185890387676807
-1.5450195579910169
0.9155546648325785
1.8186030440741243
1.7344642606878695
-1.782016932765248
0.1849048983804238
1.7225749151051568
-0.9538810929396169
1.988433140913493
0.32238314744354746
-0.5418597593925827
-0.6358388095074807
-4.7215114971819325
-0.11562605639298429
0.7222861422754936
-4.074302447164918
-1.2477671020381051
0.3113589998312336
-0.5336378461911988
-1.1615376848021146
1.5161190239872533
0.4494407768775205
-1.8103036453408152
0.8437953121062689
-0.2951776549982448
-4.5311631861654815
2.3567485705858564
2.5547175773195594
0.5187548825671309
2.835597945004386
-0.9059526814756267
-0.17464641578962592
1.8694886415792682
2.992798608024494
0.323162984729243
0.9079523433999022
-2.2106597340705814
-2.5925495716673845
0.48596540381299513
1.0537551899958082
-0.23863535546543302
1.639387433862948
-0.9815829389574176
2.2139621160930414
-0.8739901178092562
-3.911625095355181
2.7291510540914397
0.4970451514364682
0.7206812068256587
2.0756901366856093
-1.760915186909346
-0.9613409167163383
-2.091533623383945
0.9164267522807137
-0.3616816573514683
-1.059598628871936
-0.8477303629944911
-1.3612291638679201
1.5165676866587932
0.9336674495015087
-3.709392761877075
4.0064996353484625
-2.47661583229397
0.4248558077137172
4.671312754730336
-2.4990459915646275
-0.3855916862506882
-1.4218309602522328
0.29940149390996496
-1.0812676933901795
-1.8600916466596806
-2.9077357154063215
-0.8446528499976558
1.2413577666174902
2.9318552467949353
-0.6730008242667216
-1.159983286250004
-1.5668320075428785
0.5457818994004939
0.4365278376456092
-2.297484024405387
-0.17632288492636672
2.8136777045137613
-0.8350076225062213
1.6071961004305617
3.730661293587296
-3.1358319257114076
-1.0389365587129689
3.4960695159433643
2.9802166570044024
1.7662296588535082
1.0675778903821562
0.9028855918359663
-0.01996173618583086
1.9526902411259046
2.24252426189158
1.5751178538443078
-0.9978253081530637
2.579764231600513
-0.2323741429984083
2.360110155106987
3.3315025889674903
-3.0211275477243613
1.4007710776867786
1.5116331762614954
-0.06382435203305226
1.356998400653484
2.9285424204460386
-0.4268983429359601
4.316295167447654
1.9018283418735689
0.9750920339127087
-1.0062988022919561
3.187053607326486
4.447927494421373
-1.2763843040009872
-2.3663247438442427
-2.3473984209935113
-3.139799150435907
2.2066740860028506
1.3150228932915997
-0.47311434447129597
-0.7091106746662561
-0.17838835728479951
0.5738561040723242
-1.54228905647301
2.4663512853255685
-2.272676551421924
-3.229332788023174
2.510274535699014
-0.8401210689608674
-1.2213806121499486
-2.285242897918369
-0.13357673592444486
-0.9932004019699375
2.654436316852486
-2.040927390603483
-0.7041174566464377
1.8181128802100854
4.836147345241874
-1.078294895614977
2.055708681493814
-0.4510874305179159
2.092219487922083
-1.0097013331899403
2.874214129057645
2.077843589989744
2.125468637530298
-1.2343816002866954
-2.324385382783486
1.9538445532962427
0.03916140347689767
1.600528764784701
0.7016495930598259
-1.7335755253561747
-0.7217832092134036
-0.409366913022835
-1.313575321382626
-0.20427400975774024
-0.2982476526621096
0.1728215764254597
-0.259272139754974
-2.401376831296826
0.4432315525442454
-1.5120191218305425
-0.39793328082028445
-2.812896351134948
0.21445536244052876
0.6641129447755976
2.9066800490401006
-4.544812630548944
2.7096546097123078
-1.8238850987477448
2.139770873055711
-2.4893706868755783
-0.23407278328718828
-1.5615318556123463
1.9202124931674103
3.5676580833487885
-0.0637245701109419
1.7870879733770246
1.27597778753168
1.056999599263365
0.13148867278966403
0.006583707501168323
1.566539961304429
2.1094350447712524
-2.012873742499628
-3.4408215729452527
2.7084970533994395
1.5691454862946934
-2.3881545228259853
-1.328460738138047
0.36066877662618135
0.6930903582446133
1.3733290959835038
1.4357675870952922
1.7249152371872492
1.6926717836233798
0.37805910026909983
4.080799678206102
-2.3810699402520763
3.273933567935881
1.3011899076446747
-1.429533187846503
3.4772540367909945
2.332546088769792
-2.7772329217296483
0.6844668568565124
1.9367633185854811
1.9598256211969063
0.12654554462010914
3.738494249893544
-0.33712143949438156
0.9160392468505831
-2.282345925496017
0.09978167497255486
1.0727488205113151
-0.2727559641571822
-2.784641208419446
0.6543013802774629
-3.388344419554823
-1.4380864879788748
-1.2228274573748283
2.3818763179702924
3.238891727038571
-2.956403560055753
1.210564202388289
-0.8045486413654972
-0.22063838866008822
1.1558631047452632
-2.3714866357951334
1.2007755049971522
-0.2028454362339862
-2.604214386622788
-1.2948358653398158
-2.467255907883425
-0.35265888726643135
-0.6677968584211187
-3.812173688306373
-2.075350485812529
-0.637759143195499
-3.274976129537719
4.3215737156381095
-1.8334053939493145
-0.9715852599248525
-2.6381907528527586
-3.157308843673676
-0.3906854626494449
-1.689371777948573
1.7678971562220354
2.197217496081503
2.869659335770346
1.779038017234114
-4.05369334377678
-0.3591616966193487
0.8939863990615429
-2.304148571146187
2.3036802718671643
-1.1236257095907725
1.53571354767559
-2.082291581217674
-1.0814897784832525
-4.114880896198965
-0.19671846932101822
1.5700356615774353
-2.6920996017094474
2.6082734068403717
-0.0652224201583631
0.1496245873329487
-1.1508865354696987
3.1347271087866506
2.4554686265561827
1.711680128093609
0.012152419342235987
-0.948560116651797
-3.6255054901205988
-3.2024058903423063
-3.440371691391815
-3.3873315953015997
1.6769717275044282
3.7596903760559117
1.8701623941007472
3.3842911881188655
2.2677568658620455
-3.8608080622550567
-0.45842592143072025
2.0194822948835425
-0.47687899378227583
-0.24633740477771937
0.4301029779369503
-1.1780184152812758
-3.393416725612723
-2.849831513776726
-0.7180823704315795
-0.24678744806459374
-1.294844498509959
2.0804156589915808
1.113157514114893
1.5394987068245192
-0.6577540601549754
1.6541074061503833
2.4947621464947884
0.535627079719807
-2.076525477030423
3.8267755990203813
-2.1016659374716107
2.0010091387666664
3.671647092245379
-2.121665400210641
1.2592872216105488
2.444689635952654
1.1071401851416445
0.5386075955367655
-2.086469367827968
-2.3045462530562197
2.2299464152635307
0.4160757941632498
2.063937528220698
-0.6467199609499246
-4.440371090128195
3.386100028205358
-0.06715113936819339
-2.721606269316134
-2.810562408143423
-3.405134942426244
-1.24313700389943
0.774165094425225
-0.9891665378688246
3.7352970112648283
-3.2198409536782506
1.1201067219999734
-0.7353246169375018
4.251202843473701
-0.597392342539643
-1.8887812498843373
0.57531492285747
-0.8741174578182154
1.6389144473040758
-1.7400687048874723
0.6238529419580874
0.9114643067513678
2.045050069173098
-2.6831062830845154
0.616804971480784
0.6552125385307126
3.2682155172450367
-0.23313623995970678
-3.293572052834486
-0.6209425546081571
-0.6234085630357878
2.955941572779958
-0.4810430865077806
1.7685988609193126
0.12512437652971942
-1.4935964105245467
-3.0529993148486225
-0.2721687089671989
2.313596209934154
-1.324616934863795
0.36234910383982855
-1.5441575837672117
3.3932299655706446
0.31364874554151
-0.594560091006894
-2.298265926091082
-2.5219192504283408
-0.9192699732897447
0.5077354762396591
0.8540159372435459
-1.0825387273930676
-3.427358199496318
-0.6967397265911695
-0.47927833979186474
-1.4143467229927937
-1.981545118443079
-2.914451904214908
1.2564976306791928
3.0451529573307905
-1.7980342661552906
1.4662495579113513
3.0929153677701073
1.7397031613557745
3.2647120626292696
-3.6083505003197085
-1.4717456473556743
2.373359049004585
1.046588809659612
-3.326654917960214
0.6330105757371451
-0.36815970579307133
2.6203083606554363
-2.810666365995119
-1.0726255395922686
2.4024176993007265
-2.3240385599041606
1.9117608772908046
2.686934489029917
-0.3514153007261417
1.411923843450515
2.917579111800123
-1.6671489143869536
0.09576535073663361
-4.41163876495729
-0.4616347567795711
-1.4372450797069272
0.8843059301665286
-3.600417697417759
-2.194450050400756
0.8786161269361076
0.34600203433832855
1.8214884732443104
0.34730622902478725
-1.832162071357606
0.06041218178314134
1.0903723449775624
1.893348327256041
-1.006178092549054
1.3472046672887932
-1.0306874836234963
0.5438903305120766
0.2522562523644556
1.3507905309302215
-2.5415822861402306
-0.04098405619528833
-0.1506239153601241
-1.1265078496427898
-2.3948331435919363
2.624707920460576
2.0584477160049004
0.11349577297391145
-0.9289018198792871
-0.6482132739342761
-1.7892762964284183
-0.5361600445709129
0.1110951059259051
0.1640112983214106
0.3771227922814875
0.5286896426618402
0.621520333575839
1.7315880587770969
0.6968805655723456
-2.4868559458743382
-4.086553037151046
1.5063412614467253
-0.9905761479806969
-2.8571688358263954
-1.1327620984269782
-1.2852068560456955
-3.554282907173459
1.2695359756519324
-1.875277042562253
-2.6345961630289945
-2.3646678466995747
0.319115224673447
-0.024776989434505126
1.4262226268336526
-0.8145094717619701
-2.262053539324099
1.5916717813958714
-2.6708026021370426
-2.9116727363061923
0.5941625751147699
-1.72691362100786
-1.0426031704963683
-4.28737095316886
1.4899210640003053
-2.6503656868954373
0.27138993963053215
1.0362939981822024
1.9409590976281326
-3.5934515468781303
0.7310379216720047
0.7757644259299612
2.3796833101842934
-1.51685984955665
-1.3310547489196072
-0.9313181353248874
3.938045010044967
1.9031596977227863
2.7718212090047443
3.3660152857727166
-2.8335498295133985
2.392753596458673
1.8260009593640678
1.1899121742303898
-2.155045098373307
0.14227145716640788
-2.1166223748005946
-0.5864791739445979
0.042995986828353594
-0.5318314981659511
3.00399427698564
-1.2809628626787817
-3.4160934116575272
-1.2687430600678602
-0.26845450935803283
-4.109776953252057
2.0704672269612474
3.167554646370793
0.4580399956251604
-3.404352406612774
-1.372258902624413
-1.7120184930518794
0.833872580728436
1.3189009549557356
-0.48055356828658846
1.503153275293494
2.3795567779700475
-2.907969061708359
-4.205888379809948
-0.37047646963285263
-0.5446323157126737
-2.311547190981139
-3.8827325595244986
-0.06687731555006238
0.7451443552576953
-0.06841970723422408
-0.05407692671477138
2.3671453012370325
0.4105031422191696
-1.2245695023316898
-0.7984210853052236
0.6596342269344859
-0.92828948705781
3.8134514845737715
3.598022192132598
-0.09248675899266479
-0.2285334217863264
-0.1281784161091597
-0.2198402643441253
3.3332172510188016
4.077848088002567
-0.6565276107482392
-0.5698642258910831
-4.139830794988179
3.482662492096808
-1.0809166651607667
1.4969829237869865
2.163355949622166
-3.748538543648049
-1.6286997664211027
-1.2939387572490966
1.8512507917640568
-0.11853509209928736
4.04842538502667
-1.4954699833575935
-0.5646657529805387
-0.676355627007259
-0.26616948743525004
3.5991058080411236
-3.256538075335122
1.125218468953196
-2.472656881032208
2.2423558310556446
0.43333140499584744
-1.3511938898202152
1.4048544652150063
3.423775563829621
2.262294227662334
-1.4755087417576767
1.112400879196788
-2.8780972846065835
-0.23023150254026525
-1.5089515732110415
4.050967865790322
-0.22628488156229265
0.02849673617253745
-3.2174237106819907
-2.191734404291066
0.11756496246280168
4.120903294822468
3.2167933688911328
-4.0062708810984695
0.5658970878916838
-0.003202331448283857
2.1412432323525805
0.0329891231920737
-0.7359964679168667
1.3686766128827488
-2.6063407061716553
-0.42193274551230175
-2.0089381756844977
0.30087408579431774
-0.5672591030990882
-0.810457882731356
1.0597103382645994
1.148807667524223
-0.20441175296400838
-1.0530597302881852
-4.62959358909309
3.5045736862881207
-1.9619510187559492
-3.3564028599317295
1.7768224735225657
-3.1948605216925117
-3.6857770220224606
-0.7777567782722854
2.918524339107368
-0.7406158092278159
1.7513797588685545
1.107561293154168
-2.322812810108511
-1.249764486950557
-3.223466404808276
2.0919667418704466
2.4125949738960957
-1.6318443180843345
2.5509305216454274
2.430860463965885
-0.865324226006724
-0.7677757793713068
0.6686947545219395
2.8036047791772303
0.7678225836908043
3.2550694165123844
3.275885140580921
1.7964717585113408
-1.3362516721831574
-1.4921042266462283
1.7662124119523082
-1.4361866386216917
2.519126797500277
-0.1581395136340742
4.209666159749494
3.323706429988142
2.854268486633404
-2.5779527809019482
-3.329698592350841
-1.655681936322261
1.2090812110733336
-4.169713048209499
-1.4305633216490914
2.0772444954270526
-1.7874329690337962
-3.606922094153475
2.2505111989988844
-0.9059271324668755
-0.3178971757468074
0.39085118467460056
1.9018524679262532
-1.517584100542975
0.9087572983411176
0.8048360727240967
1.9936040639789239
3.3576680997543025
-0.7151080629917974
0.25777088791006886
0.385063728686486
-0.8532643242276174
0.4302988930452556
-2.1952862237152178
1.2586814535251372
-1.7000113559861192
-2.0268786134481522
2.2301991206343197
3.0369673045173378
4.08768573022736
-2.8581874003800083
4.50799290877662
1.4385606535639313
1.137122052240609
2.3243760941275142
-2.92030465905753
-2.1702916864207022
0.36674898250507315
-1.2488553625567318
2.6084408927719904
-1.9725972002095786
0.9735172264478149
-1.542657898105858
-0.1360535025060967
-3.28956783692183
2.1296919920589783
0.6816812249766571
-0.6048437243192342
-2.4054115546034662
2.0453916593401624
1.8572468135463134
1.6467365308855437
-0.47171305179381995
2.053098228995239
0.3509130811481529
0.17566459667529077
3.6648455246264318
-1.6296092645283942
1.107547532942323
-2.375831170354007
1.8676745961259251
-0.8028483826330686
0.3552492678242368
-2.8947361445250044
1.5046260613747653
4.803495144146826
0.5278718770189421
1.6571351588454204
-3.212246413782231
-1.735330617695375
0.5610827575570143
-0.5773795974455576
-3.1852671850793453
-0.5008203176783992
1.7182063377025587
-2.7899620841446566
0.46819056438169016
0.2663854675820443
-0.8978962222012932
0.09161458022260316
-1.6708033921445409
-2.2201794582243073
-0.9906636544220304
-0.3042404707235802
1.7611623415096869
-0.40751622144124866
2.2828650294028208
3.849436561608178
-0.6795970049001827
-2.5896453431630646
-1.1804646978825768
0.2268839184174294
0.649607605576489
-2.509619122029194
-1.611404200820239
1.6609318660103154
-1.989530235873906
0.2791873128604022
2.917504368609253
0.7731672566106322
0.6117292414182538
1.948759922708764
0.4012666056346226
1.5791969976495834
1.8888728822004262
0.48535010162524106
0.5915618941990164
-4.274741961636494
-0.10825371037623599
3.987853457397212
2.6219031857942525
-3.9875746431692196
0.936324615934681
-1.1680902548101897
-0.2749175169568723
-0.1353317615138
1.6768955445381242
0.3559766293977713
1.1991516112629408
0.39700312549438754
-0.24510042368262375
-1.2743743724632628
1.7781871906911233
-2.2600056288981936
3.180683759954438
-2.3676894727876645
-1.4359077761732553
3.276854158581168
3.604412116490638
-1.5171412837830733
0.675681794958495
-0.5506125945418159
-1.3676104315761997
2.7359351207459133
1.7713044022632114
-2.2109632130636547
-1.6549569293835609
0.0417290427718755
0.6012477606500797
-2.1707262262845117
-3.827184662298996
-0.15888715348964355
-0.253819255253815
-0.44441134254853465
-0.7137830485807939
-0.9194755013508664
-2.3021197643072697
-2.950673646877661
3.656289560372435
-1.3011784288297412
-0.5615079175439899
0.981622665181971
-1.0582712131590721
1.5423588604483291
0.6745785921069336
-2.386315098960029
-1.64108201147322
4.364537678489107
0.8822007166919268
1.9596730833708231
-1.3088791061680114
-3.433920433961595
0.31928519048060877
-2.231573163115958
0.593086195677599
-1.6677301987836861
1.1615266478582362
1.980290773791086
-0.6526896656642078
0.8234266571563822
2.9180754226831453
1.315287774937659
1.2282117032925834
1.074841111752553
2.283260463330729
-1.3511110324764208
0.6304650418104027
-0.7375596447097572
2.5805965741280734
1.8316324040820597
3.1177451503888642
0.9904233008372825
-2.0446716023669835
-2.3911609798768296
-0.45186840148054497
-2.7428803449682704
2.4717575172411346
-1.7033245090724702
1.4324230393917916
-0.2446800654215675
-0.7283931917920485
3.8708162156794903
-2.3183882421341018
-0.8366695552170689
-0.05033165793592431
2.1239517397458707
-2.100230921975078
-0.9170013317163634
-0.6970130391462009
4.548395470760485
2.378589574413709
-1.7190366216659139
0.6098294769593409
0.6000373404250248
-1.0501531260539525
-1.110624628168945
-3.4053113652909466
-2.0001033597844424
-3.147991826977882
-1.7776573851003121
1.2355716405201491
1.7295202987194371
-2.2327391471145805
1.8643469628301168
2.5698251544890867
-0.6235190105397654
-0.8148031723554148
-4.313116211514849
-3.3452553124649747
0.48622118792388536
0.2494092000822552
-0.5504254133000792
-2.1607818636588805
-2.423503923472456
0.24324790275769814
-0.35799812286369026
0.5026572861577261
-3.529336497593096
-0.12901460224752626
-0.7774830798521117
-2.582538872246373
-1.3939279758816716
0.4906436574199935
1.9102700896588258
-0.10873316976389047
2.97379532663735
1.4547299232095723
-1.3132865509629714
-0.15476547429402343
0.34596687197051834
0.7151335825129439
-0.83717268888409
3.984618171189652
2.4469591159544395
-1.1515672963149122
0.4683174226186293
0.2178702084363815
-1.2753374258307115
1.6578609300596219
1.319036938324991
1.4805332555981625
-1.6218878032155086
-3.4918153857848755
-1.0811206963058009
2.120165433793321
0.29771052381100915
2.5497399247371426
-3.647605129820857
1.9985512214668617
3.574299029385619
-0.012120118761922871
3.124379746131214
-1.5325520586786117
1.2333272755732394
3.554082465489999
1.502687323345531
1.3741168670052755
4.850369719690774
0.3349676782700248
1.3205129938023288
1.2528900229073918
2.7042401681675514
-2.8845243416512067
0.8944000379628048
0.8590211427044008
-0.8760472476296508
-2.607545670731898
-3.2857799696042047
0.2010729030912075
-2.314216855301607
-1.7850922037314187
-0.4386250009644823
0.22808919636382852
-4.083325654477859
-2.992845221422658
-0.2885281473738731
0.32780150354719373
-0.8397574525894119
-1.4688536377345005
-1.1222798130447753
-0.20787836648996105
-3.7383703576049037
-2.855804735388048
-3.448697654695646
-1.593831376839304
-0.27254718768034625
-0.4916358929560194
-1.605033528810424
1.3170821386717466
3.0171034304668476
-2.0922351869147766
4.346091875854984
-1.6611304977248964
2.6216418402075248
-0.6699831481009682
-0.914523062948355
2.8495386100696534
-2.413459239595925
-4.531882811084197
-2.471899732824882
0.43676632407464555
-0.8654732109582551
-1.2010306338909125
-2.007895824798879
-2.5516488232961176
3.0447678374347182
-0.10517691670707352
0.7022501919170621
-0.39629757041451885
-2.5553396376760737
1.1238734166387765
-0.7159011133613635
0.8226126857745446
-1.3295376344318237
1.896271716336725
-2.0948397568636796
-2.5724327851294113
2.853025730722333
0.611794115849678
1.7192683130771105
2.875837488110298
-4.115125463243604
3.465423196458134
-1.7295719461659658
-1.82238977969769
-0.575117305308205
0.267087025910667
2.5123841201610904
-1.8435987216802747
0.5967976219145489
2.4318103698196807
-1.8998363110887269
-1.2919944705003403
-1.9621368490700055
-1.7034750976792337
-2.3901595959136817
0.21423049954939932
-3.046211240152235
0.9197903834145942
-0.6572275100286911
2.267666626941997
0.8363170547630272
-1.4793250293858233
-1.6294375823340017
-0.1362584636339239
-2.5003606519625388
2.713047004845489
-0.5230107643849664
1.216310447660371
-2.90809201560944
-0.30847430683381516
-0.3468356232839822
2.3530305153268563
-0.26190347459660623
4.5253428047329916
2.802159742927599
-1.353228188900589
0.47045853050801156
3.716363920169643
-0.6906420886189477
-1.560687553361368
-0.897167158685019
1.1775205312020125
3.1347757961149507
-1.0864313883211674
2.7050468524102476
-2.2120985437934633
-0.9163896571623171
-0.629389026494489
-1.66633223836357
-0.31924460992076753
2.9112570692967634
2.0677151583513105
-1.3246488031728476
0.42065230901332296
-3.08094795968352
-4.22630238842287
-1.7409621919440372
2.2260568151914812
-1.303015113666857
-2.802212686058771
2.8932468498394264
1.3935597263704003
0.6696359876868883
0.44828137256753164
-0.015282136103423882
3.080020995363698
-1.898414491994874
-0.3227630989330894
2.3946505299856007
0.5988727230924553
-1.7814549107434345
0.06744787797493279
3.488791262222536
-0.6131680025518742
-1.8995372024626334
-2.682043880295631
1.037617661484131
0.7972737372474414
-0.997149804982598
0.7843491549952781
2.622870891415783
0.8765142420995273
-0.23741779838605037
0.43009182738099117
0.2066863435886379
-0.7207453411106481
1.94441936687889
-2.2548567794400953
1.519569977117741
-1.5205656048544975
-0.6154966353216644
0.788109980022354
0.9234744980814468
3.4327445840660635
-0.21292511588407947
3.508183006462492
-2.593777831992492
1.8470528980692964
-3.9693363883084034
-0.4968893940187753
2.36352468147577
0.21698653738743157
-0.15999813766704607
0.3694561901972073
-0.17514713743263322
0.7789269257444569
-4.520089414284574
3.801391376097771
-3.220599563771563
-0.45733601728250495
1.1274070703342343
1.5942745158977483
1.258399839684683
0.5559611206368489
0.5782866480231091
2.709263048046459
0.8300312752367534
-3.4417213878930815
-2.05557384323929
1.555213275929526
-0.8368165088866051
1.179910275799147
-2.001939206092459
1.644113134185138
-1.6836912416889238
2.8427765817450426
-0.1807174352508838
-0.22369889785339314
-0.5923718540887768
0.5191312844488136
-3.5969873709595763
0.9117205496211322
-0.6770673824581781
-3.495574346376868
2.8816953033926005
3.883458576697287
1.1172326242074524
1.3605847286585608
1.0199653516446272
-1.8901796535753226
-4.233494484049397
1.1859424233449651
2.6375375131538408
1.4611886426105465
-2.0742096816754976
-2.6319127007477645
-0.3834309929215989
-0.5620819875509544
-1.650120282319063
-1.0241311854790998
-1.8502557393912604
-4.184484687609503
0.6328608129100601
2.9468131097551202
-0.11466665572081736
-0.08664614370198498
-0.07724775753851887
-2.7738004466210544
-2.3745287983515944
0.64317365485106
-3.732510085164094
2.0140465121019053
-1.7660882358168788
2.493617254923258
-4.751489633013089
-0.7237413880639232
0.40950239950591494
-1.3929509514658789
-1.4418192249275306
0.6761830613410347
-0.018366471100294213
-3.8950884165844917
2.177328069262914
-0.9171735176250375
0.3839085642065232
3.817866223251803
-0.19088568560024566
3.811982131108318
0.9622881059433839
2.5769684113792173
-0.7744889682704996
-0.24348283496101586
0.7739558624529668
-1.7778704201310425
-0.8173800039640797
0.5620692427188492
0.5331574006912434
-2.5158879165222503
-0.438907338145778
1.0044047955397692
0.3602628392542335
1.8963118080936687
-2.6121034273455
-1.2753133822388838
0.9902996023570627
-0.10742628442631563
1.3956798635966028
0.4789011030701169
1.097210145163595
2.2472939315195917
-2.2240171177039505
3.0576966480590766
3.3900815887436684
1.014056320097727
-0.21745158926782926
-0.9671183862402426
-2.8624025188095525
-2.880945529759843
-1.1590216048489923
-2.5131673049332575
-0.22303668295931223
-3.234451249033745
-0.17901081136520847
-0.11893656970543631
0.26355290228657235
1.8056087641159135
-1.8724860417513978
1.2202022105842985
-3.1824701951748624
4.235390405198467
-3.7330968561510742
1.6676318310844096
-3.27631043797638
-0.029801245281751987
2.544472440028584
-1.2309625150700598
0.8407753951306285
2.0555857871634418
-0.45035222732755453
-4.559883267939066
0.47651578442049436
3.470732555397211
0.08495949831319849
-1.1253018051073926
-0.7153638667399522
-0.3196315860835215
3.195132392035181
-4.470479275261221
-2.1599083916135133
1.0914730644153985
2.952524546185203
2.341923516291401
-1.4512266154144249
0.5710158497640636
-2.3448363917164823
-0.6633048857384174
-1.452062234755366
1.1809785268743256
2.093630798184848
-1.2216662733641024
-1.7463929457917067
-0.7130859180818914
0.5430418779407065
1.024967012170801
-1.7888059654027422
-1.8037089778802384
3.136376781011596
-2.7598176590313703
1.9055984829832124
2.482871684274306
-1.7245938197893398
4.119016813345086
-2.8129730959721186
3.153376825433745
-1.2645338205132495
0.7843580358316946
-1.031215937009029
-1.1873155601331464
4.120330452009723
-1.989995433005896
0.8532882462730584
2.9838147697113766
-2.6765704804501445
-0.07336348963093009
-1.657441917659881
-2.2610503230585124
2.6516689543057743
-1.633052895648049
1.2894230767131578
-1.2022629970350764
-1.7319061115072254
0.006182582587898722
-1.7542938595955277
2.24913106370488
-4.390347940119188
1.454345103506292
0.3636284773446756
-1.946982701222125
-1.5636957312898803
2.4563023717670975
-2.4933116860683295
0.4778726696575122
-0.8322678355062321
2.3560601658690303
-0.7737390694807535
0.6307110175282427
0.16389402627445948
-0.01855584859699988
3.260172297540382
1.2355636346145293
-2.3943213216377135
-2.89455876626374
4.209495042681608
-1.1832552932756188
0.6319055974175596
0.6404517469939268
0.0498167421235407
-1.556847597666716
-1.6110751453217245
-1.2782978629231625
-0.8667684280560759
-3.8101448830641207
2.6490615964351005
0.8360660083153424
0.3373041206053804
-0.5267882146537137
-1.3458376426620893
2.1525481088811986
-0.9827441974222166
0.4157790489298596
-3.159515368618689
2.2106759953133066
1.4176243876509687
2.3972522532963407
-1.8988121852829676
-1.8769467192728073
0.1996457448832062
-0.05230745810345283
0.24266888229158612
2.448321963778818
-1.2593919822820854
2.1392877661106118
-1.7090019187635352
0.8907866998713225
1.86142978790564
-0.36709940514298167
1.304700312689219
-0.017053127452444805
0.638709092002518
0.5356493091362475
-1.6498640796491937
-0.09280940684430039
3.957495891163513
0.22577622916022722
-3.704272324955374
-2.3871018741414214
-0.5389617147312603
0.3010493339871956
-2.9187138165335127
0.38520581133590415
1.5537488136134545
1.8069503076796236
-2.8813171054232383
0.021679848895201026
-0.8863533533703358
-2.0991030439093787
1.4801206221439474
-2.2268497347173866
0.5705191796493048
1.1087509931222699
0.5302520234896053
0.2049551004615826
-0.9939413158346584
0.32986152474711616
1.6583947608510148
1.1348447661215588
-0.06777941766121565
-2.253107154549534
3.7670958715740515
-0.1962031692978341
-0.5959451721171889
0.7966878439601848
2.1732924344249254
0.43599036713112627
0.12325911974040427
-0.6415834730086512
1.5783207602100449
3.344191011131005
-1.8112942702901034
-1.6847401597146803
-0.2369776139144586
-2.263204357224308
-1.8498093295651827
0.6458781466590008
-0.33580112177168875
1.3827879136574825
-0.9783451757558983
1.2019157324367429
-2.511336650278926
2.290853085310814
-1.0898708134739148
1.3277891373587236
-0.4788601957463794
2.5589040718058143
-4.08334868907503
-0.5209878305456102
0.28226022414953467
-0.44973359290037496
2.965405408066408
2.99530487843415
-0.30709000822009447
-0.447225522906497
-0.7826657718178458
1.184738455018231
1.9011695512165505
-0.9229727414756841
0.7244742852707836
-0.12483510562219013
3.428104761831424
3.9500544890280973
-2.0187356586962473
-2.4108183970320045
3.288654968281818
1.360642702597203
-1.9709257622345517
-1.5011180524038603
-2.256131890655827
0.012571607733872447
3.7702089849255085
2.316640137865719
2.340733529163851
-1.4579887143969734
-1.8523658469492368
-3.7218181866317224
-1.1041363239711761
-2.6446722202393107
0.8466738996764009
-0.6258107516956635
0.07927103089788634
-0.9564493159953069
0.17493244551529408
-1.0133077531174774
-0.7455045258951243
2.5297504489356792
-2.2233130196361848
0.08649416371846352
3.2313273893882193
1.1055747669441103
3.8380048232398303
-2.8521173675334106
0.5873788079408526
-0.4868039224519438
0.43883162601832393
-1.0631241474833075
-1.7852469674695448
0.22891970180907384
0.708303072271304
1.3292538679767945
-1.2519394259633216
-0.8952993755625749
1.4395295427864445
3.3146247201986605
1.5300342991469105
0.5238218595810313
-3.179897600324968
1.3427770687359037
-0.22900979405305844
-2.773017879113822
0.9345741172584763
-2.8314347123108754
1.558388663299032
-0.0349558327975501
-3.3048399079199076
-0.6484165993004232
2.372740221063755
2.1346928111185983
3.8569139131965846
-1.4331294167096438
1.766111497610373
-0.4467465598388015
-1.2263758513866652
1.8829039997701704
1.859477263328888
0.5289206338892329
-1.44931452790075
1.163126471770246
0.3151707248156268
1.3826469816583975
2.2511906216233055
0.7472584126359378
0.4406821517590478
-2.42205831571172
1.8114966096950003
-0.43135370688482555
-3.9199467681623643
0.6148297149584456
0.3225123474031317
-2.1361050881030765
-1.05087853201828
-4.155778653915994
0.3329597613305699
-1.3689643380639729
1.0708602151717432
1.3589410293573563
-0.16914287023861618
-1.00752044376632
-0.03293252096809696
-1.8823325526365622
-1.440524921769732
1.619006011917035
4.262652575164589
1.4580323083448707
2.3240157489699533
-3.628964365253453
2.358769301136175
-0.8448688818653687
2.945263721661406
-2.686560208966116
1.8310477002918315
1.1816926812687778
-3.4835396078645964
0.26013334645388464
-2.790826632666865
1.3261593732039785
2.619650833465115
-3.995295374667932
-1.2059360093496583
0.8249272453323417
-2.8422472400642835
-0.6066710301088043
0.16889424201150538
-0.8350032618804091
1.4585989280106413
-0.603781909606772
-2.939782632504236
2.2132832875765174
0.3072019242282611
0.3338544913866146
0.20543533533105396
-2.171162368185735
1.5624912585382633
-0.5857385486382699
-0.11713373294739537
-0.8857726619324433
0.014773426645080079
0.7375571704721224
-0.23934048247365647
0.4623276433028929
3.140164636350197
0.9240449792347155
-2.2791917521593277
-3.4452275417564366
-3.591753585574136
1.522088595395656
-3.6854899198718627
-0.5316839878856978
0.7991929694481916
-1.647978062310842
0.5051247097450007
-0.9546453531670845
0.1866224642730807
-2.057655281149782
0.35498070299795526
1.6848576733297895
-3.757579894992495
1.2144529540795013
-3.6877226243862538
2.709960300495492
-1.4802162154507075
-0.4278453612541693
-0.24566266709777862
-2.5315353562890692
-2.629256683208247
-1.447779448911577
-3.556546295836576
1.3225027175299664
-2.6455987571485107
-0.8077794917898982
0.5515877267950446
-1.3163916119555896
-1.2078533075494153
-2.72810601195763
1.910162202766976
1.2494496563039097
0.12609251698566037
0.5843070101954861
-0.8587969443477927
0.5984718245993386
-1.2630161753462579
-0.6069568547068616
1.3260789812291627
0.2986996387267221
2.877830518353224
0.2316804711990592
-4.131911932916543
-2.3130490303029156
-2.6204887038223985
-1.7981966856893403
0.20514278983446976
0.4747093084453855
-4.215398582802949
-2.0742011938123257
0.02880196739150298
-1.6630928100309166
1.565671990368739
-1.6893104476175118
1.6659007768416987
-0.3601300188821188
-3.9156869852348506
1.2792504320833853
1.279028756478982
-1.5353310552844692
0.9471280779729045
-0.37533887653938214
-1.457895481609584
2.082135472926838
-2.5850473571718497
-0.8550561365573622
-2.5527011217514204
-0.964215864047937
-4.478455649118355
0.21343587614403248
1.899555501255385
-2.0111022944394614
0.5579959316550775
-1.058452307693965
-1.24504101725339
2.4920209799818482
-0.4208786932498487
-1.909944919662379
0.9592007290012418
1.8271150795502709
0.5880641367674495
-2.1148209104264866
-1.557607070706048
3.0846217218298335
-2.944621493973056
1.8956973814829552
-0.5735211759335612
4.629688400557627
0.4288331537155363
-1.8726557448280001
-0.1985074595118297
1.1138028595456477
3.290187530843174
0.49074351148865336
-1.773084864339653
0.18808823291363552
0.8151913151503605
0.7991273152426843
-0.38562144588829517
1.074508136862856
3.193055737854405
-3.547909361226741
-0.35203206036393264
0.15123189227040257
1.661648130859796
-1.038370396501151
2.9983708043706168
-1.2915898681105675
0.814658793378134
3.476716804455438
2.887124091211237
-1.9693897736231336
-0.16300878594604606
-0.5373403007167097
-0.342790951925779
1.9621623044745997
0.3246240024838136
-2.3085042572852386
1.0062442050426252
-2.888335145469081
-1.6548039867401658
-1.3003277893314276
1.5385244357556074
0.851900906205592
3.395563910494716
-2.1307391067698664
-0.7078407001945197
-2.728585475396612
-3.087417014592813
-2.711042015190871
-3.1024412779933987
-3.766003097954051
-2.006640642662208
-0.44888012770539776
0.023515480010546597
0.7023328973138665
-1.0187735430634417
-1.3589170856754267
0.7671364304335986
-2.5179419473730493
-1.426307493717847
-1.9249807464050828
3.643870305843254
1.5424750010435657
0.10861211819144168
1.4425775748884218
1.8338846833220472
-0.9298192898426354
-2.315170152933809
0.5105587645861781
-3.6589613841491118
-0.5881460781928854
2.773546056820995
-3.9561230510358554
0.7207044958056721
1.062451849492144
3.976656067482996
1.5000556435196235
-0.9673127935686936
1.855068324429765
2.5883120519378453
-0.24649065838111772
-0.32450922217437084
-1.4912989636631524
1.6159567072614953
-1.994140470347408
-2.2418178320807067
0.6901793148138697
0.9170805562980594
-3.9614634254225947
-1.3338963484172024
-0.253497667412213
-3.8920485431115
-2.036083603475454
0.47668269328866764
2.263837015823669
-1.099433315705732
-2.3687573727043296
2.8815887748032214
-1.390573712180485
1.5240776543367711
2.843583465450095
0.27148858653331387
1.612657825363864
-2.113061974674193
-1.4579262947137699
1.6396483834502433
0.5415420169196503
4.136023085629487
4.11369301306647
-0.039365383807003496
0.5308513135706932
1.2689732511213503
-0.021172573984505227
-1.2996382872211845
-2.3818313811870198
2.4560092068281536
3.614867755144447
-1.8862628470522154
-0.455902942861262
-2.2725296750788537
0.17209223995995382
-1.0138444582099444
-2.5271219775625906
-1.316675063544393
2.8380845284072747
1.4750890679675739
-1.210328142181722
-4.119095463963728
3.106937161327148
1.7080256806499081
1.1307462052337094
1.557109230214742
-3.8905107494101676
-1.206993904233654
2.802826451013556
0.34133673231392425
-3.839149383651502
-0.10199328113710315
-0.2521448316651407
0.6153842261423224
2.681460551034805
1.0554220538579833
-0.7905874014484149
-0.8234284730086406
1.6479307933297993
1.3478932379506248
-4.742954406050826
1.8603388856920555
-2.2700745754128353
-1.8682649201180186
1.3247597460576683
-2.221434371049946
2.26932429070969
0.9542104769782651
-0.08008197573115261
-0.17013768881692037
-2.7420771890323925
1.820902800036519
-0.3411974139578877
-0.8619142251705241
0.4699159688525685
-0.5305650275303204
-0.21491497940450532
1.0753262180732097
1.9054183778804226
0.3057880679465961
-2.6725426339702247
0.5256173060817368
-3.2987316335518093
-1.3405346782772214
-2.947326740398564
-0.9543811282630627
-0.3346312802835576
-0.9862445770211341
-0.6297507485875703
1.5785219753568152
1.5908109050353931
2.8673426969960882
1.3450756412325005
0.3774275830217334
2.5060361639439774
-2.11648441420586
0.974188880378793
-1.205553527665539
2.0172798502253984
-3.0167782188812104
-0.11604726229988471
2.591772891826538
-3.100447081410975
0.03822216346270113
-0.39609987742101715
1.4309804024040977
-3.907592833020428
0.8205913794661588
1.5734851481845953
3.196790787917905
3.2567358274034577
-3.135183161147874
1.03799583777375
-1.1884351642202047
2.0488602060925714
-0.10125491917055918
-0.010124581854870307
0.19676647075671383
-0.7318495338775026
-0.5003744970207863
-0.688294193206394
4.037649713416787
1.0344317748460572
2.6315021161917778
0.2770997467538845
-0.9925825868387559
2.151425995421773
1.7202032441634563
0.565753556552405
-0.89289683553244
-1.187521643341209
-1.0778221061304678
-0.05108977248772406
0.7774263993589003
-0.19518079404795285
-0.7565691983147443
0.8014826006559974
1.4388689354814432
1.368610652058246
0.16480458354805438
-1.4029133465260561
2.116225207978793
-4.132970977949689
0.4298598017398767
-2.4577654457024183
1.8038745390508706
4.423632343154412
0.6516021962467144
1.505938408615061
-3.771972997165731
-1.3167383123553291
3.3943085638264723
0.4009746530913625
-1.3378097290840518
-3.1472700126577866
0.38669911713192606
2.17305681788101
0.4521105607392082
4.177543877638186
-0.4772918204510308
-4.44582973622001
-1.0935638847049152
-1.9890877479067819
4.306102538212993
-1.2636836832183036
0.20935253656200326
2.6312886521548817
-1.6048026262873214
-0.8780834991429067
0.011441455824881874
-1.0353005405879125
-2.0960804640211634
-0.6928728027496724
4.3550114908075
-0.6318917068165703
-0.8845307975453048
4.4543140900055285
-1.4098479213203707
2.630063067428769
-0.7351721000940685
1.209937098545006
1.9377601034482355
-0.6551195688821649
-1.9536340623764281
-1.6759043214447626
0.3557887892071676
-2.1833852088968237
2.5027959667794013
-0.8720165961384594
0.36496944830686706
0.6490614262248262
-2.048274733347861
1.0255034986871319
1.4902559284475752
2.1780464796294705
2.606054590071114
2.1552943074832798
-0.025758471806309302
1.9022508793398698
3.5444757217608873
0.3794154031507939
1.418798820959196
-0.9311804415529672
1.6883166250148007
-0.24505794575915862
0.011192380479241315
-1.4299936967836704
-1.5590172458977607
-0.35527729923695484
-3.0090869403215534
-1.6928961131534734
1.646248548738189
1.623543657415988
-3.986514023380613
3.177908029033577
-1.4783561117762263
-0.664043412062264
-1.9324986190175335
0.8439682663452195
-1.776809286320748
1.4620135654379691
-1.3988831705296536
-0.5661272910636868
-3.302265180504439
2.9471651879035097
-0.48571687815640185
-2.661181348976151
1.4791279479201132
-0.347434404836643
-1.3270569034670139
0.2567183203315564
-0.9154949611087142
1.582040676068913
-0.3985482857784497
-4.3589110972975655
-2.333089050526542
-0.15803557023743864
-0.9905295973562045
-0.28902119070188137
-2.4194764933361883
2.4902961190058113
-0.19041695208614362
2.1781788010427876
-2.4852742821933957
-0.5689719776824407
2.281884668479022
-1.1520319994204424
3.8532743004093706
1.5102923250743339
1.0417935842775408
2.249644896513188
0.9148158654806422
-1.0296207339969117
0.4673351369648504
0.4530944877941452
-0.2689976134680063
-0.5820851442990348
1.2421488168684547
4.22763913982042
3.018451923945971
0.4624485699790579
0.670467672099436
2.699426013745719
-0.999190559397618
-2.8182986536786077
-0.5796788895772154
2.6635985660646018
1.7371528589006298
-0.43027541572067474
2.351208553704207
-3.292496361141347
0.6129991950705632
0.12421779588360327
-3.9175016662089392
0.30118439448912737
1.6501563679443736
1.7292574695394192
0.9587966819418714
-1.9885934081933923
3.2916736554368544
0.9896858365679879
0.06854149868530701
-1.0045277425407884
-0.6818602513321781
-2.826589982302581
-2.027932530143408
-3.068933613275239
-3.448421752269831
-3.0821398358394063
1.7953937139193497
-0.4616091980457604
0.0031907411302354305
-0.14314024708815332
-2.6540142582726896
-2.1491683773841803
-1.878801942037959
0.32415434094017037
2.906737847439025
0.3904120908409974
0.7950281212085085
0.28985111862688573
-1.6355704256148176
-2.595718174177913
-2.227897071617806
-1.3139810056074515
-2.6710953902241257
-4.681510219385752
0.14347211932317183
-2.7223024727324607
-0.10077774972551312
1.5652928687609844
-2.4454560562669556
-1.7644319840902183
3.7330312824417122
-0.0597500815179447
-1.20283459040052
3.566532676518243
1.0754166435937655
-3.3546494623430347
-1.5607016727290837
-3.4415442602936976
-0.5965305478636502
-2.8255707075989633
-2.8514560010886845
0.3953131438417179
3.3428279416978564
-0.8028846959921532
3.3657655777745825
4.099003835353384
0.512443464402002
1.5975658789157217
3.985057494267278
0.9540700240638837
-1.0461834355940143
4.824236884175258
1.6963131339076014
-0.42842163903325137
-1.199041446356895
2.706937141971064
1.6466401641492707
-2.2515888998590605
0.8473222497913646
0.8974185125934038
0.07687231099250402
-0.7217832464700993
-0.33404090345362514
2.0897506530464756
-2.4105686963125468
-1.1297276449842801
-1.0608538972973283
-1.8232684008516231
-0.29621668189605543
0.33250430931834885
1.6537369143952967
-0.5014170652079557
-2.6442538297297182
-1.8250794618031234
2.8184847783425324
1.340180100175794
-0.003108409345024543
-2.2102979829301255
-2.6404109717673916
2.8330686888353176
-1.049703106456827
-0.6357952991016993
0.8507130011068922
-1.5814853224174659
-1.3211067221918946
-4.316877459848831
0.7337262824810749
2.0278408547934843
-1.3773373852622628
3.976058338866529
0.6864174734233344
-0.8637023853319254
-1.7390690722076183
1.9667578494937517
0.7934316449296812
-3.153280287648392
-1.9439893565290753
-1.7197488256793512
1.176679119850304
-2.84078285245909
-1.0655606288734591
2.3641561976191556
1.7414678105561867
-1.416847632488575
-2.0379329326078355
-0.9196087524430352
0.6946073172217049
1.2476515846590832
2.869240907678516
-1.8764516407524152
-0.5092637301455603
0.6669021759758675
-1.9176626637808747
-1.5778233523338376
1.8631221620291896
0.3164843320819283
-0.0821081907819039
-2.320774626335767
-0.40481543658902863
-1.8230117473190774
3.595576894667913
-2.792102074555741
2.688988723849824
2.401167440247212
4.726277231736282
-2.780834893365773
1.586965224503759
1.2608749929690313
2.931512385818349
2.7171895493696105
-0.8969008875059796
2.530037323058198
-4.749542482236417
0.15890927099394547
-0.28015619798005575
-2.5400886181134092
1.9908116367749786
0.03403219278531755
-1.0929935433069526
-0.4971218210677586
2.6797635045014694
0.5216904588838717
0.11885670875057075
2.941020613146221
-0.22869511468458903
2.3800046601941274
-2.8742922604119205
1.5757369136070472
2.7661425514005153
0.22480881309393852
-0.6637801363621829
2.6346391981899187
0.4004555338924547
0.3537854526658457
2.7666772791601364
-3.9480127449754097
-1.4402463519425117
0.2722594551084745
-0.6865131386239804
-0.721092944530779
1.5740801329668188
-4.923094835549858
-3.0148501894803896
2.779644848432043
-0.44918586437118035
-4.146390745759569
-1.2500434051393112
-3.6298938042434106
-0.5986800221438227
0.2457482951844434
2.6556535425844356
1.5549307239965109
2.217694465481722
0.3491231613722895
-4.1226676578577335
0.019350834708637965
-0.3441386611316464
3.0898052972607704
0.3497933381584897
3.432086713212245
1.9812641988326627
-1.7588578065337457
-2.3593705878417923
-0.2844737495278087
0.43340618736377845
4.236174262305083
0.7202843899392688
0.9394396103506963
1.5654879062686473
1.9317100141056454
0.285333211888517
-2.005520856952005
-3.7846070292876193
1.4803130663329913
-1.7087650231554798
2.2017149730230643
-4.235729256366093
-2.533550846851195
1.350808181969596
-0.9855444533956348
-1.6610325638550867
2.463041601052809
-3.3453202837318523
-1.0313972774762739
-2.3854459976947755
-0.8353108248245138
3.0699551420747877
1.037792329711048
-3.1267970925477298
-3.746207175282768
0.0733627907247425
-1.4504294048531796
0.9756610063849075
-1.8441573010935945
-2.8248800482119374
-2.1811453160989007
-1.0984283463394862
3.8401157617675192
1.4897714469059715
-0.3450708302337113
-0.4851070902234029
-0.17796715612536929
1.1102516243256857
-1.1017730233644452
-1.7893349599983521
-2.476573125008537
-3.058581424944081
2.1431460874935935
2.099374020614861
0.146970018186261
-4.350689212824452
-1.1968488427819557
-3.6148357506805433
-0.7789878056190456
-3.6176233216546274
0.6744105810001777
-0.4058523038701338
0.9710787924284346
-1.0790727769445443
0.15421740952511387
0.30906142489881605
-2.3257208403921377
0.9110604010244301
-2.729552282541762
3.066522360912296
4.152875008736296
1.8393088008703584
0.6783022086748653
1.0731299681197628
-0.4367413023411464
-3.5957398514491885
-2.2194163037956782
-1.603333245491172
-0.3634075455333581
-0.058600736528881536
4.127759146051962
-0.7113545189475494
-0.4726430604172771
-1.4425752119628539
-2.7459412261413485
-2.705544399558911
-2.5739395584172033
1.6302865113425529
0.10585715827094277
-3.19264391260571
-0.9076422315568833
-0.668803814267976
-0.7814069676933824
-0.27743400532871076
-1.535169943423507
-2.1751389903082856
2.79847085394365
-0.1522963036288143
-0.4963261112033299
-0.19580978288319661
-1.1347995553117338
2.7258223528461754
-0.5774486838990436
-1.9842767241448689
3.6120195109836684
-1.4727057275480644
-1.534150527565397
-0.5679679272722105
0.13925317654673108
0.6667923005050942
1.3876004832571516
2.727343501763049
-2.2823430948838292
-2.1983811754906872
0.7883118471903696
1.7126380365941682
-3.2622037288527674
1.8676326121824829
2.465956575957672
2.38646802154845
4.501710404971235
-0.1909764501940856
-2.0626264300821298
1.2577498467677688
2.0131116758853533
-3.341815247630032
-0.713671517021369
2.5967787337769415
1.922370227830303
-2.378068259492023
-3.505515861417834
2.270716571549867
-2.217466751087678
1.830320614384504
-2.588468131864355
0.8198010079491558
4.772629750095454
0.40431283336720636
-4.479267762467633
-1.5694709321901796
2.0445107343205513
1.4985381591193412
0.656116458630404
-0.5379382855966142
1.8494741902724858
-0.024595436964928385
2.827597472875406
-0.8178974489528108
0.6009247920519853
4.366807028183619
-0.6897576980425333
0.3684976756416911
-2.970679727829005
-1.2203172199142465
0.15395256652619427
-2.5671904131226824
-2.4143491526449146
2.4016647274770326
-2.73019262444289
0.7221132724807671
-0.7502943237714171
-0.7369173409619616
-2.7506851831587675
3.655264099986829
-0.10062637756439452
0.9115618165776656
-1.9271756114541567
-4.6501104852924415
1.3972287259940024
-0.3445309387980364
-0.13665116250753118
1.396353494832602
0.5506519032663109
0.03245751955326792
-0.15795255392316232
0.4349418195248038
-1.8982627333120226
-3.8406424575336455
1.641617668854946
4.192522911397749
0.9032332435324342
2.6196662042308487
4.133849097870919
-1.3650717140741482
2.4367689710158658
1.5448845904169328
-0.07241468335369206
-1.108692109285705
1.8296172646083324
3.545952047715552
-1.3066522290818734
0.6067071238942384
1.5262399429883118
0.1510288044185244
0.4708685571497657
0.3791172382919139
-1.229128574132707
0.4058758369665316
-0.8842159037662869
-2.062753334304895
-3.942615251006242
-0.7069182479373246
1.0417386795727985
2.715267352051397
-4.2973052050239025
0.626389359575666
-0.5858517841688515
-2.5192182992292507
-1.300054582568811
2.0763676079110063
-1.0481262384119763
-3.3277360085506382
-1.9922674996166247
-0.016317474350276306
1.493056281772803
2.102222616245437
1.4316114185598994
-3.3837847746812124
-2.5186397885424583
-1.3176633713052077
-0.745859506527285
2.526278005389564
-1.4711217665391554
-2.173186382250833
1.7697087619211098
1.664177872967156
1.211945364880097
1.1902212097322868
-3.1196004972065614
-3.095622445308507
2.256114096453573
2.3960404775952338
-2.0908607455872623
-1.3594954895941012
-4.7334612476247395
4.412193038625541
1.7863801920258089
-0.8945427279440188
-0.8399790365244802
0.2297892259218921
-2.233429484936246
0.0728599203977609
-1.5450355041037618
-0.4986493950950539
1.830657062989058
1.596113500437251
0.5754905086097297
-1.2052460033412142
-3.0691248926195973
-0.558703992255714
0.32596312103776093
3.1191485657399403
-0.7659272571800084
-1.129841147506888
1.6921749485096538
1.3790955184342706
0.5198199068513659
2.4294722529364248
2.1254432318738967
-1.586819372005805
1.8895532513685893
4.402967241647945
-0.5341349730906737
1.2733489838248968
-1.056994221882305
-0.4178737853004324
1.6609840170012578
-2.5987869247783246
-1.4218282098809716
-0.9879298458569825
-0.5638837028584558
2.357582563545797
2.5710568912552327
0.368794528467856
-2.927413126845928
-0.2385321034776995
3.091463213304486
0.6240020759115666
1.450126459378859
-3.905194477499345
0.3110600496985736
-1.3462165677877107
-0.4903225125043792
3.0291562623152717
-2.7400112658191045
0.4473961918657263
4.292861889952232
-0.0693737642854848
2.0882544768413935
-0.42761028630771447
-0.28564251548363107
-0.8007392175918788
2.8881505684364273
0.5523302085837034
-0.7765647746074822
-2.9008393743099594
0.23397109273766326
-2.186628963950566
3.510906680620084
2.735570197145997
-2.404744379332972
2.8559222258913866
2.417731542503147
2.8351902016233823
-0.22017827206140295
-2.6923330916578694
1.2015351268340613
-0.01403886277685995
-0.43716947640200976
-0.4858241622254753
1.3172861146962846
-3.007429405450688
-2.3418609804766204
2.3233692579398046
-4.131615283873952
0.0039323165745903665
-3.8118137580877685
-0.2799235257217667
-0.11558938465141666
3.068889098299511
0.8086657972307876
-0.033056650165189216
0.5817813239033445
1.7763871350345903
1.6442320916736448
2.907936898231269
-2.2364293260970154
3.6363736749656095
-1.8085061148141048
-0.9093017666918848
-0.485263188858181
2.857667298464911
3.3455404419442454
3.3639926018531265
-1.6509876739750426
2.1790505191405307
1.706254703407648
0.6065076100184426
2.963701113662268
-0.5901643317862608
-2.6793390189919926
1.2432480718194308
0.7586393694699396
1.3361525651239554
1.0175576457838078
-0.7942198450605897
1.2755635979902453
-2.350790169978744
2.4906852177536534
-0.0074281633769279765
0.7141403590632871
2.551777670493186
2.2866798852977195
-3.514318847210192
2.6809056209503144
-3.300855182250018
3.8540612927221964
0.1800429039342739
0.32736486826369227
2.1307966995568313
0.8095064144140491
0.481602097195732
0.03350235584378469
2.8490671526082556
-0.42234209327364614
-0.26945416875520833
1.7929514014958647
-1.2989879717680428
-2.439281616527498
1.6058821268865096
1.456074555762163
0.2197568451055787
1.9940790061695317
0.567616813982017
-0.01279632100298489
-2.918434721748188
-0.35576623959693476
-0.007221755813652919
-0.10770929892882775
2.8348816065707743
2.505228480006368
1.6615391519652696
3.973217827374541
-1.442404229179764
-0.35010438210300754
-0.7503134490240964
-3.434981213992727
-1.9012202315399298
0.39212397427511325
3.4836890627797397
2.412259283782025
2.5611487311372834
-1.0835872581007004
1.614612341455389
3.3408284149389345
1.6804931760538113
0.5309619848702583
3.8671314695390713
2.881389786242564
4.7583338398425
-0.2994521324429922
-0.48010848959919183
-0.9992573132479654
-1.1959493474117546
0.015432216898627171
0.2734654650133399
0.09734415209621794
-3.4572675077518644
-3.747441689005294
-1.4378394052956698
-0.5827597601116148
-3.054998711235665
3.6852815086421753
-1.5340795047962734
-1.9533421868529464
-4.064942881876451
-0.2021154734309185
1.8785776833729448
-3.3624930635032264
-0.06680244236641886
3.561128810243593
2.5887012507071128
1.022042797829784
-0.11094146128271642
2.4250900913752913
0.9292935254331813
1.8729380797661717
-1.5381715216217215
-2.814470347507192
1.652584171597046
3.5650156621689084
-1.9963154352335195
-0.11994911816899334
-2.313828281845225
2.394890568394674
2.0027026799746004
-0.12970974527401924
-2.5732372653995723
-0.6852263557599723
2.641488270871692
-1.7336053655689843
3.2277593166978016
2.33668409412449
2.1277819607849517
-4.149967685081702
-1.2630567637965244
3.7633223948946326
0.45328587173129486
-0.3478095563624519
2.7405083122181155
2.4018538410345847
2.2369640774808945
-1.657992933639771
-2.8303094498536723
0.9168520064928725
0.3090650943051776
1.5828881224005313
-3.0737544057547117
3.4786521533935746
3.692116551435979
-1.4878397599550102
4.183023859306251
3.8633650649346265
2.6351435243670536
0.500507723330978
-0.1841062184811364
-0.8391993378110163
3.3573590338968984
-1.6525540788895532
-0.3767379360537211
-0.7534475218420738
0.15757677843379225
4.069078922504305
2.989442101719032
2.1744917527457828
-2.4544028643406124
2.4343918325328713
1.6481198349047173
0.6459214024414723
-4.948183796951452
-2.593669734106437
-3.7978328289198617
-0.2883590619438672
-2.628694364913695
-1.3560873811945386
3.0560533431500625
0.8631713177035416
-2.5013823339604038
-1.778370603980317
-0.5828964751246071
2.6693889457274347
-4.4904388610263
-2.277624251038395
-0.9781444833102905
-1.8851782464298452
0.6462000986503988
0.860171502103908
-3.75623595221558
-1.2041466304629251
-0.638674015595782
1.7889144510074364
-3.7614976850514226
1.1310888349918757
-3.021347776081063
-0.7465804299988958
-1.216888503763497
-0.2578697418770979
-4.375019226115388
1.7389933402049422
3.4652479344550704
3.1610122120311863
-3.909407685816272
-1.2242067718357168
-1.121221867502665
2.0205472799371504
1.2741083004822173
-1.4457776546369416
3.4819709574911615
-0.11616762617959742
3.8680758368159065
-2.9923911281506355
0.7745374938127463
1.869164366644508
0.9415259572339174
-1.4815788316890548
1.449769506555608
1.226616931079862
-1.9242466276368515
-1.5957319891778723
0.1780241987901281
-0.9774736201815344
0.7095696110598708
2.3399338295185954
-0.322192434691285
2.0881383258879396
-4.649721045882927
2.871698385421511
-0.2692947817154101
-0.6113352538020842
-1.6933735175096176
3.180193150853176
-1.2035897691755792
1.9690002864939016
-0.4000310218842945
-1.7519583330026256
0.8841002266040815
1.6323497751375466
-0.2900815531837575
-1.4114646755172984
0.33640983430069893
-1.4919851101812593
-3.18929114763959
1.6915941502220304
-2.817747178827187
-2.3354079063699142
2.154534862592861
1.3432636738573742
-4.285259081428504
-0.07517028989665397
1.258113122194315
-0.025004331096039056
-1.0495494755095907
-2.9616044914196067
3.548716566625926
-0.8010355620107781
1.6262869036408352
1.368804532163368
3.125931919284883
-1.314330955016283
-0.6098038984157977
0.250757496535301
3.295388427735367
-1.4599302638473617
-3.158025210545411
0.17413829980303852
2.5307105142389585
0.3325099217003702
-2.91957241474855
0.9509226107814102
-0.48005738003396603
1.940673151929663
0.4131217702118497
0.021246150376326156
-0.04730339156772789
1.3588256398240248
-0.11501001067627836
2.0548836649102427
2.704272093704385
-0.3694065337483474
1.2820304819604051
-0.9956133154929576
-1.927000984162127
3.0615253176227575
0.2663549846631499
0.7661337475887935
0.7270534996432012
-0.13231033131883096
-0.7011655519017261
1.6055382788749977
0.016995723196758572
1.4165584523549657
2.0055921141692385
-2.4973314530051596
0.3102806831813498
-1.7835752117574772
-2.3554055321606606
-0.4254734717692088
-0.9960079264112656
-4.189394380434179
-1.6714103903547244
3.730237792824104
-0.12795236832845447
0.7326808534809279
1.660643637963115
1.7154009539940578
-0.5968711501138928
1.6790165763220406
1.4385246615127194
-1.2981523214855661
-1.2144183059200315
1.0548234171283526
-0.9158163844481724
-2.4209379029777125
-0.8044589223459488
2.050000611262374
-1.5454155175219038
0.10351217752442299
-1.9554729269422735
1.401015421858654
1.6901299610464688
0.062138547515370846
-1.157234836688108
-2.0049339877800545
-1.2430631759521282
-1.393744138630319
-2.665522379151301
-2.5272178792344753
-1.6607923207911122
-3.0878866094847788
-3.438601609131207
-2.0142913485835336
2.737950839960991
-3.675634686309676
3.5107602801382636
2.2648254879413288
-0.5677024459636149
1.1387020041514453
0.004005636333265894
1.1563522959315047
1.9596675514810085
-0.8201090715109743
0.4824682757732308
-1.21891143380833
-2.228968510510553
0.3314781558950002
-0.6537208887506645
-0.5264618152447653
0.7175210321349219
3.1733993160570524
0.502744355376215
1.657070049908902
0.8246378246081201
-0.1162484739362899
1.7804456219297606
-1.1886365746101775
-0.9896916997580861
-0.43902509902203946
1.8653137063254142
2.6883885070581464
-0.5969622593958976
0.12269457241703874
2.4149245481359243
-1.0668283627334785
1.9164108249584708
-1.062527723169115
-1.992732407818929
0.26559683632225717
2.736190599260169
2.3457191828750013
1.5802371372508692
2.3794914461359307
0.37626488912503486
-0.7739822470284996
-1.981903707051679
-2.2847527425710323
-0.04031022274110807
-1.236895989569156
-1.4588363878274102
2.2622268527449236
3.3810820010070888
2.5737612109777297
-1.4450276822481198
-4.452795027984952
3.006607878853514
-3.6531287018353793
-3.384848032770514
-1.0349042494900247
-3.4321797509996497
1.153878717795055
2.164283591899372
-2.3917866737518745
0.9055932640319787
-0.4140865821249191
-0.30302393206780187
-4.249679980546066
2.2204045876433183
1.8738238094188415
2.0094166928390873
-3.8582924305202777
0.4852152844708828
2.1473706869517835
0.18964357610245486
-1.7284351132737221
-4.32280252945254
-0.010170021688902242
3.0047904330353985
-4.2461198853440605
3.484559642889664
-2.555742591250591
-1.6584453310455811
-2.0068718502467275
-1.8552803187665319
1.627661756848453
-0.6438617748600881
1.2859940967361378
0.07007499339213119
-1.8906605852802874
2.989909987506598
-0.4846201419354781
0.9176213618735485
0.2096180475858418
-1.4929580138268221
-0.40705149262491735
3.75866802608049
-0.6247389778614281
-1.2896317386408307
1.8064517087378062
1.004901898835254
1.7877826339411005
1.4917151220253482
0.22809281970597006
2.747048749575429
1.3609217799571431
-0.6270443040007363
-1.6598238445377633
3.162381645259094
4.283527235718491
-0.305964364642914
0.0342902091546754
-2.35267246393583
0.26410292827132587
-1.8957769006792882
1.1402766468300376
-1.6685782446203699
0.6332626391228127
-1.987170419581874
1.6412337661277756
0.6288594585281336
-1.5396544914395065
-1.3443451548224323
-1.2691939118694973
-1.5161046656603014
-4.159558596963047
-0.5665960292861716
0.8690089950518005
-4.033659311478195
-1.4919236005948133
-1.8216733807666445
2.9928374009480665
-2.1265918846415635
2.933809086824877
1.0053301080951922
3.037910422873347
-3.0058459512236397
1.0599857049508472
1.403813735245404
-0.07259828978389571
0.6927689622763147
-2.168093243625174
1.2264768862375028
-1.8154960276302141
-0.5330351617848557
1.6806532609434148
1.2313492767261947
4.32467907610968
0.13771086802945298
3.113822831231809
-1.1667060805040048
0.18394307239179808
1.3265662588287537
1.5704263444993454
0.7212325855223685
3.3394369278998237
-1.1231387430396989
0.6961946453483975
2.9973445716443368
-0.2214680514731837
-1.1250246615206154
-2.804454243610561
-3.505512871264087
-1.0272797769171018
0.9279632300924323
-1.5835390119474657
-0.07191059396341903
-3.487459137445047
-0.6462212464119954
-1.1754767439313039
-1.4612312874369864
-0.5402095739414112
-0.05965410927570636
0.522363688081386
0.8819193121345227
-0.4267301265696549
-0.0702719698362877
2.9707687848303013
1.4205241920621663
-0.43568483099831834
3.883644793423191
2.067699209256744
1.577438829941102
-2.461635899979855
-1.9134140886853865
-1.258533416985962
-3.096601111287768
-0.22119229914203853
1.1427733359833931
2.214321747918065
-1.9830009982124015
-2.970622569136875
3.4232212835370164
3.09270303248978
-2.027104602030584
-0.5686836520183651
-1.9808569918142354
1.4403941813286685
-1.2855192054440905
0.2715872886510873
0.8579557910267956
-0.009156904827801071
-0.7327183738451648
-1.3016360135857097
2.6381341364866753
-2.345109780183621
-1.6706715782163584
-3.4399407426597945
0.23915900876906848
-1.5198427152823548
3.914748727224892
-0.4758627722178357
0.262816677601343
1.2183462725324534
-2.2931675833595757
-2.368038875142555
2.362093813533921
-0.3433013501374367
1.7768199079999651
0.4459263618929983
0.01392083746419237
-1.1301358555840748
0.3246628283044546
1.9451279060239894
-3.6079872276579574
-2.4515698580675362
-0.9019922823344062
0.32581441690476254
2.996057813589458
-3.439638043339874
0.1456522437160661
-2.1371243894784913
-1.3064964632564804
-1.0983988255714245
-0.43827652766932457
-4.011383321829261
1.8301906608320273
-3.8079232075457146
0.8768296032837899
0.7450659910754247
-1.9339153414799144
1.8733742687618147
-3.24756587922311
3.766070144220335
1.5923546099962684
1.2643161622737558
1.6347025753687308
-1.0545784732028651
2.3860507837295617
-1.3692974688078294
-1.9759283822058527
-0.05272655858373465
-2.8413718196026427
1.4254605983988735
-0.983208530220498
-1.2849110719483547
1.654569236749226
-3.1445434546368345
-0.22530966524628138
0.13537533464295648
1.9563535962589769
0.9312151434882501
0.5794118590570818
3.012454217588663
-2.5479749114082875
0.15580135098365755
-0.8726245123487286
2.510515186787425
3.1216075500286764
1.0091110743110203
-0.2782915592529971
-0.7807929962486457
-1.2013831298382256
2.3838228381047273
-2.982598311449844
-9.885072892501512E-4
-1.9370779109065275
1.1292586056960983
1.9759375329556703
0.7626549143382467
-0.578797293063476
0.8594055686484046
-2.3143594226563597
1.348802138494604
-2.568744970150757
-0.8186519584989589
-2.2959992636118125
2.6442882656240796
1.426395459458818
-1.4996410295497953
-0.42178060351874436
1.111133405730619
-0.5037889832889983
0.5579024273385595
-3.7997719507658094
0.8745941469757441
0.37990888130055867
-0.1412050414464967
-2.3475707579394522
-1.4715007145254955
0.928511884959554
-3.8562212006657424
1.2004109564422993
0.814121113156197
1.7921532298739817
1.06375407802933
2.0888827677668136
0.32883162340556815
-1.0112825549883875
-0.7880789908521829
-2.202914357605194
-0.5792062607416997
4.010080479102545
-1.329916776940388
-1.5900767956940194
2.425938488488425
0.12219616657273757
1.2253606979905776
0.7610666250058378
1.4034766657395439
2.515281071102365
-2.586437526407714
4.004281714098371
0.5261949374620216
-0.039653566774643934
1.5454700704239785
4.269229023103644
-0.7182105998436286
0.6283284815839232
-3.127718726914315
1.0579860614656198
-0.3585186677213892
-0.2719339422281347
1.046463264189232
-1.961457190141744
2.3521707580109967
1.6193757712991441
-2.9657335939662035
0.8915191081945935
-2.4916266916880243
-0.94252562033041
-0.3638514487576101
-0.13364452402412574
-0.4398069082776601
-2.7749995272506096
-2.228641428477249
-0.29677398310875003
-3.086418841839258
0.20788172915114078
2.6829306249367435
-0.423075109200719
1.2791272762965584
2.5713011649156092
2.2193390429346347
0.7189737384031032
-3.074360623895158
-1.3079891971156261
-3.650938069728717
-0.6257965210985926
-0.005243783477016262
2.503242755778415
-0.9356931391665149
-2.2519419850612734
-1.9671540093139188
0.30846779050354733
1.8301449743561689
-4.399129640589248
-0.1035597715432548
-0.679747813738365
-1.2646938880013758
0.14536229472683582
1.1874520579418562
-0.41953831261022256
-1.4991158730209138
-3.0963845286177922
0.3744310169326117
-3.081936114952937
-1.4967979719933773
4.179766025017555
0.7561010917746
-0.3992235869392601
0.9670877308363646
-1.1953280400770339
-1.5765638882448036
-3.6631840571640906
1.4858089580999536
0.8088023234258683
-3.6234815685430544
3.2829908922922426
0.023919776370783907
-0.3203999731768272
-0.04756623743446142
2.715395590446618
-0.440733583453782
-0.14043340776083024
-1.2795490066925352
1.0189494831574617
2.520402631332206
-1.8586801384944511
7.368767737310211E-4
3.6520350983361545
0.17566678076663123
0.6158744365611963
4.162856288949859
-0.25751657746391476
0.1301678448287733
1.8303946208694382
1.8603075651795318
3.971156979957664
-2.9130681909868468
-1.188329921614773
-1.642657650716618
-1.600619169598227
-2.9715411743351985
2.611564054075741
0.10432184824612056
-3.103529712906143
-0.025060457783822265
0.03068467055011126
-1.2821432339749066
-0.17639219391466465
-3.524617138232065
-1.823472270808551
-2.478016073019449
1.6303159855093439
2.9879018135201996
-0.4876559364557238
0.8066263409401142
-0.980220948108287
1.3054124061997892
0.05297756367055095
0.959590614467345
2.3392624540032116
2.182990130333281
3.36392744076804
3.6283468212192105
-2.1481213798828165
-1.676862060569958
-1.9801181806603085
1.067846002561037
3.5459517774141003
1.8752140267096573
1.178975332138109
3.8306213798992115
-3.861769812579628
1.6052692786301344
-4.070982120320437
0.9554255441738091
-3.07280495456157
-0.10745340384676505
0.06194775109230788
-1.189348507889255
-0.8472814298194102
-0.2911122073218242
-1.0672443279528245
-1.2512091822430982
-0.4816818526221085
-3.2626972817283537
0.059132529500369735
-1.2718248592415002
1.5322595751170716
1.7859479582531246
2.118090319228704
-0.9417460691054624
-1.6762428312534516
3.653765136403457
0.9958036269633381
-2.57534295450023
-2.4094785365754294
2.6040301941692086
-4.453073669997117
-1.6497079899548264
1.3339048798536441
-0.39793811200858276
0.7196290419725836
2.248727487754231
3.0378950481930764
1.473341695695109
0.7026099759536919
-0.7738888196163501
-0.05179436584687114
2.138292703515961
-0.2496710790251372
-2.2121274370344532
-1.892285265208356
0.07996929217144289
3.3427128347645643
-1.3935381761164276
2.8045014330746945
-2.7990932418252576
2.335584535895672
-1.4936271201174014
2.088729088606006
-0.7746190248347311
2.7580647118547734
-0.1772976410748972
1.0146275182086155
2.803328796075975
-1.086804552088104
0.289493314563517
-0.7361784738235588
-0.5278221146990387
-2.5619626440316763
-1.385885999880234
-0.1937416895917563
-3.36716316930477
-0.02051141723596306
-4.106077596507777
-3.7450186467467166
0.6960962362268086
-2.857922819424021
-1.9685346937406378
1.571002876246295
2.5556886648808668
-3.636024284164857
-0.6955375066054428
0.7745236596539913
0.5442596227521745
-3.622511295276005
2.246826367377394
0.3187504433655741
1.0284987950300284
-4.089737652771307
3.99696751851016
1.7825609766481652
1.7996803720507195
-0.7165324042575585
-0.7303665495131537
-2.4617332157119973
-1.5841345985880224
1.563205284636389
0.10753429127874892
-3.9492765813848956
-1.3479879014019631
0.9213842823885978
2.569003135418873
-0.5359609155038547
0.21424772266198966
0.8623216162049077
0.5079408244356987
1.1321296931596367
1.874551004152137
-0.028683649713902692
1.6022972073610584
0.7493724240311156
-1.8179073776470855
1.8414457206403216
0.7873362293710827
-0.26239288295888563
2.90748860498576
2.8348328489036425
-3.750062960503412
-0.4542651821312216
1.376211539737301
0.3346387103927433
3.140179955577982
0.5181636181477994
-3.1525869448500825
4.14402618873656
0.15646776376751292
-1.011646651728316
1.0944071541078293
-1.3116538644039375
-0.8395684367170251
0.2537068806392502
-0.6569385500455551
-1.3232033049139909
-2.0221270996856
0.08805960097736909
-0.27564874710783016
0.8798058859137317
-3.458010311845702
-2.5519837788078457
2.3973215450436296
-0.3216150989473716
1.5351386260284743
1.0293855973159385
3.4987108232500344
-0.9582932626745648
-0.3146181627846101
2.3299628750128716
-0.924516214863397
-1.4108451419998984
-0.12593120019664372
-2.1250905973069596
-0.8434746525953516
1.3930966497849673
-0.7892960271174343
-1.7390194457381756
2.119743493420876
-3.821372356075231
-1.7686513416761747
-3.324149216032712
-0.48916633741907134
1.5765405922319058
0.37680936358615535
-0.4512132740754178
-3.5300475979648533
0.08576454819064772
0.9068597155890044
-3.011082935266282
-2.077448794885785
-0.5984709129500247
0.4067488616434861
0.6673520759322287
-4.309378986242486
-1.2345002163817624
-1.9577557729577455
1.7993985079610535
1.6805964466366727
-2.0058634200975805
-0.2805402228369074
1.8831230769142038
2.304170304782965
1.8415245140664709
-3.694280632680642
-1.1494858054417731
4.288268235974899
-2.6470713336310734
2.0677052851310864
1.2874907305436882
-2.9695664863517997
-3.1346807082186343
-1.5168580588211005
-1.620991825647236
-3.3441273688515865
4.311121677156968
3.582264440185525
3.2355128605502803
-3.067591015120721
2.481437437708777
1.9753227335451222
-2.743005749646715
-2.800400256990306
-1.0950104445072566
0.722370861927784
-1.8091162275818917
-2.531739508916613
-2.0009612312751797
1.2015910202039553
-0.4599476234716322
0.8466510375605663
2.1485233911097876
2.1324030710032127
-1.0228445479055055
3.44957091944341
-0.6303280418495927
-1.0903910588710604
-1.5784254915665983
1.9466158303462686
0.21433839542878985
-0.5951770258218443
-1.564792005970813
-1.0941567123549727
-3.4286913412062443
1.3914360344603134
-0.40664076386683234
1.0890988355723286
0.020832564759579064
1.7493661491978636
-1.513029176833912
0.8552526655149983
2.398625663230576
2.6058435586082
1.0124588502046512
0.8275961622410497
-3.7744044585908294
-0.4315191253127777
-4.394607300769288
1.9816484808300239
2.659539273647066
2.2068789005031415
-0.9257259275515013
0.30962340809209543
-0.37493441346672585
1.9390176187278658
2.6906627384875623
2.217806315226489
-2.2220125891026496
-2.521319259453774
1.1919003256110212
-1.1869082464721576
-3.039561237449376
3.000168390065189
-2.6473185901138665
-0.7650701392366477
0.8029635605947089
-0.823457782456027
-0.21827699108063836
3.18893518476736
-2.8701732511585765
-2.752343302996641
-3.4002192394625177
-2.1615970373676223
1.8237995014985229
1.2742264894705602
2.655263567569148
-0.7900121968522776
-1.1933348466249338
-1.2658234506336281
-2.066304564856701
3.269791226475056
3.791699125876959
-0.38246940776197036
-0.18272498493986544
1.826110102985576
-0.5356286483083589
-0.8239183043819426
1.85078307376715
-1.5849054685892676
-0.25247910684624175
-0.5158997213164875
1.6700873554146716
-0.6744334723210643
0.8072534178591706
-0.03367430881250799
0.7494953545466165
-0.0807514138692067
1.4558115245423668
-2.9505058013542715
-1.3757959771339174
1.4026520688750321
0.6076676887149555
-1.9063489901395498
-0.7559015852523978
-1.7931232798482042
-0.5549109239777577
-0.24050161129375347
2.1151468058195544
1.1315693243145402
0.9494269730478133
0.9680283903298248
0.8846439167595332
1.4092926552856104
-0.54562379077879
0.608690922583877
2.026552086306161
0.8465553437999058
-2.1225405942788056
-4.8476533585776
1.28318934342112
3.1977513516001426
0.2859829896516114
-3.6747440228758323
0.519516159755848
1.928259082851664
2.4537159350804245
-0.9996483605967
-2.353731061712991
-0.4770481233216537
-1.9354591485720252
-0.5379514940231411
-2.7318086512770874
-1.5036324730982238
3.21932882782985
-0.7991636945025604
-0.2863858267517756
4.260788721896841
-3.0977148792369884
-0.6060908515676937
1.1016314204478537
0.008483242738815955
0.06301977576959672
1.2280796264770388
-2.8968749898948984
3.7643543224389626
-4.0294114430664925
2.221227734289112
-1.9481127976747268
-2.234748803463375
4.4957584239557855
3.6985361339254985
-1.9379100555640367
0.3221903223506384
-2.022255653905775
-0.4202414114973676
0.8083524697836308
0.3217356580303079
1.3316699791796984
1.6337757676718403
-0.3753431565817209
-0.47720965864607967
-0.9470003344731437
-3.643315642641096
4.578359883059434
-2.194952809160431
1.7751940594342939
-1.370327143202994
-0.8244458694325063
-3.474648885825686
0.03683825370215166
-2.687069036122816
-0.6459740702154222
0.13821965443356943
2.914492400182247
2.9318457828339466
2.420060976289
1.2367752061315656
-0.8224854806474153
-2.3882682447098347
3.585347630101653
-0.8296630802858855
-1.3788928689409334
2.417346580103431
-2.239771792123192
-2.6050776007325216
1.23383576228851
2.2534419601889355
4.259547428028552
4.712910117780986
1.8558696230113005
-1.5174000483550554
-2.922651178628196
0.5581118351733156
-2.015803917763522
4.416603455332708
3.386669100292979
-0.5174955466960025
-1.618942627327594
-1.162406809141209
-2.079320861639098
8.73945941317178E-4
0.14185936799651477
-2.2947412009579886
0.8914238630730043
2.9496163275597915
-3.12119623314632
-0.7936847047741411
2.102409043095147
-0.48404752873643786
0.676492409999637
2.3025157977740625
-1.088714366437609
-0.906200122936279
0.4757549156973937
-1.0665530887672157
0.6988827155370885
-2.8774435128276443
-0.45805193824019375
0.030362307857080828
2.500836787465186
-1.9349558056044762
-0.3260212301014622
0.4972990243399509
0.45806971132581864
-1.3191379261068814
-0.18970125175646058
-1.6842697706977208
-3.2576359601094427
1.7514004861607182
1.6881229457164932
2.929002852683909
1.6132854200841855
-4.587235408614736
0.21211942708751108
-1.9371898926961724
0.2627038536014168
-1.7471412044413057
1.1888229714101683
-0.8620504710960841
2.103161498114644
0.32888044498395375
-0.9169792522778049
0.43161589439196124
0.15633864121554852
0.26147473659234144
-2.547639342926618
-2.8565208769422483
-1.8021327559408034
-1.4382009883049889
-0.28356766610424344
-2.477201318853661
-1.6852579522743145
-2.652252866011122
2.9165717683066115
0.21282034773132064
1.5315795333376747
1.6055846526371598
-2.8773638104018247
-3.0312881458387486
-0.8380254200627519
2.153243886622866
3.1430049408760836
0.9052799767665625
2.541204217090747
0.46152866261999703
1.1940497068449825
0.43072544608848684
-1.203470342670447
-4.510519922245058
3.185329526680202
-0.9773180968981352
0.31134615440706015
2.6901514548809153
1.276758275320576
-3.997209949713099
0.539429339282417
0.3430443087727406
0.3639937121278298
3.4660574748527084
3.825530634549318
-1.6305459875945076
-2.8517000474272445
-0.47874768826455916
1.8885695051507576
-0.21302443388602654
-1.552867091071569
-2.0014158705996907
-0.3763265675355125
-0.04057982954671413
1.4016973518810474
