0.3009229760787817
-1.6229455529661045
-1.2551846769974462
0.014236854157070766
3.5576880107113658
-0.3500423645858808
0.8659851068725195
2.8294032599650287
2.15496608989912
-0.05018286139583661
1.2589668824037816
1.7108637512206455
3.3161180868395035
-1.502168052562392
-2.7878257982571615
-0.6956352423477137
-3.4853234367165307
-0.0970292765504337
-1.3747657833465659
0.3231282708678531
-2.1457341329126143
3.2983619119648524
0.34911351785175704
3.195229188168681
2.2829966399936685
-0.9612799022269998
2.4388416488179185
-4.399867073117644
1.2985813013881558
3.11505624947233
-4.024917489383801
-0.9493582251394974
3.8004235557873245
-0.557075211522528
2.11080342722173
-2.3234967888408162
2.7449298309078802
0.1804544582202916
1.9992921623919155
1.3659274704550755
0.26029323538024407
-0.767585411565874
0.2597701674641377
3.421264604982825
-1.1229991513151236
4.096567008306719
-0.36314422161487325
2.885093532953157
1.5303132187394386
-3.7914473298056053
-0.48987666832645704
1.6929690059004021
2.9909661346576737
-0.05843579374170016
-4.089989721506558
-3.1909189299184133
0.3803459342937856
0.41705154256431354
0.696322364359482
-2.498927716176528
0.4263871474945107
0.2827158908268017
-2.4444138775690893
2.9102672659397273
1.1164420955449272
0.614036038588121
-2.5265008050499453
0.07356088019587359
0.4033743024682268
-3.9044189340788185
1.3387281778171598
-2.4467829022532097
4.621123625031975
-0.3616414496524195
2.3343046518689263
-0.1691714321852733
-0.7340055644195655
-3.4105530508652313
0.7728673822190468
-2.378314712251891
-0.2000831492919506
-1.3098363951494303
-0.9679959685628932
-0.7341959581431756
0.13192950867302766
2.9390184789488174
-0.7540603026280885
-1.6481315842254323
1.434136198246109
-4.484298144485234
1.409822566657538
2.7303276284768896
3.948384245847028
0.9223581316008223
-0.44714153494345776
0.0719068944319351
-0.5600834088653079
1.4983946813392985
-1.363458459059422
0.12777763251832996
-3.0457549891312254
2.4650752280537183
-0.1657658703384426
-1.1523632675856756
-0.4665025357099717
-2.343851127776247
1.8483434821484352
-0.48805203653577145
-0.45151253312816664
-3.9092351199224176
0.9213454997563387
1.0345916819882088
-4.697244514541929
-0.4550788975887221
-2.803091849407904
-1.4078246740049685
-3.435165119000203
1.277698587100605
0.08735994097131883
1.7362548020715292
1.6849877725458153
-3.931468403990636
0.30375835240527604
0.14471508108325926
-1.047333522056479
-3.2782379120132354
-3.7951957116750505
-2.8314390729760097
-0.14905484015297565
2.194729741303112
2.120855280272159
1.3303691303865124
-3.1358241576272086
-2.494353348277886
-3.690714118049085
0.9306487745498799
-1.5048842633201618
-4.422492145935122
1.1974449461308576
1.9183630672239462
-0.8522213747956331
1.174286654452302
-1.430537391361506
-0.8181382013563016
1.5322574663433188
2.0856654740460985
-2.6468471253680326
1.4164720725955826
-0.7522291796948956
2.7165508189461143
-3.336735592122323
-0.2749988596600945
2.2001815990265046
0.23762456718031455
-3.2426697388981385
0.10739853647668429
2.510237760641766
-1.5468199615665252
0.5603631876709774
-0.004172303965487845
-1.4312137173765005
-0.45750697420580644
3.4146502529062372
-1.0086008307869756
-0.10478929536633075
-1.1690216586711677
-1.2891058696558066
3.9588130798611263
-4.544660820638278
2.7473801921168457
2.056952715086166
3.6351616775228535
-1.9049229523215452
0.123250738352223
1.6404259296645138
-2.090857539646325
-2.253989049111545
1.9909601582564886
-2.558659614006914
1.9269316756578074
1.0592367827761922
0.036494359547335264
-3.0488181780888852
0.1809664401751805
0.12365856873440428
-1.1367130595362012
0.05452470928920272
0.7378896827111667
2.925011841268537
2.223336622708858
0.7295102188053593
-0.2380975740525697
-1.798141698857325
-1.6281407074922392
-1.7765788812041254
-3.510221644914945
2.3548036943329893
-0.2982745748918667
0.35960524032382235
-1.1862127981849282
-3.9348112512078255
-3.1860662574462904
-3.3680046591880846
-0.3712209399530775
3.2795018229354485
2.180368005755826
3.74347774344058
4.099678471569957
0.2157648234851215
-1.4449093035790521
1.244358329716011
3.0056389079623935
-2.951858359369245
-2.7095789886009776
-0.0728241962825078
2.317107082969272
-0.07398023592776193
1.7140478702728772
0.6341127425796969
-0.8379521293245458
0.9838132848215357
0.7234293820669686
1.1332550967773067
4.337578816660363
-1.002260265530233
-2.2462747749352134
-1.2800518784297372
1.5232656135069493
-1.6541808841930243
0.2755162913396232
1.1995005207640905
-1.6476735152296795
-1.072654360649691
-0.02144135396552782
-1.0925133532112672
-0.5030015865995845
-0.3019176921926938
-1.202177646800322
0.4238958560413435
1.9243117431138694
-1.5225726270861188
0.9380657199969473
-0.3626206149628852
2.47852638673267
0.6838048928362855
1.0531949895377324
1.8158451129122704
2.946477064054406
-0.34547359708013037
-1.263341157928319
-3.6603490516476427
-2.2379201653037395
1.2063763750087513
4.479128181828019
-1.246356667811959
-0.493752204487635
0.09316937218890242
-2.7502893562686546
-0.2057037124026917
2.358467090439573
1.016531276155523
-1.143048585118196
-0.9518036829365975
3.656283859086104
1.8461510784469009
0.24586786787017267
-4.101874253193239
-1.2810494847966956
1.7057578479198217
-0.11272995214736947
0.4129929470841227
-0.9085177951276378
1.581067726580979
4.415616149583521
1.8378610604976127
-0.6346258547737731
0.10595601318427494
-3.328346538291087
-2.659675960764009
2.7322281603411773
2.1830999317665616
1.3060940635309024
3.6694805803095916
0.4265403072111713
3.0953455799097513
3.100575602533855
-0.6162450912872515
0.21389783393360784
-4.23595355795881
-1.8378417739781612
-4.696184033849273
-0.9191632330267951
-1.1893751236023165
-1.8523955811201858
0.8468444022997641
0.2826098597487361
-1.9223932078143318
2.6736969186271162
-1.1016034579485279
-0.09488633378808409
-0.7346218311518911
0.06984011867130135
1.8781167373669643
-1.9027727716219847
-0.6590851739364871
1.6291957350883493
1.65554638312227
0.12980994938458834
-0.6252654565775317
-0.48539388004147943
0.9722817506284771
-2.5623902745724143
-3.5376781046741845
-1.5244495913515677
-0.9732713053092614
-1.1996685586513607
2.386275794119547
-3.4676125198849475
-1.122294431674273
-3.1808845868933404
1.6754297344814932
-0.21586729423841255
-0.6768573754809233
-0.15532352204600075
-3.282805342430913
1.4960210503105915
-1.089868525683412
-0.4866474295077433
-2.4206257955741397
0.6231042452823599
-0.26743144070601543
4.047314006968607
-0.802296977785984
-0.07386569947928467
-1.3273494709642573
2.475182166976131
-1.4146421072292754
-1.1640190001515878
-1.2575365299889816
-0.07069046002291812
-0.2793096646012665
1.2228351992594748
-1.8180775391331054
-0.8240309192454844
-1.2305661193439854
3.2264475853874233
-0.030692948688559873
-1.4652968724223299
-2.702368387683012
1.3036513598954476
4.400645786845553
-3.6569154789476976
1.1315385898803636
0.6494221583119741
2.3941973136670476
2.1231354090697856
-2.4792546551574146
-0.8522799073210012
2.176279397866566
-0.39434183603447437
3.260775125960965
2.0083705792979014
2.0046962989652615
1.7687251638991905
1.4314024278300006
-2.753773096210849
1.5860124046467368
3.04657962939313
-0.593053851452781
2.1588708867274105
-0.157074453034593
3.865195831663427
0.794783569687515
-4.040904205838673
1.6879855972038147
2.6607505656567083
-1.041662240695704
-1.281572441743698
1.459912579224917
0.5372529378284602
-0.21921175803911686
1.7779283033579216
0.6787615376195983
-1.2804132542382174
1.3257524701156536
-0.2174633964134074
-2.223814654242598
-1.0417895119944438
3.051192187695344
-0.5048069878847529
-2.542954702256076
-2.9582300482168047
2.232791475121929
-4.453000672223832
2.348619030265141
-0.4261314340373984
0.25305624529074533
-1.720334943467993
4.593655916345344
4.170250019903638
1.4123891323226454
-1.1635129997403686
0.04353111612666227
3.232639676678243
-3.0816158218301655
1.6581157284051051
-2.2922538829831076
-3.544503326423694
1.709595854944614
-0.4606444644893113
-2.88397245563996
2.221925995107237
1.77003070235259
1.403251342148935
1.2492736395982211
-1.9549987061767293
-0.40938917181264056
2.9487094402880065
-2.3044020480948397
0.210746403069913
0.4338603079830461
0.32790360347231395
0.6877215774108763
2.779029222716029
-2.941934703596379
2.0097169646154973
1.6779617038584642
1.0986133142657475
0.5571550121634711
-1.0145316494307806
1.1070695084460782
-0.007378294031444632
-0.027443430273462077
3.4731739232996266
-0.9768363979268846
-3.2293405635773342
-1.6667276903054171
1.2765950520091218
-2.7929863676343563
4.223847474642856
-2.2195699320654816
-2.0446812043130413
0.45991927012455625
-1.240984784359866
-3.5674455606910915
-1.037873385707934
-0.2895618515097481
-1.1716949164458916
-0.35218664963851154
3.9038961234296914
-0.4037887422772348
-1.1895646016958938
-1.660514908904632
0.08228867950464891
-1.8228645094107616
-1.500125185717484
2.0008990771144926
0.47047215506691054
1.4361344489608803
3.360175977172535
-0.9039011549726972
1.2821290091233326
0.22377675957644116
0.6977200682860265
2.472478019185731
-0.711001285891979
2.3029917429756814
1.9121213726198296
-2.548361204260198
-0.9567931205407078
2.150133173675957
-4.02045944020605
0.25472263899966485
0.1606276002983631
-3.8313596949568485
-0.6748387470061714
-0.5815351777521023
-0.17846721323198578
0.9715465244010564
2.2410728381330762
-2.1417799506976856
0.6447751515379707
2.3890865254639575
2.0058173666142856
3.2342120555708194
-0.9082425065518192
-2.1423505420898956
-2.1381569431304817
-0.7227449790550144
-0.44356348058136774
-0.1536680785869543
-1.9928790930464562
0.7301984266751971
-0.7023878710366356
2.9773365503149867
-1.2428309159601798
-0.43865636439112177
-0.6302490750220362
2.4964694602126967
1.0337389953890654
0.106083827934631
-3.291403113205058
-3.250015089656676
-0.6635885680692843
0.7930163168718836
-2.4721852345733533
1.3240282178664813
-1.6466481538502542
0.11077760985015495
2.1829209996352463
-2.497074871081657
2.367476731697808
-0.5281491643360003
1.6587473402204018
-2.297429901855584
-2.385720206107847
0.629596722711586
0.8366919066583778
0.535161458069327
-2.252431611594833
0.3047557371462234
-1.3019957954123003
-1.8384653365884134
-2.430639965104929
-0.3223254968002476
0.6193551774906148
-1.4126570671938403
0.1801892593632104
1.4025035184606447
-2.083057081115194
0.559335578973148
-2.293926098563783
1.7996184668018813
-0.2046166697647389
3.7179841693592834
0.7583930775094234
0.8825136318575635
-2.1423640216282784
1.6627058397150463
1.7829232537408202
2.8754184471446345
-1.6677846683087165
-4.414064458238159
2.4542867059944697
-0.12211401624812546
2.173936511344482
1.1322936416856262
0.27205815017043833
1.3326050077390077
3.19444677976573
1.1391040778784922
-0.48521744657854793
1.9526840356390536
4.3787921262638365
1.9145080045484555
1.7081532624545988
0.7646579026196587
-2.4557312435768193
0.7094251493867448
0.7635995851163857
-1.076532195106034
1.497809664595132
2.03961451743538
-2.0564649523779686
-1.0443366062142223
-1.1518429351942467
0.5140813049262722
1.8095158361563302
3.087077436004752
1.6290691457258646
2.826081282705637
3.3095587825618287
-1.6887766688300747
-4.110187627935684
1.5629742813865248
1.1608703399925984
-4.145334222380136
0.4091889156176558
-1.5088259854702737
-2.3157648368087065
2.695613089408421
-0.3106508282616658
-0.02755427701573243
0.2463149942097016
2.7919826476172718
1.385639615006872
-2.8321975470335845
-1.533892339676612
0.6751895535061531
-1.6712644971646844
-1.3147526468108994
2.3418164379258104
0.06590698639972359
0.2953088297990174
-1.6723844396645173
-3.545620708870744
0.1680496749364777
0.6834818609879139
0.596761791589872
0.40390823885799465
-2.702769599811039
-1.7506847684359657
1.6103473625313454
-4.3647103742402935
-0.500061593916707
-0.9394184631371183
3.087473494161325
-1.1908072059942523
-3.180309246785642
-1.1759263017514017
-2.9405869372514646
1.8747414330791907
-0.13359316741084193
0.742699178072213
-1.0383106301038523
-0.9999072795645807
-0.6547452342852838
-0.9413910435861679
1.7637536394796858
0.5171783811225998
-0.7987791983673107
3.4386110763593587
-1.2074908516917557
-0.9631461031660984
-3.964348370590026
-0.6418793492751305
-2.0940669733946407
-2.109289113451555
2.451018705030716
-0.36010617270077194
-0.3269533100998978
2.0557964305412844
1.9801560013150987
2.3037976800238797
-2.783517339830707
-3.2815055655748324
-1.7437801672244841
-0.11613558274994107
0.37390022793751143
3.6338169028237437
1.079621567989045
0.36888217251560906
1.8344977131758116
0.43635515294415117
2.0381826264548715
-0.07723079564029345
2.9068733296709723
-1.9408591506946173
2.3367634665852703
-2.4590152608068543
1.574482634223617
1.4166677839600768
0.49261290706075256
-3.2007761947168434
0.49494501238186395
-1.4916763125803323
-2.447307606075601
4.850648174283295
-2.400553264965991
-1.9015179739549444
2.4892217791634135
-1.1720979005281147
1.9484917709681984
-3.870496407346627
0.4296974233568278
-0.19383749156201224
2.5002504229199936
1.023899634242372
1.377634180026365
-0.5165240843429881
2.4477565996867647
-1.9680965821434426
2.080278945025565
-0.2653710440198487
1.7812003645627332
2.7807022020140035
3.6995470305809475
0.1948046554681726
0.7315710430219535
-0.8184186424046124
-2.057567972447461
-0.9707254556566607
-3.248104854282726
1.8512263471264623
-0.6928626392104674
2.0453745561649037
-2.3076751632425943
3.20343505141356
1.1011804246657837
0.3030171276819389
-1.1746784986466605
0.3674921874336402
2.8877202603857492
-3.6200120349904497
-3.622812017872101
2.0894514519043197
-2.98364205148795
-0.5517213760164297
0.2221994771034801
-4.2274202578613895
-3.1053421529153913
-0.6822968531776494
-1.604420036860763
-0.18678979380311267
-0.3433561593284322
-0.39694927748539444
1.0815784591695183
1.388256015249219
-4.115483429946456
0.17102350713161063
-3.2671089010548693
-0.1493652605955642
-0.9601557567404752
-0.9767914087495368
-2.022317342923017
0.8888518671577905
-2.7395242456292364
-1.2286630240229885
-0.02954635290469687
-3.3930050856644756
0.17942640113099628
-2.1389244354770875
-1.1569928431353795
-3.318611325655054
-1.578013805621947
-3.2993941496107047
-2.0882382364148757
-4.249841340234218
-1.5626986516416137
-1.1497625302201244
-0.7023367218897221
-2.8080438816879543
0.32067775284672095
-2.570694022040774
3.6149429274099996
3.4500931633162852
-3.7171425368328346
1.8966073385158064
0.38497427787445293
-1.9416620255016013
-2.5774820223865373
0.36061595204807717
1.8314775513690447
-0.47538131632332403
1.4582434757195988
2.575739458291324
-2.286678747450117
-2.771109926491616
-0.9237799779474063
3.7808572127093347
-1.1488286015219873
-0.5085916488437041
1.5499016738045275
-0.46360552052431725
-2.9957610604060405
-1.0323332161360241
2.287901135983367
1.7161826691358018
3.7533745455037795
0.5262417796729495
-0.03364876807262407
0.8103529690088429
1.0467608976033302
1.7657981769510651
0.9019906094252678
-0.30448295261822356
1.064452928590664
-3.672493917320005
-1.6777788577402282
-0.9715192360555935
3.0580157038584055
0.15911660756085466
1.188388137776787
-0.580254314895158
-0.1784906582652579
0.886948316345275
0.22853364151843403
0.5430426975063742
-3.549927395284148
-4.547965874363339
-1.1641280621346044
-2.662845916992762
-0.9576466334345071
1.1666772638193408
1.4892377612442964
-1.5437324711196903
1.0030369913781163
0.34766900559257397
2.3517571364093692
2.125117840447804
-0.39827745688520455
3.682415082133575
1.7039914368599545
-0.44483786041200957
0.44439629708639394
2.484223181343313
-2.1321965376839946
1.0780414851083617
2.5137530679396995
-0.007000070684658688
-2.7228038756868598
0.1525761885384176
1.4346154961732172
-3.122391350105653
0.3523742544729541
0.4015481338654918
-1.3792995333661624
-3.9038628869714613
0.833278857911421
0.8345164061913355
-1.041016826449896
2.270324929654817
-3.7711560461879206
-0.5870806856845414
-0.3120900572957619
-4.269598184522382
2.038225921673269
0.11371097486808424
-1.8742931764742126
1.3865856363223226
-2.5997436106741985
3.6477836803535784
0.9050376694122457
-2.4165092876339624
-0.17263380295547925
1.9894242187272084
2.3702587935653234
0.09369566645569316
1.6802337090243273
-3.126942919500376
-0.20647876356079475
-3.593276620021171
1.039404186980255
2.413521081864185
-1.9340281700912039
0.46967816917186433
-0.3698665028578323
2.0061321908299274
-3.4796999290592256
3.035795576551859
0.4567030144152928
-0.33721890348796413
0.5408848956018799
2.7771510824494627
2.8024579518958497
0.9403168184465083
0.6177867270595381
-1.6822203704438259
-2.7481819343244154
3.6174635549763705
-3.4991609625791638
1.3434547986610021
-1.6094888250148922
3.2765248987967475
-0.8899131912782559
0.9443778148561255
-2.1597203602972543
-1.0538786478925455
2.8588227801513013
-0.6529717228753135
0.28430837263366016
-1.038785475597646
1.0454705804562074
4.191423139805815
0.13962706178334172
2.196665658977674
-3.0294323557326845
2.5100368819312964
-3.467266757120724
-0.1694213325611187
-1.564907086525893
1.5646320006322223
-0.7653094635073745
-2.20631954081108
-1.7236053934255362
1.6972487412964694
-1.788053396148841
0.060983678782593476
-1.402035601769688
1.3516060318959995
-0.5508741937524779
-2.0580130521901046
1.3493093431487426
-0.5788381363874189
-0.2999558976336898
0.5256590652975697
2.912171984338502
0.08008389308799102
-2.1768038234549474
1.4364580909665676
0.3493475211698689
0.2533808181073277
0.3579653125248119
2.057637055246918
1.9723493713574913
-0.1175567841211036
-1.002193547259683
-3.621917175454887
-0.11582866825808269
-4.857755604280691
-2.3833488304339783
2.6189418028164924
2.1533983425416734
-0.2335474369895323
1.5047858081318477
-3.20371973546359
-2.7240854185077334
-0.36329805948935934
1.4704522721830724
3.3760293493382045
-1.4195411191128189
0.7922739203688812
0.46342114797621237
-1.8225345808618325
1.2342785781230536
1.0164402142617428
0.37678753175500734
-1.3185235959380264
-0.4948699208694398
0.1557137105835169
1.6832400753622316
-3.100137918722029
-3.064121860637139
-0.6717388332226775
3.5620518273920982
-0.03807982034951851
2.0879410986418643
-0.8222746171107937
2.173044502026074
-1.4254320320479654
-2.4901636157858658
2.32870778068295
-0.26622524704313966
3.51224794129225
-0.4129288658690916
0.20016104605451734
2.0561934139911124
0.2928695731822577
-3.07036811722497
-0.667058060480087
-2.8009720026308065
2.196035971409793
-0.04667871010689506
-2.6122259929787375
2.892136356654473
1.7798057660161233
-0.6888070507707433
3.9698708918712917
0.38908441293369656
1.0522396635963942
0.8313338227407181
-3.563530094424787
2.404196298215762
0.4539831138016508
-0.3827560046128825
0.8435245466934456
2.790326089480127
1.80813265961894
0.9670643395549909
3.187809052751245
0.6136035850815169
0.39363942896455395
0.7679015605919552
1.1006816627019207
1.2814019558576546
1.2984959980622808
3.021501361523688
1.1497587063742098
2.379778158024743
0.20895926457787217
2.1575189749107246
-3.0952519389443287
1.876636547910643
3.7910582431906055
-2.2093624981049977
2.9236943896658634
-3.653136394621767
-0.17936259008361688
-0.42221654459522107
-0.18411753450299084
1.8756877822675788
2.2181844333574534
-0.16830953089152567
0.5376524880920242
0.2965096259945863
1.144693887768659
1.5470604945802853
3.0773739187550175
-1.5805441033884715
-1.6851844374021057
-0.5044271477783475
-0.3141686322648567
-2.0930940432890157
2.6835382183326013
2.0459904584014392
2.8082687635556542
-1.5477592002827012
-3.3373417771261384
1.3656138923821342
2.874344442459372
-3.081934992396119
3.0232837692583088
-0.3406663314238081
-1.8977527372556358
0.09015081148753579
-2.3593760400622137
-0.8974707084627092
1.4732210920487754
-1.296644634297988
-1.762687212115262
-1.8759333486765
0.03275119962570239
0.3957605578135952
-0.7184812101506237
1.6956426346603486
1.67465930562062
4.2472849750647885
-1.8039101195040375
-1.7162723845288532
-0.4356398511600288
-0.44098071314013054
3.034982652628128
1.1203556687780043
4.357527144587305
1.529534142237726
-3.2167725596300754
-3.5509879460461926
-0.6295811980373127
1.4844095322657793
-1.5633212714642524
1.4018689289157091
-1.1418850376821248
-0.6847610368686731
1.0177995973526017
-0.8353816803002645
-0.44308621679507276
0.7843543351260776
-3.3162670104824667
-0.9148471400277796
-4.352862290053124
-2.6484755737346255
-0.917093522903079
-0.6176560045300481
-2.707399150715757
1.1788760049817149
-1.8835763867263293
0.11116816792471695
-2.0870140127739574
2.9702874904018524
-2.739510932010338
-0.9595692520300596
0.3453813558790473
0.30150492970512577
-1.3938795910279391
3.0993366669631923
2.051228669639442
4.097230881624556
0.7723936526850506
-1.950839502545521
-0.47507022119418885
0.9114363481174015
-0.150525223856671
-0.9637380479981339
2.0603648021020886
-1.332854848826205
-1.4723139722375285
-0.3172989598195368
0.03157005474490493
3.511940077226313
-1.4311418894045724
-2.629300103432395
-2.156174570205712
0.4454432408671236
1.7762161075547387
2.3772021667889907
1.7114032002066666
0.3750176806555773
-0.38094791538506634
-1.4852199808533482
-2.5817744103508775
-3.7440574357828904
1.6684320925830627
-2.0648598095458355
-1.7823163244596927
0.9723108035556307
3.0001879702343976
-2.248524666196138
-1.9721339845417525
-0.38510114992292555
0.7214454691974184
1.1359149826179111
0.07844695267723711
-1.1877400710621169
-0.22306387684717432
0.5483235162950741
1.165485599677274
0.7712891411115912
3.191345126788774
0.7526950459624877
-3.329614395600189
-0.31648800918949815
1.903944807745455
-0.7226025514783339
1.499263121814634
3.1533449156672337
-0.6482382898397372
-3.0244870656993594
2.098977267896748
1.304578930278305
0.9575305983369792
1.3415263334201861
-0.29393108604383933
1.2213355565609705
-1.321317792942685
0.24061168993567605
-0.01513931719086381
-0.6202542210035507
0.773617152988574
-1.2932341843348645
-0.7890330895397621
-0.2733988017892408
-3.0584854526606873
1.4660399888114644
-2.8435366199543055
0.06122864250694304
-1.008074808980644
-1.1588808801583343
1.8329673053409294
-0.62316370678719
2.2004015432405337
-1.3065019203850698
1.2488780411350633
-1.1824165969781597
2.506411215570663
-2.9404927310627733
2.337027433153291
-1.0923774427389543
-0.2902137431170728
0.13643332473815173
2.2089901358183273
0.7083635770312067
1.821957737927999
0.2749903203031412
1.8923043751537596
3.560212111972599
0.7282254422794798
-1.3656139118418877
2.7068536341321114
2.065028445322937
-0.6826876786084006
2.156237905452537
0.43665683204400985
-0.03443895086321769
0.23445471261264172
-2.486414849329752
-2.5466802151287373
-1.4218985445855807
1.4142771583291862
-0.3087503302588823
-2.0526029916436537
-2.565387626693767
-1.450297472938603
-2.146206155431316
1.4239125529317869
-0.20942155063877443
-0.3468518626703958
1.157326356988809
-0.38170756602518274
0.6548291422941093
1.8662550833395297
2.1614055666686505
-3.011044069059529
-0.0024144320687984333
0.6744051140908853
0.4972903469493941
-0.05718183017310441
-1.2070220454110565
1.6822704768173677
-0.5512108832940816
-0.050048513956544305
-4.4477122002805585
0.1066505548221186
3.1019560181571615
0.703658652687662
1.0041616661000674
-1.857157054209134
1.719885053206149
-0.5177954227681703
3.578047281134471
0.3607996068971593
-2.0011487972507154
-2.1315402993628787
-1.652896652109637
2.2873180969676947
1.8620508316499707
-3.0162982235983433
2.086830900220814
-2.6694810854488216
1.4471872745723062
-2.608169916875764
2.105678355652498
-2.7971435710386743
-2.0558431889036357
3.8302374069858556
-3.4961312310601493
0.9989165638058175
1.9390800312411298
-0.07640592875205132
3.5166990557828055
-1.9157516424572325
-1.079067988322746
3.0367910628031014
2.5985631913799505
-0.04851833349313317
1.6070203270692205
-0.5767067453783103
-0.09605337988264218
1.1999788054990042
1.7435595484575095
-0.17484612805045807
0.8216452966752512
-0.20472701257201975
-0.962405096095154
-4.319062077155423
2.2184548812192335
1.76454076105167
-0.12347751328159529
1.097806262448184
2.0485847755569155
0.48435944566108313
-1.5085425801266268
0.7440097997186519
-1.014956433992023
0.717001008585644
-1.7793003283702835
-1.1819558250821314
-0.27075242036374547
-2.4484910114794265
0.5295481114036842
-0.7492864774910424
-3.344898421716521
0.40581341232756785
-0.5572888402185896
-2.703643819046537
3.443803297053261
2.2461277751122806
-0.9544344096884099
-2.3305212711084184
-3.634380638431174
-0.8201158511831435
1.7105138486213827
-0.6169488653117781
-1.1351153368178624
0.5784504891310531
-0.29531287484424196
2.4447120065316303
2.104473546021757
-0.11411424107465318
2.835247899845699
1.5671339733525267
-0.874005114942908
1.2699789496663296
-0.21146080499450326
2.048798854302733
0.2819586640083216
2.2718221055881456
0.8193316470613294
-2.018566458869069
2.5961660577738392
-2.389828223269462
-0.5535816098738122
-2.059644493863539
0.7085715967799828
-0.7031582214459098
0.8108075209188139
-1.6860207674321717
2.0608678533029643
-1.780615633547764
4.352762138041747
-0.5712687119460713
-1.0209561651290195
-2.652696179542283
3.4639379486335398
-0.37437227787953287
0.3091648425874043
1.7180576858179024
-0.22913081953170789
-2.55524013074817
0.26262535201205583
0.35909130386440147
-0.29394907012755933
-2.926059251565221
-2.8728747923611264
0.3021581966423441
1.0228704716712742
-2.782238059559674
4.499617410351514
-2.1538239624558893
1.9106355125235068
-1.4566891758998288
2.69747905549389
2.2248668226051542
0.36594997670543195
-0.14120313925882266
-1.9958443619118493
1.8354331353750768
1.4766882114294066
3.1813393412316455
-2.594473665970608
3.18451882199838
0.2748152205259631
-2.1498355347609768
1.4732439010566645
2.707705373371593
-2.185692610147023
-1.15853732296332
-1.9487046817865492
1.6187930760692737
3.1304178114883148
-0.5588428178025839
-0.5979630433911924
-1.0548823671408676
-1.2634593299306158
-1.5681700498486135
0.46795054920394463
2.90515161252199
2.314924237259841
1.9500617893873557
0.9053735289180016
0.7846414297968234
2.257479338114683
0.17042892597304027
3.5464509713533054
2.467528991649208
-0.2870627688334779
-1.0275879983787757
-3.054439821763556
2.777909083212413
-0.20339556344347198
1.7464640943025205
-0.333541434857481
2.7892715550936713
-0.3810346752110205
-3.504510345682056
-1.0335962710694622
0.25727871484263165
0.7893825336303095
3.3879828959831335
1.5334960604340901
-0.6676723451732611
-0.9488553898787035
2.9190767927793244
-1.0665051360021645
-0.2918517826661873
-1.2958884587302948
-0.1642472937609769
0.4223555926891138
0.3626858076059003
-0.5287915355382911
2.982458294648603
0.7807415449610136
3.0475196066130676
3.4650160604910387
-3.776611723310044
0.8267566630207207
0.6820654687770289
-0.0892907386513202
0.5976728648827709
-1.7368481153901798
0.8088143544764709
0.2815934462243226
2.8637281459263555
1.5152541471419574
-0.7341442684443911
1.5034881932404618
-4.410984393011634
-0.7841326333393068
-0.7670633533437865
-0.11579082401932705
-1.0585378951928641
-2.00660319975706
0.8073049320191571
3.42439663320521
4.338790009852341
1.219445965299197
-3.7344112613081464
0.16594286346061704
0.11200755581200639
1.3721355127392179
1.1679601167295706
0.23426635341263413
-0.6606905753261665
-1.3286043138540777
1.4608348333269823
4.230683948527794
0.006636852610759192
3.642481167879734
1.734356521996999
0.6311306120839533
2.6511492240897114
1.2639577090819865
-0.20908391286549488
-0.15252293645193138
0.643854278745077
-0.6435867811985213
-2.3190430842263487
2.6076946187840324
-1.7323506545293101
-1.1318606435484422
-0.6376854888036283
0.31111804466952897
1.747022814434442
-1.2859624305794823
0.13934154723556702
0.015055974102144098
-1.6143348677745666
-2.176002889841198
-1.9619321479996814
1.7089993959504635
-1.0317589359647976
-2.943004825230296
-2.7263535311218035
0.5326764248258753
-1.4174295780796253
3.637170497223143
-1.0336664100915383
1.5942064729340375
1.0184705676701893
0.7681195726437458
-0.7377454475374717
0.04460106030624633
-3.1004915146273047
0.08166475763024561
0.01520414136032322
4.064862597530307
0.7039124539476185
-0.42265412025098925
2.185733461864701
-1.5780696110620882
1.830894765524174
-0.2911157683703025
2.1137703590838575
1.2497249668507289
-0.1313658211726727
0.2738686446548799
-4.178973829235449
1.7115400048421767
-0.779831489630515
0.7629154233980877
1.4994366830757304
1.2000307599487239
-1.7565528298017812
1.8245498241453366
0.34188962933054734
0.7310520170780044
-1.9382055079681693
0.5020604861255569
0.8714855581650798
2.187592026855965
1.201032844969502
1.8985771809940237
1.9255850071681762
1.070055335654553
0.20951563154977748
-0.07337998906128096
-0.5491088818392564
-1.5908577343591594
1.417320723966037
-0.20162741837787823
-2.73418361671206
-0.5024233230095922
-1.0091459293162997
-0.0870733157181145
1.9463848932967833
2.096931409233612
4.43911387625619
0.7967503426506641
-3.0080793601922218
1.7758008732091795
1.7278638944914948
-1.2463718253711424
1.4267693686511649
2.0355719787331044
-1.8420324211291121
1.8803248067834244
-2.005693079737811
-3.1199580991181963
1.164132449935496
-3.8957795593818147
1.099482373769844
-1.5148654594502287
-3.8096850665738526
-1.1008306913112667
4.656145876035464
2.6249635116284296
0.7980333152586718
-1.6641691354345571
-0.004587771009572084
-0.4895062660161702
0.16384435703229616
0.12272377416543967
-1.0086907030345196
2.6970498371089406
-0.8777733267008603
0.29425165838735845
2.5599615623028815
-1.2830766208776385
0.9101266378098858
-3.798046886738657
-0.31144061893999453
0.09332626642533404
-2.2305873233215556
3.4652227968797336
2.150362031921423
-0.6080570252646491
-1.4365084449876981
-3.462244114196505
0.06198823937193909
1.9663299253836914
-1.4356671870253834
0.5459654469246393
-1.5607610140078485
0.05341268044423764
-3.4338447441520366
-2.9443783252815745
-0.09229221495487172
0.8753305771796165
-0.5179781224167916
-3.577035150454407
-1.2755747601274663
1.4038794653719897
-0.4204033246314167
4.386539923857107
1.2667883674030072
-2.5561986515393045
-0.48769004178014175
0.5560041449268471
-1.854973719337265
-0.3088275138762562
0.30218493657443
1.4541578561388953
-1.9055509431934983
-0.5768610917630608
-2.5694257179472197
-4.231553169283198
-1.1962658577260168
-3.5247508157858554
0.19305616611467968
-0.5318113358926966
-0.16450369797426534
2.16263518580178
-0.5252584784883809
-1.556229538681262
2.7953927077487646
-0.19870946168056025
4.102240470640915
-3.675929952596551
-1.0939859851364222
0.48569697687913194
0.9285392921739711
0.12834957651213053
-0.8581893609632303
1.7790473339994866
3.8070384777673105
1.408872054075872
-2.91869715314313
-3.027682464184153
1.6109986308689188
-4.459510650479356
-0.36717240333216417
-2.431564784284504
0.454649155271059
-3.186544954709408
0.7900694776191677
1.647796577540861
0.2722053678350007
1.9857080918816763
-1.4263725091658248
0.7713808308234955
0.9110461518182089
-0.049121024465696994
0.31486628735405253
3.0777116695232993
-2.1046976699164124
0.17827085029160328
-3.561696691263933
0.22991742641577773
-1.9838954781399338
-2.41893973697959
2.898780444963533
0.8691381080030776
-0.09525859260782588
-3.5310270221603233
-2.5703283444541434
3.230530420550978
-0.2550217182650112
-3.7583192048479384
-0.24162587461494
-0.42187966676793254
2.2807854809275905
1.4791725620434417
0.9453369344844558
0.11475339490761982
-2.724272767646341
4.085346014304148
2.0028729504307368
-0.9766075004599819
1.5802603635107468
0.1410741683773047
-3.0499936418967626
0.29601346577983634
-3.03680635548573
-0.8770070965118899
0.45960622940739393
1.0063487962716957
-1.1364434719945042
-1.8557381123625372
0.2540537046087694
-0.31727262548021273
1.21912917937667
-1.126451606559769
-0.5943040552204883
2.4372644136649013
-2.4721187801219506
-0.21151719526968593
3.6983340544045546
-0.4923532671951656
-1.7014278068929372
1.4198375205811242
-0.7940033564566682
-0.13223336787126838
0.04676065590374101
-2.7573207502434123
-4.754751536231511
1.5634539128456015
0.9924746061294047
-2.1292582916245335
-2.1427157028387764
0.42955461931176875
3.6157915639630636
-3.789726592330095
3.976058128631224
-0.15539201351152698
-0.7734214394990779
-3.7703934239544727
-3.5613033367462967
-0.8206290103017633
-0.2953566694743146
3.000699443632364
-0.005550918463308019
3.595440266177681
1.566543759481403
1.6689007647546068
-1.5315785762411984
2.850221922982483
-2.484690063741417
-1.9928128326193133
3.2363463041977263
1.7644995967886212
0.6293240736859762
-1.788876528419589
-1.8333629085522123
0.00884837441916897
1.3466120522873188
-4.409204849559656
1.1859785967512568
-1.1348511860573245
2.4007946059142453
1.8159634479931606
-2.375298679620783
-2.380553560001767
1.8649486265582051
0.3706938922341263
0.49819249007958133
-2.7575900153822186
4.459628842126768
-0.12629366640539086
-2.1194092073835655
-0.9863620804741067
-3.7187007730999353
-0.07930111392647055
2.527017436371852
0.7460602926998755
3.107425441534035
-2.8951064711323875
-1.0994088089075817
-1.7333085498592704
2.43447602319849
3.8720544791026414
-2.2395204042832093
-0.1900226971234753
-0.5949148871672112
2.8662299992330396
3.4672352469651964
0.9799929436661472
1.7806250361535776
-0.5775340070028849
-0.8383334715933923
2.9377354655178847
-0.8845620508812901
-0.13725735045822818
-0.026505997635543732
-3.530233778131125
1.288979036806925
3.2513839052143387
-0.5839581011175543
-0.40554926669885916
1.5521195078419319
4.266188747461122
4.1232148065242225
-3.637955777847446
-0.7561410324059619
-0.15846355998968065
2.0850093717575016
4.504877610915171
2.3346988395550463
-2.760286647325584
-0.46218866478617116
-0.40611116346456366
-0.04707417792688773
-3.793286897579347
-3.3342723629312423
-1.6422463540435608
0.05005481466910222
2.868758657620159
-2.7307966762128064
3.82086243865026
-2.6383170166698258
-1.9742021858988767
2.557174553100584
-0.08360409412972158
1.8200032069091971
-2.501778932554358
-0.7809945821960351
3.2307478950166257
2.5742278289677025
-2.8169479764431062
-3.0675385501385257
-0.46445376281209727
2.7751735648941787
0.47586034051175563
0.4639670038676664
2.763520115323935
0.2802540927928381
0.7146479397719769
-3.482601885245421
-0.9155329793072999
-0.5648637556305008
1.301956989652891
0.48766153056474026
-1.2624342110363909
-0.9116968049341599
1.1614516657214973
-1.724693104179905
-1.7237125774842168
1.9947796010932035
-1.8147787775526059
-1.6815737864258553
0.8821545860660575
0.765266552965556
3.3280566788016355
-1.0019131088750157
2.40359805499826
0.516936524811205
3.0049503657605303
1.5735510073604346
0.7761602584204725
3.3821380517080324
-2.5519330868808465
-1.1964711051477024
1.4802976981046796
0.031261431908923054
2.6794379783096214
-0.5902813684103543
1.6930304481845506
3.3660145901557095
3.7556295181463413
-1.4611203155202275
-4.210311196867761
-0.4606422832607078
1.9406312239842634
-0.6203065829061734
-0.14799174087781797
1.4583497673119838
-1.536781216142522
1.0906564686115687
-2.161177774249472
-0.07384597750059552
-2.4849605883519206
-1.804738644430009
2.075602088596238
2.5794545257192807
1.145668997172638
1.6007110484283231
0.7190943176157241
0.7775317903473891
-1.289107490670904
1.3964191178393213
-0.14669285241648122
4.599249669143783
3.5304573472959424
-3.4114552641632145
2.8730919062108295
-3.8957982974262655
-0.5884514102825324
-3.0731863947114544
-0.18842438602616696
1.0142677213494589
-0.3057622259820949
1.9798726127087436
-0.7323120058673962
-1.028169043021998
-3.5248470363146347
-2.384568412541346
0.5900378778447837
2.530904796513611
-2.3343765506980905
0.04143809978469415
-1.0266126417386787
0.037420254863858915
4.5405455000561545
2.56453905325192
1.1239724945264875
-2.4450772206928155
2.4342208723870375
0.22207671765518566
-0.8500772061285935
-0.00806949734759188
-2.7605805156158794
2.4438704247688503
0.3330276021710481
-3.412799004924037
0.365912300151809
-1.0999679799479312
0.4381004390610359
-4.0908400278281025
-0.18527051645263848
-1.308931472155287
3.21619097260614
-4.474261586796053
0.024388896924595338
3.036518186020002
-1.2421048519238376
1.5008711000599155
-1.8546505172474899
1.6183733076289077
-1.6469884733066489
-2.126094733928196
-0.6010652472476563
2.7355361255023825
-1.4872029688839237
1.2781678203477842
-0.8230184070254456
-2.5744378795722085
1.8110691104416103
0.854945275703308
-0.46154061405819125
2.709936914359779
2.200406329399855
-1.380878283406437
2.75931361519819
-0.880861303915474
2.4596960336485907
0.43272781754750267
-0.40821896044672235
2.6537365076286106
-3.5707200962508163
-2.257350100709859
-0.11057245237672886
1.3377724845294854
-1.3100529071853755
0.23874927633853016
3.2541600267887323
1.5206803154097441
-0.6579742395911653
4.588641404798735
2.3614579927531016
4.08398831199543
-3.459179090450251
-0.5946144688159183
1.6200819017570245
0.7090578649044219
-0.555349468511968
-3.395665798029634
-1.177500057175108
0.3621061978858089
4.231729976770686
-0.6946065907859009
2.4422908281451083
1.1527664310104466
-4.157846870005671
1.4369422849146716
2.2347672101811082
-2.2775700088082846
3.1012218713793405
-0.8023366570361024
0.7970726242546635
-0.6813736823123744
-0.11962782094777857
-0.46746722258973206
-1.255999391487972
-1.288312565839323
-0.04805030372812369
0.7792206982943233
1.1557874098983323
-2.8900545195875065
-1.8059191921928142
0.6411522293927507
2.954126033981123
0.22971926903150086
0.8018930182770521
1.643477859011496
0.8626540158239169
0.6763326701584509
2.1613323902938184
-0.7717955847996314
-0.39183680870868054
1.792419324986136
1.0418283334483642
-2.3552636023661115
0.018782355870452516
3.1297632712264454
-1.2359434432841683
3.792076802356714
-3.3246170469646112
2.700923126626941
1.9990496557564161
-0.831061189233893
-2.227543481429031
-3.833106935445379
2.8549048065856497
0.08801733001817025
-0.15528389095473116
3.1170477061883837
-1.0926603237836234
-3.6893294358625734
0.015668503696129044
-4.402377103260829
-4.169654052758985
3.2582620186267595
-1.5755887294338384
-0.9550187216213444
0.2831901513460009
-2.04358777621234
-1.513098886377362
0.779913137179305
0.7100124008199065
-1.1315887498999921
-2.3520560590878525
-3.7807775201720055
3.7082725640355094
-0.22595907165768336
-3.719839106403916
2.960847923346326
3.6222949955079566
-2.149942971762171
-2.6138266001579473
-2.1012304543272835
-1.9818408686648836
1.1085826924931426
-0.23973746350147263
-2.476050135270913
1.696189593819656
0.349660250770935
2.265751573980722
1.5675606153678852
1.8972929670673375
0.7842144986027901
1.8843601327608692
0.1427444603977377
2.359392354163673
-1.5163234970653376
-1.8062184909001295
-0.4588378125036452
3.880209485426615
1.8125160274219798
-3.0702677310342397
1.8405742301857981
-0.9573548096857741
2.999934917422373
0.28872507172952133
-1.5202909981703394
-1.2409935621369343
0.006971325942394024
-3.372186177416328
-2.0433361739107685
-1.7096679006592526
-1.1547369773331342
-2.7824385552780697
2.8070937095130266
0.3970652654593726
1.5037215299723852
-2.295519810210795
-3.981566409314873
-1.7226757281667036
-0.36063452293476894
-3.0608048498306957
2.036406033351261
0.949020861074379
-0.8114341152793242
0.826579848538279
-2.479935308186164
3.732076145092063
1.0549496110955803
3.8541145682507985
-2.9983776877347896
1.4869836155552867
3.0302144906551334
0.9547177155978281
3.607313821867814
-2.734029016329327
-1.8958964857272882
-2.6397004636015473
-0.004454942610242485
-0.966991243870515
-0.6802100565840172
-0.8977115965416764
-0.331423506888334
-2.89108326766865
-3.669077728899843
1.8153801894504826
-1.1860080017273065
-0.0021819566292169412
-1.1834207911120274
0.50075967515233
-1.1677972711704627
-3.748808752657754
-3.0896148972665656
2.905044954629316
-0.2937637416977741
0.025769728920749246
3.8000355099140686
-0.8287951696195806
-0.6299391710369426
-2.0084613057436864
0.653482371273218
0.4176985209082633
-0.7683049483401083
0.2460800522205926
-0.9719694773260873
-1.0979126988001124
1.007351966954698
-2.1084850484966875
0.9185928192174644
-2.574629770198339
0.02286950950209299
-0.06970670397863199
1.6013565101979959
0.6332920928582482
0.13867472372684952
2.136082690347237
0.42910962846216605
0.8708727385668515
0.4545342197599439
0.5560025613408686
-0.26552265006371556
1.2464106262824362
-1.049660590214982
-2.6995416336166866
1.997318502600407
3.5612090186670837
-1.7808235194425752
1.2768210383497858
0.43253195715416315
-1.2387270527465732
-1.5510673030142286
1.5232067267320457
-1.8454761762880105
2.567231712808807
-2.1913140621999068
0.7986016870245773
1.0745845907260598
-1.0612688979376208
0.3961317404055773
-2.914412920238785
4.687425863875882
-0.9704490237485002
-3.0977062126295003
0.661909127363141
-0.09687177469134678
-1.7103072144213636
3.1497694294382717
-0.6028509078383086
3.080748008324192
-0.6293075584822776
1.6607622869883563
-0.06926050766764003
0.41983555096981373
3.4904036971076473
1.4111477133830892
-2.6124217376113656
1.8661127981447838
-2.0864943954733564
0.9268245777354571
1.2874912982855533
-0.3124385999306045
2.2039818077884825
-0.12139742219803029
0.3047915920087543
1.8771703688112105
0.905822408633612
-0.6681263023417285
-1.4658134867140165
0.5385947387467221
0.308199665229016
-4.192680967481608
0.9192832314361912
0.4109739946277564
1.9513646854712627
-0.6910979459531019
0.4999406312435082
-2.3108397769852305
0.5295180136342412
0.47539462114162
0.13472039808025604
-0.7043924925388505
-1.1530973122336468
-2.9883089436328243
1.354684136050175
-2.239829562951865
-2.516630909699995
4.556154581360211
-1.9952105821065926
1.8640629506312298
1.8256635965452164
2.1402509843517254
-2.670867401000056
-1.7957721549106855
-0.8793105505394783
-2.603284026204219
1.1562902511917421
-1.1656336927078028
-1.7930105933185985
-3.327490845900991
-0.1589925043449063
0.1388768295023185
-0.41929679244063944
0.20280197150989832
-3.381516399432682
-1.9040445988762413
3.452245233866783
2.5022510015403308
0.027507146112869307
0.08610521892717493
-1.5500438430212724
-1.8701931682952162
-2.9413140929734563
-1.5976935324406967
-1.3730227020519354
-2.01669195169546
-0.3159727428682708
0.6180968711572543
1.4275973954657872
-3.7198900150041494
2.4241145440346177
-3.030188741803748
4.269321476698376
3.3799985614332684
-1.390868337836357
-0.09076714795219232
-2.6030863133375726
-0.39335964015678915
2.9899847740879313
-4.017096513704315
0.6646613124368335
0.22381636209255207
-1.6442271132366006
0.19434433969957476
1.903112602930761
-3.2773085363172374
-1.186145480993263
3.005436848545422
-0.47346363443421025
-0.42363005605078285
-2.6112368645786104
0.13321375214458753
-2.9626450279849976
-2.382015014417304
0.5962199986861094
0.2983106742788565
2.083799946450238
4.1985732423165185
-2.3515053432614397
1.0813270042605851
2.7270390117255134
0.2809858261518432
-3.0526376871889784
3.043347896015292
-1.4259719862212452
-0.3739166397967275
2.5209106790364526
-2.7331243726846433
-0.5676670511046487
1.2274664685373082
-1.9395577166734959
-3.5265783839684968
-0.8568229957682134
4.150991435248371
1.2137262458500584
-0.12599162138802544
2.248958283277709
-0.0646787879479871
0.7908464633893395
1.908831908092255
1.151491785550177
2.7097613576284525
-0.4611017192487479
0.03233360783361228
-3.58277697416802
-2.8143690610155785
0.14178274817934378
-3.3000669221428245
-2.1143354474322025
-0.32258068082902214
-2.8986526598056157
-4.287329184533964
4.237305209421675
2.3099772970033463
-2.8438735928658794
-1.9239893630940514
3.6772422820225
0.5679936721320513
0.8939270310705174
-2.4709471065861157
3.390785628842907
-0.6559927342666807
3.2145151965027763
0.9004076178527767
0.4272853538485881
2.641203682028694
0.29864608485931365
-1.5530222932937883
1.6684314493111883
2.087247511454073
0.7396957128869546
-0.668097608781498
0.5372757743288914
-0.5846002922770439
-1.505862350545276
-2.6020893445809365
3.104228746255556
-1.930830725017803
0.30711875259503363
2.3923352273455563
-3.753724700870336
-0.9132481714743568
0.26938138659993704
1.80003598164086
0.5156668076406832
1.421501930089823
-0.8382150565918298
-1.559515130045562
0.37433338171249453
-3.1453095054016735
1.243673234030969
-1.01474079433358
-0.5497297499907594
-0.343201583790012
1.1413405742523914
-1.4478035375537628
3.472145766687105
1.1535947303052958
-1.5071539639214433
1.532458828774447
-1.4616171774535753
-0.6467506583209803
3.0054234737651235
-1.1932425258100738
-2.623037389482057
-1.2092677881478089
2.5817412662457704
1.5069881221523516
1.2522006639924772
0.7457468751030412
2.171258118192292
1.4795252775789134
0.174746502113591
3.990448835025526
1.002928265482653
-1.3935722529735188
4.071054863391577
1.2231999894705143
0.8555021292843561
0.14080384265945733
-2.431419244171966
-3.6553923014727054
-1.9783234159066496
-2.787413252693858
1.0529454853454734
2.7320986748250258
1.6223414054764769
-1.339029333081959
0.6533275298389467
-2.330721006979222
0.9271750942821992
2.349755714537534
-0.1876759204603502
3.086328162579616
-0.6621638784730259
-0.8781458362549031
0.09653651496104754
-2.232320694228556
2.69000383380328
-0.4507928667214207
-1.0958723452257875
1.1832336085074644
-0.469483893502026
-1.3656400550468137
1.725602480261007
-0.9006390630706285
1.0258543338824682
-1.3800510581350451
1.6140608392440776
1.1259344148450885
3.1582270156885492
0.0623481580179952
-1.4788263873751655
0.3556515254764364
-1.1345000039660729
-3.6742743538739537
1.1551301013703554
0.25188886206028727
-2.2187745661248015
1.6527603879260164
-0.9831898712628656
3.941343463297607
1.2310173373348978
2.9682701152946973
2.2704264549042406
1.0677083052267915
0.1415253685512794
0.5719969431928074
2.104892116390917
2.362633395399579
-1.4817436839805498
-2.123193790877647
4.2421585854543675
2.0902219035810807
0.14849315293313436
-4.651457038570129
3.248777797220885
3.5213115082535262
-3.8144386979868843
-1.196199775457162
0.3069362494260188
2.5937907656742873
1.2706935154477526
2.221846165680813
2.1012117638253462
-0.08479887219739002
-4.151258574190301
0.2269628755183124
3.477303349325741
-3.736127148776303
-2.6660145999083693
0.39744344030612333
1.5289831912767529
1.7448479565819808
-2.2177081296878
0.5575015080441781
-1.230478495004769
3.7568366925128736
0.7258676866724656
1.2083380890617543
-1.9561659024733244
-1.0735399324616157
-0.17313620404214491
3.2546216562432586
-3.162397443847434
-0.8339731589331332
-2.9939255615953586
-3.8173737892504462
3.639617280176192
2.0110967173983956
2.7029856558421215
1.8462796531827976
-0.9864074705618164
0.3940773888179905
-4.0765790565427995
-0.9826258704094898
-0.9642950273070499
2.0101079912420534
1.7310338891848467
-1.1438161622773206
-1.2458957612550163
-1.5685230834765536
3.8388995818788487
-3.5412546097952924
-1.6733534935586052
-0.8731752432587472
-0.04254700686138868
3.6370468160864586
-0.5068992459932702
0.541382857778034
-2.444974780123265
3.088377391703766
0.03807713919451228
-4.605502785570647
2.687227059101829
-0.8899123394318762
3.9009288443750836
-2.649313827308386
-0.44856904898709193
0.016008703977080874
4.588875814952924
-3.779514826754141
3.422599718798546
-2.5892166996834827
-0.4503984237786052
-1.152675009873175
-0.37328611370480713
2.47835557605572
-1.8404269528357822
0.8366967731007025
1.2080456293687947
-0.5591287351341929
0.9843320031142218
-0.716149801270718
2.9465310676683205
-3.655760873329884
2.967010191941231
-3.3437211417922024
-0.6185096317743477
-1.6733991253144462
-1.7986836913551745
0.9872391124483562
-0.50205524015277
-1.474037379044915
-1.0547534649994268
-2.463444500585033
0.73178179241705
1.7832355609594082
1.5317668491354999
2.0749601162749616
-0.04998176192035153
1.2969377157151039
1.8327183646465544
0.948218092797338
-0.9375895961992717
3.3858046754646973
-2.0678046057460584
-1.9227127508849282
2.9206618483205187
-4.4844380915759885
-2.3343537689956064
-0.9492357222006396
2.1614799121252473
-2.253894240871631
3.6809464165220547
-2.5341354997184626
-1.350271628757193
-2.2446543746627894
3.6776941912988175
-1.3258120153945328
1.1779285920634808
4.59595600266062
3.4809801316959725
1.08852026663906
-0.9216414158456466
1.3412886506931518
0.6058773903935544
0.20691837556515214
-3.5960010244929776
-3.223305312594479
0.9689061095811491
0.5103319704022962
-0.6654224576385858
1.2925076106376316
1.4027201372601057
0.390009617823468
-0.5360401720708081
-2.865065107224884
-4.369734109339392
0.2609403905522769
0.6251397173337446
-1.8288878723148887
1.3546647008932022
-0.982419853947599
-3.090924508566526
-0.6754347846749414
-3.8789333053010933
3.9881140058943654
4.533624928822171
0.8373332219957552
-0.39327111147800764
-0.4564976161413794
0.21882751187056237
2.515002244529835
-0.004435566817521774
-0.4824362777132363
3.7247840278473827
-1.8891014794556602
2.093414790302759
-1.4056583427311091
-2.791614951748862
0.00569215612985452
-0.15970367638042937
-2.180992761018471
-0.944865073393623
-0.6613393183196536
0.8758665298247853
-0.6114536135442811
-0.15767437092368475
-3.253137086833493
0.8143655643913821
0.8784831285839007
3.0898072616630223
3.868473149120585
-0.11472119143128234
-0.9381132010115856
3.454605808550901
-4.233474340905096
-0.4040269962404064
3.4769158972286314
0.025639564724664998
-0.5706818472424846
-2.927445320304505
-0.10085492966400267
-2.6252180538030996
-1.4962726853689658
-0.2647987580458868
-1.1250702102008479
-2.979476274401656
-0.5823171415360446
2.9642144883168067
4.472054134907125
-3.0395192626617646
-0.9519474843117974
-1.586952707960847
3.4039143204218067
-3.0709985588076116
-0.9098130548503569
0.6245530725206361
-0.3165122991755469
2.0361201650089162
-2.7146248840798357
-0.39329336922176505
-0.036662942113205865
2.4441095958253767
0.6624590758722287
2.024049099453817
-0.2821007667407589
1.7378799047092208
0.9498601479406314
3.6611050632194635
0.42430962646030745
-3.354523937041454
2.3142640511420605
0.8140222151248349
-2.1019883055344484
0.7649222995969356
1.5822164667365533
-1.733316607109956
1.9394014086582114
-0.04633489121218859
1.1008796013394715
1.5075418822287987
2.447757071938561
-2.9631372114734167
-0.6058020853931692
0.8434293841704249
-2.8412957717632676
-1.5092261866943102
-0.22927591515673185
0.06658544730298765
1.1614654711795742
0.7574912770527692
2.0393556153296277
2.3311618597254355
-1.6478537002333744
-1.1527229498584526
2.4892318881207687
0.8954464057884364
-0.02069510934518881
-0.1152583053171985
2.2900401309596203
-2.613936792297868
0.4380578289765985
-0.7448766651398606
4.4689822647264466
0.24039219444532078
0.4689705613609081
-2.993086312813676
-0.3793473383087065
-4.016536572061806
2.917984017035064
2.1670811691894305
0.5060748331808391
0.9955729267324416
1.2136243725377382
-2.374857132316748
0.6971483435263401
-3.573127710086197
0.7177506096708235
3.2423335714976895
-2.5772429763580607
-1.0848204934710948
-1.893915541965606
-0.157878138315783
-1.2272135716612618
-0.23673637423947236
-1.0652221066866416
1.738324891339214
0.4163014617123184
0.23185149272699324
-1.45073565271815
0.4570703579441543
1.990134051860048
0.6046074369904552
1.4916452244152993
2.3088558847551273
-1.6858679772167253
0.681335459754326
-0.43713735055218794
2.466956549314836
0.5893167350507811
-0.6443459382234722
-1.304094355077771
-1.7915702674616996
-2.2647982393343415
0.933393630507863
4.796302823738895
-1.0260325696010595
3.0225212067932845
0.8479667519995804
-1.2938502356740424
0.9028472133230263
1.1576189852170775
-1.5710387829221601
0.44792176925144744
-1.5007702598549906
0.9747470461332579
-0.6197948812463254
-2.095678931030355
1.0860537137084776
-1.107475232779037
0.6235553749880607
0.09041021460324083
1.7027799847613618
3.2908084106686206
0.16465840322845982
0.17427975287833952
-3.8967672890020917
-0.035780141139301946
-0.3630667622448489
3.402501554584775
-0.4902135533246056
-1.1914131803388242
2.1800283494511232
0.08661715627748956
-1.2198461503135372
-3.103458448670504
-1.6910002231751733
-1.1930886309956383
2.6430186346841102
3.0985318626272633
-2.569536980007547
-0.01027918820056084
2.6587671925414993
-0.5945098284472414
2.6619666044722696
0.014527400209578545
2.561568124103594
-0.8905857707500959
1.610839319462829
-3.992911838773052
3.639049085199283
1.9981070806681032
0.7687593354808202
1.47484835015737
-1.194179436599994
1.7203274098279926
1.1782965354781205
-2.0591085240288587
3.027098516690947
0.47760044897273435
3.0276766368428363
-2.26732656581628
-2.2513256230462564
-3.8010611141736383
1.830019481485193
3.081792118638732
1.9894820387467633
2.3547232031807215
-1.1567019402437158
1.6910423934497096
-2.2469867579916576
0.5659931947125392
-1.6127280880007433
-1.0749948112301904
2.4138300750993675
1.1653992716882717
-0.2863579304726239
1.7804240289129796
0.7354257087873712
1.8660632928015009
1.0856793161834069
-0.2073862668176757
-0.8243179124114869
-0.30539918994398274
-1.2764253540917108
-1.9658431668967045
0.1361762106102744
1.344552376776777
-1.7282374946193482
-2.6378665850070564
3.811582908747358
-2.8935244128555606
1.4444670382596447
2.070137249353852
0.2954260483968463
3.530946610922784
0.5057205044823221
0.10132659823298251
-0.4015722923271361
-0.019277107225290635
-1.7598954618171012
0.9787599543308695
-2.764296171980316
-0.7716843691755111
1.0704641627431606
1.609267338175549
-1.9609417286106554
2.2552216176994335
-2.0211559655515323
0.11710681110022181
0.8506256485278603
2.409066262458278
2.8868984723863504
-2.1363445107654586
1.7541087390599903
-0.925093591936021
3.1520227344053837
-0.19061327209474177
-1.5001330216072413
-3.983056876319501
-3.1645426797112397
3.3743811970342144
-1.2198993599652252
-0.45310505090358566
1.3986161147215088
0.9536247090222993
0.010382568991585295
1.6752811000026826
1.4838850103051677
1.2433394021202737
-1.7262107526085086
-1.5981349630784298
3.436145921018194
-0.46539841219008515
-0.916122763450824
-1.6984924660149185
-0.7787294087982648
-2.8695058682049153
-2.377240764686822
1.5616810659701814
-2.602160815025152
0.043043622388126535
-3.889473456037366
-0.3721065423037434
3.7983305198503885
-2.8738066003591376
0.9622700128309298
-4.38672835438335
-0.42396472132882446
2.8010614324068808
2.38894782954362
0.6285564014361218
4.273941969364071
-0.4702668518910844
-0.9016484465040016
1.1887559618596475
1.5718452529980378
0.1938398415257363
-4.2475797584262
-2.1472883505214027
0.36792655865546564
0.5341719478084839
0.8371506464753455
0.2518211192197102
-1.148941159223047
1.807577209994431
-2.3986434646117396
-1.3358255239687264
-0.7799175827433729
3.817395261402268
0.7205254084022994
-2.7096512507796744
0.7063041164772357
3.4736752259098274
1.3420224606617643
4.387112541848213
-1.4445312422753802
-0.9605697593158615
-1.8321076971867742
-0.5847078479488226
-3.3745457754046546
0.21917729250406637
-2.7684913437189613
2.3580468868739803
1.2559377402267964
-0.7539898372306593
3.0243211223160875
0.36580367339035247
-0.9337135333913578
3.123459683789083
-1.3710496410626833
-3.1158955753546813
1.3379188447120933
-2.8216117926260136
-2.485119384300127
-1.5793892482364356
2.6373903937423036
0.08116935908138201
-0.34700082772991925
-0.892479700677256
1.3364511313083927
0.48940281035799504
4.6052345364674965
3.2156433931552266
-0.314674051369333
0.4714143968715514
4.245542277202025
0.7763889132591668
1.0954672632478593
0.8657915387934532
2.768487218722485
1.467911359237832
2.2880312833439906
-1.2667967517575813
1.641674820412312
1.9216668288552
2.9643259395589734
-2.9432442027616297
-2.841720723544085
-3.3943693033093862
0.6544818184025325
1.8471337039055125
3.2459195204836284
2.4404239684224516
-1.5994042822424825
1.808775098617125
-2.811866797283833
2.304600725194569
-2.0694025119600794
0.7233331394777555
0.9146976640481883
2.585345794263836
0.9790879168565108
2.706671868283099
0.5170494647079495
-0.06916851589614414
1.4114015989828843
0.49564758030680034
1.645050001816565
2.3604857984186363
0.8071398672938079
1.920925291147352
-1.5586487678245495
-0.11058015034578617
0.1594289185615565
-0.2779192965679166
-1.3303932005687265
-0.17673356057282463
0.34614806074251825
-0.1387636374582708
-2.307218461134288
1.879677228434839
-0.9706166353206314
-1.5085158822138793
-1.0421905726690786
3.292732027887975
1.6393514233216697
-2.2636578688403595
-1.3571521148167736
4.056506144914705
-0.900952839712298
0.43649661295604636
2.12338058389847
2.464050059034519
4.945864563195499
-0.9799201953732518
-0.08658199267393152
-3.901972712354752
-0.49356167687856733
3.6527327490344295
0.738044865527161
3.4292636745406417
3.780960843549758
-0.17629786668809855
-0.6064337831429072
1.1794564180929816
-4.306780976107222
0.5242238422974221
-2.948500018372674
2.604293167391968
1.3626057279798767
-1.825559280382973
1.6626685225708717
-3.1467685598747592
-0.9456465281610651
1.4551058332805782
1.117636900940537
-0.4378118310488588
-1.5357600487438576
-2.7996789474579087
1.819748695324737
-0.164610742379947
2.9940170412570546
2.5075599977168377
0.32701064279464787
3.7726294006297474
-2.326187410028302
2.2212271068567615
0.7190735622003954
-0.30180735628246325
0.3877536587943027
-3.0539984170465275
0.34556156428809714
0.24768110775402263
4.059064331096597
1.7462155813845657
1.6119990946180311
1.4690072707244417
-2.549115791792167
0.6875196481034664
2.4595852807583407
-0.9062074635033821
-2.76093921057372
2.3770802979401995
3.1950660238042126
2.1354289751776445
-0.9868353140040219
1.6585663942977744
-2.673046023750781
-1.0299503540326844
-0.1380242750871119
2.6181667609199746
-0.9356545693515863
1.056659916962083
0.19969455493547894
-1.9421033444092615
0.134586347262458
-0.5473219014560256
-2.510876063638027
-4.407563420477809
3.5760344589597968
-0.7188633127788231
-0.4819249279926474
-4.474242449481359
2.162169532554548
2.3057941011766356
-0.1147551254241036
0.6637817525974246
-0.886697922381595
2.770406118228803
-1.6481830053350683
3.219327474747529
-1.2478715158751448
-3.3415928790216833
-1.2849645896779989
-1.0344103643073925
-0.24061510837918565
-0.470747181463671
1.8599994535834363
-1.2055942240851536
3.6858476967781515
-1.9123286541413789
-3.3540666037467384
2.835556653137927
-3.6230673705088248
0.642076049208935
1.2831772351762472
2.2933524401125744
-0.03385887606356741
-3.3916121726488457
2.8571508306885547
-0.8432464881086084
-1.9063959478842731
0.21551683522088028
2.655540124662374
-1.0607226570229211
2.0059734834496767
-1.4312436629407732
-0.04504300421846463
-3.3950608395737794
0.19391223991948703
-0.7726654330483396
1.9233203608774039
0.8364795124204966
-0.7765693562744409
-2.54762209470464
2.2942112720549424
1.8021252808003991
-1.582678878969722
-1.7184659396414617
1.4694505870137262
-2.4228630754557208
1.042940431282637
3.586505583222971
0.7061474174396323
4.3763907178619785
-0.33740981430796346
4.269743001319625
3.0444730423480753
0.7542458641594498
3.3027434871979633
-2.243452101151389
-1.3675946379893433
0.9279465161423328
4.0983708887002885
0.9388377624907784
2.1036969402183745
2.3808100734309647
1.068613278379471
-1.2731807300823181
-0.33468456419643644
-2.0985505962309525
-1.319947867843414
-1.6351780859869707
3.5506069379762915
2.2152807317274696
-2.1461720541278737
-0.3324570383509018
1.494431155409014
-1.635433147357755
2.072856020634787
1.332951542111902
-1.1134787912006137
-1.0067545214628728
-3.7546100331156516
-1.5118970614756098
-3.7406871954801084
2.6927917777234245
0.9811830691953398
1.6241134850646874
-0.23350006507325904
0.5653678205539843
-0.0635027931866361
-2.9234544212932834
-2.691440128720046
-1.839493869621264
-2.1157910495898973
-0.7925480583184816
-2.0384967462574415
2.9415775189813638
2.1652641691766155
-0.5546683763811573
-2.634904826345345
2.4382961424915317
0.17772942763646382
2.3392447934047627
1.7267996997890465
3.2415083807735785
-4.44030827018433
-1.2166617863315554
3.0976973200628493
0.9965166881467544
0.7222557842207251
-3.4319687953513656
-1.423375825866914
1.551189190763023
3.3888884846164995
-1.5858890643850476
1.0987844855016566
-1.5848950881011703
-0.20263850631118174
2.645988638733904
-0.5349141118784635
-3.314017505239575
2.2205414010661286
1.6603656580605046
0.26844704447284595
3.599645805832012
3.462277076186311
-1.653440561570703
-0.6266726008877515
0.8597742138604998
-4.0153638538253125
0.6147403040766299
0.6047312958849465
-1.0963136173480215
-1.6772634315652382
-0.8116722838423502
-0.6970677205107871
-1.7395872511515114
1.4434285063731966
-1.1832026939752858
-1.5998276572198737
-1.8427007356275125
-2.295927969074233
-1.9348529245925372
4.675582909077937
-2.4686007861646733
0.06766399366061271
2.836275103442522
2.8445774679903306
-1.3981017802054625
-0.7694392882873696
-1.2174835933649635
0.13896943404235795
-1.8401739575934006
1.3190498848311272
-2.2374096023696852
-0.9659405903237449
1.7313021490051184
3.8110195768874764
-1.499792219029302
0.7789477315948952
0.7705670210233602
-2.661025298107328
1.600589523808817
2.386318866196881
-1.9609505479534568
1.0306516035863158
-0.9188569110321376
-0.26205242738743983
1.3267165890064074
-0.9565201724575596
-1.4274486004593436
-0.5378210129755958
0.6719624092272971
0.9491415258421059
2.3465206909936294
-2.7603693158641116
-0.7637211478611237
-1.3755205440967067
1.326438622148173
0.19336730485038967
2.9899625416498985
-2.6949988177025817
-0.7628070266694214
1.019798860762294
-0.634892199996743
3.4572320077649272
2.0503998443714706
1.5165498027489268
0.032133524688708004
-2.8738346401536363
-2.118707350678603
3.16355272098033
-2.043903806144562
1.4140604026265708
-2.506478732401674
2.413613465612296
-1.1109629811643185
1.7468376116651565
0.5681104877653527
-1.6513004561771172
-2.5453847142958534
2.5843226031515427
2.892829487840136
0.3582002215855793
-2.0187237229865063
4.230586049631299
4.628221413828572
-1.5045888455851837
-4.75979582349711
2.4006329535742967
-0.1934575838015562
-0.8315106322262227
0.2443109556230827
-1.8003113359034275
-2.7801381863112598
3.8221327524847193
1.2645092604892394
1.1713323004032117
-2.146428224405077
-1.7337687630637393
0.21952163920950074
-1.9292709349165194
-0.9784429256612488
0.30774089570141605
-0.4045262443285508
0.019208758064246823
0.35927523661386473
3.3420306150524293
0.05152400424027137
0.6964428684225794
1.8309973468925533
-1.4400485426008984
-1.1322229775608141
-1.773531029526111
-1.0925419565544527
-1.573120984311089
-0.6082665584398863
-1.586187508343483
0.07016578022411624
-0.9100219942740477
1.6395240428274143
1.9859577823787866
1.7986247259769579
-0.6300608360704242
-0.7918204585244155
-1.5015863620337702
1.1967143075563396
-1.0065599173244495
2.6551852094450217
-0.4413698797417984
1.4144817175937057
3.722576996002572
-0.49842948402454956
-0.9749898101361469
0.021591605359859933
0.03752123398952256
1.0147850829637077
-2.1627292385474823
0.48868879253057895
-2.9713541315298237
0.9276076325925877
1.1344005673903688
-3.067080873257558
-1.8456225395163532
1.2493425023529032
-4.683534357697691
-2.7161387400783097
0.521018730150512
0.32554951089580575
2.7065131666322233
0.026118711101825176
-0.6592048777780599
-1.6974401873134473
-3.5311777533936364
-0.3251782030368746
0.2243725036020744
0.1530269521638452
-1.5602477058327935
1.1402896093736459
-3.0359005868741686
-3.5812375973853454
-2.4725598080142515
-1.8618975572712633
2.464220280328512
-3.1728929643571577
1.3365934053467075
0.8008346268512399
-4.525687488051269
1.9370876574298808
3.674632312177156
-2.3523033218667244
0.782195054993962
-2.0283921775082154
0.5954292855420851
-2.9316618597078983
0.5225613351102059
-0.008074884131367366
-2.363104733319965
3.4770609214906036
-0.7424172365252368
-1.4293373756653505
0.9086653117099859
-1.706307810485058
0.4857364560116795
0.11960566997814226
-0.31387009872505933
0.907367376817954
2.235105369805604
-3.9714656420401075
-1.8329343430782252
-0.22052607825722603
-0.6025998953289173
0.7713406276134993
-0.9528875975056289
3.842004882124952
0.4589545980665468
-0.8643194177862883
1.570348798729336
-0.6524277719763356
1.2849437692171128
-2.2675879468250884
-3.2887853930816267
-2.672668442516481
-1.3869256279400073
-4.058932720063847
2.144032629390486
1.8130650618452828
0.9129973363940403
1.4476109593181192
-0.34362482107155135
-1.0203231313071401
-0.7323055040250369
-4.469266603403201
-2.3374687458834655
2.3643460988387095
0.933086418315804
3.252928118009561
1.4733196452629964
-0.6814071169778866
-1.767886137594814
-1.2873941623931726
3.97850005007495
-1.1504982938529786
0.43954136724227477
0.5134924990372669
-0.6019680314166846
1.0063570267106572
1.3137334112383852
-2.3924366403144814
2.7584311468154894
-2.0310620020587993
-0.06834544888939142
-4.3322388642263885
-2.2495259162285333
1.9937237365228557
-2.51666026651354
4.146751069914733
0.6244995516372045
0.3742579770833845
2.682089764123601
-0.8220411464320256
-2.220442058185821
2.571925750415306
3.446637755434612
2.4751453834697634
-0.29734112318494565
-0.3266120566264046
-2.488460846964924
1.3867667431822417
-1.0856346325930004
-3.669072578497617
-0.3779658577628231
0.26136780089882405
-0.4230133313138862
0.3419548820134677
-2.0303676470019156
-1.719737118957986
1.4216186360051406
0.023925286948495716
2.5246708249136782
-1.0862500363572343
0.6502807542056926
-0.45908658332331553
2.9220941821914126
1.157110974966777
0.4694019193326251
2.3381010326876566
3.556707682169658
-2.297352694413976
3.9109039227643603
2.8404226252093245
-1.455846944107213
0.2039999901170868
1.5971313641755513
1.571622830656866
-0.7961436858067743
1.7890047279058425
-2.894119331443843
-1.1500271330282557
1.7201992259290901
-3.022666511439939
2.5917758161162454
-2.7831024182593063
2.638162598747332
-0.840830322140163
2.320242342713514
-2.2452369311431664
-0.1503071544964013
0.7911695020170462
1.7703281137024875
0.4500731703573866
1.727040413743576
1.465957846918287
-0.03737704961694188
-1.2416725730966567
-2.940677917082349
-0.9885903288052489
2.668524941395053
3.5267890915587907
-1.5514454108534235
3.7759664963521793
-0.8428950778099538
1.4314124175739842
1.8214118057273951
1.2562384712637278
0.1358182960316201
-1.9158195574669352
-0.28704571969818726
-1.7768599703630472
-0.45868528892019267
0.9671036716634323
0.97858119620789
-2.49718688046937
-2.163404413425212
-2.6508718740471804
-0.4095442058885497
-3.4314165841705906
-0.5292314129347552
2.3422034558943237
0.17465230978129265
0.10020289870556365
2.157650751330017
2.252761821679618
2.945276507185883
1.6666271892080822
0.629468406362958
3.384856527027048
0.6918082353046671
-0.3114218062122629
-2.4780950974826323
1.4512112564764665
0.4759171192561782
-2.1628579119739
4.046746907883164
1.7484283072910531
-2.305999217288424
0.024651030708769728
3.1083767962202358
0.2526086774547315
0.1616957436202977
0.14410281083592036
2.520364101695334
0.7916309107893171
-0.1233898433009406
1.7133629444085174
-4.021596276242425
3.4503407411161433
0.11553055636763121
-2.4195966509224855
-0.5541476347162404
-0.6350991793279195
0.5223508050071493
-0.1541742357211433
-4.391887771566877
-2.937449734975277
2.842973165050226
0.15892061767454668
-0.9478875172327788
-4.496974912164008
-0.03656769251819236
0.5435106231096681
-0.1728614268441515
-1.0221119343739615
0.9074920262484448
-0.09017048711759124
3.043259211472458
4.024019105886704
-0.5500349013741115
1.4086870521821448
-2.836399923481313
3.507515403754452
-0.9979949075328008
0.7841670877080977
-1.353283028092126
3.03425268410948
-3.575379365112912
-4.118886943420876
-4.4046851413560075
-0.1566446012993956
-2.5733364489921065
2.4636468134774514
3.0675655866316753
-0.6601721542851436
-3.796461667415141
1.500974084549852
-2.2927267994546554
4.422595347990115
-3.0271150588174383
-1.9232764018980424
4.349136217026066
-2.23579485239028
0.0634844173769249
2.078072753574347
2.2553582818315343
-2.8015616117484488
0.21363617141081637
0.8209076984000219
-1.3601434705979991
-0.6279187960971822
4.735259630527314
-1.2327316354481288
-2.8636834052240423
-3.1828939382043973
4.199966734222851
-0.5086704618705734
-1.1336531959319491
3.5995147309356783
-1.6966418983440636
0.050165980596099224
-1.236021369202132
-0.2989105952803235
-0.4362080298431237
-2.084446207396728
-0.18723435374112762
-0.7096953098823708
2.511874929278077
0.6230560390124666
2.8517298393554675
-1.9613489102647041
1.026926455056796
-1.705355919006113
-0.39359440305350946
-0.3613836437602196
1.476664778813805
-0.8088959505771458
1.6012311886986164
1.679578474706712
-0.6836331597821252
-1.5495222552159094
2.609538569028607
1.0378585150176327
1.8037497099279554
0.16878985649695943
2.297389775515959
-1.0628162428953885
-0.5141746625267203
-2.02069055423292
-1.282487848024798
-4.1641895512422025
-0.8860222766832049
-0.7134029366631722
2.3095799305113336
1.2965574928626262
0.6435128061402335
-1.6884134361728034
-0.9369051522175105
3.995999157183668
0.9739309838600962
-1.8960473844854846
0.49911310627591066
-2.97093040632203
2.086172186883817
1.6780128927286895
-1.8729283461554718
3.665325695832948
1.2330837946444224
-2.571584124789352
0.03295952768830657
-1.2868783229418819
-4.160638909594463
-1.018136534866902
-2.744909709234289
0.6479427926954169
-4.232789454624959
-0.35888124992420156
-2.3962815244011892
-0.3388507210025997
0.603985776130843
-3.4224509832708576
-0.41924326599036377
1.785381060881917
-0.37195494921322125
-0.07154558187693016
4.055838544902258
-0.747127262809367
2.109083615169146
-3.0445693889842573
1.3549804219133854
2.2429269365684035
0.5991870322228836
1.4200174798725422
1.4180892926098245
-2.8251996044317513
-0.12914283320980324
-1.667116692848884
-0.3184293698166867
1.7022484679131533
-0.8417380736362201
-0.7672073679788816
1.3422812211817352
1.565980032333633
0.3579565156555703
-1.8483885959346904
1.6590817776982014
-0.5397266492103028
-0.15467201386456253
-1.5784050081183585
-0.051763593199148694
1.0700008956884284
1.5630127010258503
-4.5187869743379725
-0.07109069725252315
-1.5656846629664658
-0.9624644833252556
0.8357587198299998
-0.9249900784012501
0.7932452296587353
-1.0195782090912924
2.328993525569083
-0.3703647843651652
3.073450952353619
4.130033552486115
0.8820769199924734
-1.0616400363282712
-2.8306092943674837
2.990376397398201
-1.1439687867896238
-3.2423760018004693
1.1761470454492358
4.123129712736361
0.19399132905718997
2.194468557531897
-3.2698374324846946
2.6491504446581753
-2.5005091436547797
2.9338681797030683
-0.38586269431287334
1.6156976467524276
-3.792968728330947
-0.5900874730298862
-1.2176651800480265
0.8856316761201004
1.0011884618479039
1.5770840361161331
-1.037450537027594
1.204834826436771
-0.3594970000047648
0.937884069778522
-3.009016932682238
1.104104955633415
-0.657594006377024
0.4830571147825391
-2.9637179477738353
-0.708228569341544
0.8854300135076771
0.2006614558733304
-0.13101457280011708
0.19328509596965393
0.584955431609816
0.8102385530356768
1.3326316365394504
0.2940283844690277
0.29874160226778224
3.37832955079461
0.17277591421226113
2.941600928313914
0.6184932894635646
2.4715900300990787
0.3801691478991067
-0.7361747017988023
2.403712668451336
-4.496248866841414
-1.7956552192862496
2.8587276325114104
1.814085441900814
-4.067320040025685
-1.006132270328745
-4.087260873985782
-1.0033465149908434
2.963786547370822
-0.9805082251056705
-0.5966292446638048
-4.415978930382843
0.4160289136594615
-2.5635211229072095
0.04261160673499065
1.1598481993705803
-2.5932342850861634
-1.4576726756597536
-3.382701510485028
-1.1521227881072742
-1.4882942391857474
-0.5138399204794952
-1.617291458267033
0.18074565846845192
1.0562073633085172
3.586024699816188
-1.8343744337327315
4.404833703368271
-2.805827257267416
-0.5896487922769391
2.833127110032698
-2.6226025858149633
3.430791433213824
0.7798222651947793
-1.2166537718354284
0.21223678135829172
0.24538148827912165
2.84590180688416
0.11445427540212227
2.8301485716600756
-0.5294219673519551
-0.5977250805362524
2.128117474401306
-2.4295853580433717
-2.915880995785465
1.5854475071775713
-2.176324683158909
-1.9804241074744366
-0.930520579663265
3.1207562954326864
0.03929213144284183
-1.786259376402179
-1.9983972541603041
2.2700382341230396
1.8963315138946468
-2.6293217060321568
-1.986019824690071
0.6372111190929566
-1.7967975058914298
0.3079488609515746
0.8033270776388113
-1.0119864006369013
0.4749289984478464
3.70331601832673
0.3281078624286309
0.2401560159971956
-1.7753072510492864
3.353697640778784
-1.1428417818049272
-0.21986908921538206
4.1835965378279045
-2.4111004836870613
-2.97534588066523
-1.737066914004815
1.104902936643699
1.9963850046032694
0.5476802770820233
2.0509417041657736
-2.1910065586933953
0.6133299064889729
-3.737355176279889
1.4482104348731966
-2.8746982288249403
3.742212202356666
0.13679148966096655
1.8864190315226028
3.3874684840725973
2.546187360228978
-0.08893887094653441
3.218734729291641
-2.862030194046001
0.5804986477809697
0.0305488616450873
-2.7221662074783852
-0.30153238650054526
-2.583828415517309
1.5188101766733135
-1.1456669071880166
0.26213302134342786
-0.48775385958544737
-0.5477354238084651
0.25188226962683524
-1.8358076996454078
-1.5072095464642215
0.6909458567748528
-0.4248346884115679
-2.0130545074890516
-3.015046453745452
-0.47814836967590946
2.9070630043361168
0.15550771538521557
2.174299919010401
-1.1288609032491546
0.5312252321372746
-0.31947692525024607
2.2336812665433485
-0.25858077777297117
-2.643696687470036
0.7041010293045047
0.781893037437646
-3.469601131020846
-2.3019068606767625
-0.4947739053873166
-0.4716345798265851
-4.112880843991096
4.575837078060587
-1.3791106853625994
4.260140276070187
-3.237956752495286
-1.3210623755532693
-0.2608068669780045
-0.67261736621994
-0.6927594927785758
-2.839669453674272
-1.9793218329869215
0.7836778186797215
0.282919321523039
2.4127674649726254
0.504123739686479
-1.6626361250997048
-2.3734438000820886
-4.015739709847615
1.2530696302937967
1.2701479691584994
1.8408744243568727
-2.2110662605820197
0.899312090482681
3.479259786889317
-3.143081633992507
0.7695397717117656
-1.7603793823669802
-2.2006118488479207
-1.9715231102133772
1.1678814323406614
1.541929576143477
4.760654619868226
-0.08589594847304882
-0.44060363688939486
2.2172507108757156
0.9388704408742501
1.5029866337578253
-2.191848278478254
3.513558780945581
2.0543304713364874
1.5409108973012082
2.0984980060949865
1.8879008284169627
0.9753908135402677
-3.3874245130401928
2.19963382975462
-1.2870239053188213
-4.216917567504391
-0.3634969824901473
2.119330553947938
4.974440973379508
3.053009295511293
1.4287985448742728
2.303066888275615
1.6151848950646381
1.5107822560982247
-2.007993594392542
3.534824528982131
-1.8171708517271479
1.2172383399410167
1.185314374625419
2.6957924078826174
2.4366991515626895
-1.5603063994393658
0.43235498518479254
0.5372323387089344
-1.42948132058096
-3.634516699773612
-1.8771441332290553
1.6237548990500652
-3.29292344342161
1.8140357210949527
-3.6356140353336084
1.6032546840851394
-3.6788830686226097
3.1037314249837507
2.7404510614816835
1.9597558564467432
-3.7532987415053105
-0.7702016354243095
-2.2688140885451644
2.4054179479766913
-1.074706451276981
0.5094910881839336
-3.5471060508901413
-3.9320467152532457
1.5508177611995337
0.8508061545072123
2.3726860554055786
2.6297013717465427
-3.2320615513034197
-3.1990182985188724
0.6544648726169555
-0.42538369752317273
0.5798135314008754
-1.468966937861445
-1.2074916137457135
1.699413200402744
0.12157008626585086
-2.0874270323689648
-2.8110990956097943
-0.9548752343838416
-1.0442475256000017
-1.156833110780247
2.3310609058689358
3.405318254998392
-2.4540063809298562
-0.023525928955248077
0.22561753855221545
3.567222553622274
-3.4348417647581395
0.013423464376489669
-2.2551161020281825
-0.5579850793733501
0.6942094192823847
0.7106738485596567
-0.4578212814685072
0.24051900445328012
0.5680471762308342
-2.2373887018388894
-1.807754870831106
-3.1494382264717142
0.5245705912843246
-0.28687074178170513
0.21301750957385457
-1.4277586701928762
-0.18678837314169527
0.053446100733555824
-4.375014230574155
-0.6326451841128284
-0.08080789714186665
2.662205796839749
-1.295592807322699
-1.2207639265731007
0.6597532571305083
0.7441151621722186
2.5866162124269327
-2.3207459482849226
2.7086080281214584
-0.5766338589067987
0.37568143884584426
-1.003778971917467
4.20486605275597
-2.851908032056258
-4.58333872572395
-1.4150390315523378
-0.8973193725037321
-3.9378897096708547
-1.6132944246809404
1.390287909252057
4.917869711756407
1.500200080956302
-1.1387433668149014
3.0626450616065157
2.527757911950201
0.7631644544534275
-0.9884031423852097
2.181653326810871
0.6804925684314268
1.3289282273473106
2.0899941259639134
-1.7561792563682284
-2.1299180733153866
-1.3440790779816973
-1.6413045389814722
0.5706614819960818
-0.7665945397126754
-1.2650053511454091
1.1190173169220277
-1.7065249160798879
1.1254476052576874
0.5461272694027608
0.49678470140338327
1.5710359074368978
1.02900378121518
-1.4238388311941361
-2.3596326608176974
4.196443474341734
0.45510980995684136
0.553825879657619
1.9875628695663987
-2.2506187066676433
-1.5095579577450309
0.5582979403020182
-0.7424211406052112
2.45003769058465
-1.3520574182660612
2.65754339848633
-2.1756377912671243
-0.12906460022361266
-3.3230842009548835
0.23269805703030455
1.127525346286974
2.662922251506973
1.9888472469420424
-3.855269649121056
-1.2228788552952157
1.451571427759255
-4.644803987647749
3.8996416541784136
-0.9914849413392908
-0.9397581667879775
0.533409604391121
-0.03154990116465628
0.1436045532468575
-2.78395064127076
2.477411073309629
-2.5817893829634593
-1.2853632902454566
0.8949975026720673
-0.21119067803343494
-3.989681071682903
1.9068737038380785
0.4625183488771376
-0.9349188127700416
-1.077647369311276
-3.023645043016916
1.7656743786039066
-1.199022405997198
-3.7503048207346237
0.2990080404569575
-0.6667311629609306
0.49940072015010095
0.4431965079444202
3.7073565366172225
2.8401182609047155
4.648005369091977
3.8391184617662066
0.7710755211451161
1.9917336956653418
-0.7822282881427034
-1.5623844827451514
0.6776453297717246
-0.014337430247371774
-1.6601983732129257
-1.9140002220730836
2.369352782947899
0.7057411070643842
-1.1834128602133966
-1.7769572660723743
1.5928889674033608
-0.1944942566162995
2.1240017031994776
-1.659439685710379
3.517796622348106
-0.1629838898162994
-0.43973591719885186
2.3185348383610207
-1.4199865274532804
-0.41866291711152304
-1.8018748560496807
1.7900210654500968
-0.7932357420045237
2.736932159032363
0.29652671034941236
2.6920872670242257
0.07904981408960277
1.122215216353299
-1.1720158724430987
-4.840957456176003
4.587984238377042
2.5485139593437305
1.7779399165633856
1.9141980339746776
0.14122924284415017
-1.480306480094901
-2.127658285803851
0.31641420303137524
-0.024223123158717996
1.91468882676359
1.389691885664071
3.217682532592369
-0.8666710254643695
-0.19080139486423064
-1.2861799311433262
-1.2120067231237075
2.254525257057349
-3.4072114217795395
-0.716371878128258
-0.5362623215965483
0.8482680706972725
2.5376558379358363
-1.403941713649541
0.17589519458988234
2.692395765828093
2.975301807466471
-4.08146618542291
1.014256808603423
1.0219528469188965
-1.7626327468445613
-0.6328786171939589
-0.5160676314127812
-3.8386913252024817
-0.48312434928088455
-3.993332257477063
-2.489606151836213
-2.743626999457772
0.8061380652965418
-0.3708423775773799
-1.6506963355820363
1.763159441604932
2.0675677129561656
-1.1334549652125319
3.5573777110976694
0.3489468186751721
-1.206346064095266
-1.705692914788525
0.18053425488758768
-0.13771172820582356
-1.8876517706304774
0.18197050220256994
-1.684423063115622
-2.9718825218181912
1.5941078055677222
-0.4531398653797809
4.201664591750438
0.5242024118263231
-0.08314828308003175
0.1673217941491596
3.9978140405122735
-0.9048020210434933
4.5450762160147224
4.211665338005034
-1.5973097168859778
3.360545212731329
-3.4206206919143063
-1.860917172235618
3.2729299486689785
3.972467765220202
2.932647506502516
-2.4712125640026605
1.396251460944172
-1.2196820751368493
-0.01084964880569439
-1.506373404509016
0.5755986710905336
1.657517607571775
-0.09720228783691942
-1.665583819671228
3.1805717876827186
0.647349902421559
-0.3091954560629917
-1.9087513079266238
-2.6776086870001574
3.0838455770151403
-1.7209818868795472
-0.35197612055392113
-0.19135148241202105
0.34401960192644343
-3.344846294004719
0.0464506669307152
1.0340907697388828
-0.11229678310761582
1.2861917521678632
0.66577403610174
1.9636916011412926
-2.7587748919540775
0.9561839358381232
-1.075527543151059
-1.6357436414633324
-4.418809577393163
2.1807206346386465
0.16017951229838012
2.440813248129937
-4.4253949191520965
-1.6456923698507802
2.3440765812007864
2.0340383874129118
-1.86839843766654
-2.2130969855755045
1.286010370598587
2.5349674278657615
2.727008783370618
0.7858651423666041
-1.013419327573311
1.6732416181361565
-1.0529783533763073
0.9395594995423413
-2.207547416106971
2.335139157527935
-1.0827822772905042
0.7588768998986941
-1.9888591995318103
3.567641199515012
3.268171205800197
-3.167089191529486
1.6415158999933381
-0.07521597433535199
-1.7050845226466544
-0.3449545415239458
-0.12371515390422527
-0.6874543679012977
1.9665021848215458
-1.7242958029780917
2.032692127648456
4.488517652830539
1.4419091380368863
-0.06199272987854054
-1.432304449397881
3.372612501233953
-0.2514557404296536
-0.1474091345658235
0.8338633224438055
-1.6749446126169305
4.279599530889008
1.2678348352905293
0.23224398691879355
-0.4520878643991383
-0.23350006456287709
0.991752408525965
4.418460021594894
-2.2335986576318203
-1.617297839972267
0.5217883451132488
-1.7817275909248438
-3.653757679528443
-0.3649099326723513
-2.0612216794240292
-3.0911305468704477
3.003287965588118
2.6992176775089614
-4.278681994170725
-0.4778726259309032
-3.738307424424418
-1.1453496773656093
-0.3632076802493662
-0.17390613152959378
1.8168656213108
1.6766529237102952
-1.134684519204897
2.6409438067018844
3.959459264170657
2.6404763519978793
-2.4871701237337405
3.145658476876954
2.216642332632314
-0.20550872844875667
-2.3303833892685315
1.8316768781332755
3.366908925615641
2.1584196050089655
-0.8295350673712016
2.759769652299494
-1.0153276566119338
-2.4970863843457005
-3.7872472699980317
-2.223613906000573
3.670893705747583
1.1667329712880887
0.988686784526787
-0.6542765128492878
-0.8740035201552099
-1.432231111140176
-0.5120471859029219
-0.34623131363281123
-0.7786846167099939
-0.9358333805294001
-0.37297317564581034
-1.3594364245921629
-3.774668891576208
-1.1782051488472283
1.8613954897480873
3.616941936995737
-1.6590602195682642
0.3443135125574788
2.436936488467683
-1.8780104103327022
3.710007701112159
1.3220886294606338
-0.5632893158464576
-2.322522736873816
1.0414614830705027
0.45620534468953
1.7794126828880623
0.09551531104735433
-2.9808375129786815
-2.0861719485961245
1.3257322544227002
-2.00431736146792
0.6458178276400028
-1.928841696701416
3.248876051863807
1.1878765589735645
-0.3208245549651323
2.200241239801462
-0.1745006379381997
-3.4228634464195205
-0.6832456103053813
-1.2441318649049182
-2.1967025300631606
-1.7533099360716453
-1.7146396488207776
-1.0811716577666095
-0.49849161935747455
0.375470832094539
-2.5083623470849585
0.05175675106621025
-2.199425603361803
0.6463608244730961
1.3899036455429008
-0.276168553147494
0.17721511313521343
1.8014034971105493
-2.7764787339658867
-2.0394329077708733
-3.058840894529607
4.000240928774932
-2.7039456460813724
0.3749563352300971
3.829787020883597
0.6380228031164998
-0.5715402962990077
-0.16379039109944316
-0.8830656831719014
0.27903797799320673
-4.241436723971095
-0.6676581000898656
0.39210434663399085
2.362319678057341
0.039072386021687056
-1.3171426267495088
-3.833658847759664
-0.664527782544182
-1.4096275165836603
2.75778169702051
2.461012888333741
-2.127028668178226
0.06435892732820925
3.8592920603142105
-0.46424453887351946
-3.1648141226016184
4.175554828975509
0.922194504697436
-1.088174482027497
-0.3756259059403959
-0.4442370190210507
-1.8105005436419215
0.8471151277692694
3.5939007744584868
0.8885034681263506
1.0193447068868462
2.419074457123118
-0.8330724325077585
0.47948669184702997
-3.52048438781376
1.3717967193770875
1.3208267071224418
-0.5806290554057467
1.3858134710983103
0.8835124465369221
1.0935662969202258
-1.5049443180091662
0.4405216297314213
0.41074289084584903
-0.2316805469683736
-0.9942407435928402
-2.8727809190163036
-2.2346342844800615
-1.6074556816541876
-1.3598670696210258
0.018190807220164196
-2.419161167413074
0.28778926221811396
-2.429341333064508
-2.849312309660694
-3.6761645271655174
-0.7935321801609531
-0.07841644167353445
1.1282826294828319
-0.9924605994511253
0.7918589521998853
0.7666377196665133
-2.3964255759743316
-2.2371501437228742
-0.00242185067851286
3.8127891050317935
-0.20151006359809376
-2.5762534440960954
2.122772051970485
-0.0737178529668725
-3.281566589805324
-1.7169344041250176
-4.880714532709181
1.657212261790344
-2.2834663184368855
1.1749351772481598
-4.172949005116885
3.918884982977107
1.064238978998251
0.04012073180479936
2.7939515543702256
0.9782109472971166
-0.8154907700828797
2.13053134313512
3.3364052859233473
-0.08661465395065115
3.203856388650797
1.0091357793316602
-2.5030766616955415
0.6951027671199932
-0.5205182642398347
2.5015383910763624
-3.445109984100494
-1.952442020790286
0.7577620043396474
-1.2445338280120821
3.7468159483096852
0.24548000635519163
-0.37966828137923725
0.5644142547825577
-0.14768646954219022
0.003453471820665799
1.8740146436170315
3.1117038223239923
-3.6979542561880185
2.6137735908429534
2.540851135075656
0.29119806798792247
-1.5361038089267738
1.489086779648889
2.104475704087779
2.7609297373819826
1.7636139881266977
1.2660673580480029
0.6690890524253845
-0.11411232601409704
3.2961784398767127
3.6263772466245716
-2.312719244398233
-4.273784918811117
1.5841394534451734
0.99116315914539
-0.08705285225314163
-0.7729339707807246
2.1391783918362446
-1.7546624048390704
0.23555894616662743
-1.2336260374751284
1.483142117797172
-2.352105070333404
0.052025106828764045
-3.78322156192434
-2.7151991830632145
-2.9154861778150627
-2.167595233565121
0.6779645952054016
2.2685762403554914
-3.181306855683815
-3.464282884917318
2.0356595758071445
-0.4485048718265885
-0.10232556374266732
-2.4679016270306358
4.5035420346267445
-2.9353868868940123
-3.6306010145932195
-1.312442943755861
0.3043101505624075
-1.284836581561132
-3.5332499956426138
-0.7324236670678395
-1.3538401916340228
-0.05432464847184848
2.9153297895342614
-0.6841857184912721
0.15092402409521366
-4.653681230177015
2.521022486791776
1.1641521196446987
1.8901213349050914
-4.023281373533099
2.193592047202901
-4.269660721448937
-1.8148347303913648
-0.9465064626992863
-0.43743526724338455
1.2594871040771518
-2.6720170068756453
2.6597661271078428
-1.6583526801815274
2.165659538449771
-0.6217049822766181
3.132897234279767
-1.4020698634473865
0.6298113717148457
0.19380481925142012
-2.213308938809813
-2.917874439380329
-1.3896750500337185
1.8495483140876718
0.6243250630891453
2.7760915603837173
-2.0776063057505736
-0.3973463258564349
-1.301749603792993
2.8138901608846085
1.0425039132703056
0.5587614356634636
1.773316270844675
-1.0673686136156255
0.29426348731542173
-0.8036456639511118
-2.050632915121991
-0.39064773727921587
3.0718287575016885
-0.0947518989328664
-2.1004383398606903
-1.959819164769733
0.7571798368890033
1.695491648090334
0.380664798208322
1.1180353070139977
-1.0125084202442702
0.23292755519683572
1.6715625642381902
-0.43489107613845746
1.9288540763540551
2.3576627518970428
1.5962494291862717
-0.6236108540160314
3.2125897604339047
3.2417001323039862
-1.2124614699363874
-0.2695373730595154
-3.809581163816002
1.3419786623249887
2.847743774619436
-2.4761450875604623
-3.8352781744877484
1.3050754384094971
1.0625857951325148
-1.3148442166480008
-2.7498500262613286
-0.020183475628601677
2.3245695836561193
-3.5748208443826526
1.5228332831983766
0.6940487572221885
0.9220853663535453
1.5794089084153233
-1.8865636087127182
0.951821360190062
-2.1495184076477765
0.19897880822591762
-0.09968808656353856
-1.2927720852664222
2.3013612222243784
3.5464384961966013
0.45900116952448844
2.3711581257714007
-4.013649659466158
0.6525546750151348
-1.0756662231410554
-0.2927894720167732
-2.048411212559116
-1.4096035920311767
0.4213726009692995
0.7730137792640628
-2.4608048879398927
0.6229569446440322
-0.27854095088476627
0.06321059491336933
-1.848047437668942
2.380559495830693
0.7796040056597237
3.0103489884090306
-0.5225319584324501
1.2242989995565732
-0.1905226919516081
1.9999359899347373
0.8280548442646767
-1.0482312090677952
-0.4477549141420456
2.055900073132666
-1.747413667042049
3.001322131568625
2.3955036893301376
1.3527145555236135
3.076573678393511
1.311119224882391
-0.0014372663964405952
1.7104311832987138
-0.4732842811264859
-4.010790252444167
2.080324345932211
4.228872440634589
-0.9038287701849805
0.9508991392811836
-2.973988932402773
0.21723619007861394
-0.6931956584044885
-1.32034796618214
1.9689915839631484
-2.424640902006411
-0.47534809339276185
1.2677792108463573
0.003952860083458631
-2.2171094110366596
1.4848648201922083
-4.106839442421643
2.187671059056254
-1.3473736836540515
-2.8176295427476914
-0.11174734521928809
-3.016370179465189
-1.9957465855832264
1.784508601735404
0.5576322095741965
-0.19326395858023204
3.4147537625731434
-0.7781098830455595
-0.09967590132372317
0.32438344977119415
-1.7982806848177737
3.113728126237231
-0.606835649620846
0.17011374143822977
-1.2041736764096012
0.6838913988987532
-0.008550786881896255
-1.2738745040612098
-1.341279731298544
2.3239309776323473
2.503118478252988
-0.3691191353955894
-1.0974389126432111
-0.540670555711563
-1.5072757205762084
0.6680592044414552
0.7674779032216685
-1.6247777789905973
-3.128564750263434
-0.30689048663109175
0.11318448453849683
-2.3421573121249533
1.329325545507123
-0.7463506498321426
-0.9189949880198134
-3.0920614976295067
-1.2338010841579297
2.5599626908493343
0.08255914379036833
-0.6175886511341808
3.877198667889039
3.4618435852117506
2.271357973100319
1.220430036616663
0.04945154636732618
3.088039853433946
0.6535603861499801
-0.08973507235586275
-3.2740019091556603
0.8045423453705696
2.9941382870590916
-0.34690467336313224
3.3932572658516507
2.1479731828319584
-0.3252960768338782
1.2800407199599029
0.34827673521313995
-3.6096793318164018
1.6592450198661841
-0.6213369744350633
-3.5979825302512776
1.3912727894312082
1.7240223000701276
-0.7148075454798364
-1.3250748971925863
-1.6056022498153983
4.107875842274081
1.598726008599337
-0.3589654378751437
-0.5765775884149166
-2.2608080533648343
-3.126352063607121
1.5768612120229315
-0.06514165881177425
-1.8042198332076702
-1.8534758473871245
-1.428673326425705
-0.6167745381828821
-1.4460896113113106
-1.0462825901426198
1.2529696510230584
-2.644876706598836
-0.7172395663018278
-0.5040226118257535
-0.6093077582355897
-2.071599697643851
-2.6594771247800346
3.606251746631847
-2.4757090594126847
-0.0873298405722358
-0.3715763677938657
-0.8230302309605029
-1.2189761414356113
0.6274263146239771
-4.041100759353446
4.703050608489416
2.0344615046479095
0.8740040626874781
1.6941846959242914
-0.4031184956246463
2.561874065966397
-1.2423603549115771
0.21156152378037696
0.9315208822861356
1.3564028329039388
0.01587831870353318
0.3515165571908012
-0.7316269484662437
-1.7497320401013743
2.509578403964378
-0.9949398916807954
1.2255849403659458
-0.9947394194286779
-2.4672350437255797
-1.003546136163539
1.44341769309889
1.5267693819585513
-4.40242119312104
2.417600918060953
1.6028382048020287
1.3575944993381204
4.350575660068846
-0.42965634714925416
-0.8464146450784453
-3.3922058574445115
1.2766207693846554
-1.3270770782172565
3.4079579526254906
2.476817932926569
-1.1533673123906762
1.4868478238287341
1.656575355460878
0.5241750438340254
-0.2345762261156863
0.020424383162784276
2.962361350384615
2.844886951767591
-0.02411105891948484
-0.5348045249520585
-2.7110001999330873
1.305976243686731
2.075791965886715
2.5215402399308844
2.620113686610161
2.0002399463517
1.8033992056191046
0.2696839845879939
2.7254165026170276
0.07355792943161843
0.24821086377849788
4.742368526085009
-1.7699135703423194
0.08198708320980774
-0.5569595320773701
-1.644568332286246
-1.3563870753777931
-2.9651098909385283
-1.0063081921894752
0.35254814685389113
-1.9956342185208977
-1.7196502274644274
1.4024831033166119
0.42037947732450054
1.796138151571029
1.3891178297450195
3.741869065681917
-0.3696148993207693
2.79291031171328
-1.8066500015623355
3.334411068634838
-1.1364572839553513
-1.5119123996229087
0.13637506686512735
0.09534437931528839
-0.12577016957346476
-2.2355402417419357
0.08974988435097986
-1.8060069619362498
-0.8504861969627262
-0.5388652790171683
0.7938494442623945
-0.30971694935744454
-0.2798960843147791
0.4936928336555173
0.07824141910100346
-2.197397231682595
1.079212817284997
1.1838154290667897
3.0180968171086664
-2.5367398492090296
2.3655775217683215
0.45463552740641
1.1828853750458324
0.8177898852358978
3.966891256262056
3.548060650494357
-0.8663945806127549
0.3243552880474905
2.6998954447434
-0.07968061732665843
3.3248007594003797
-2.890499355227588
0.7233821554634197
-1.0280204147847856
-1.4323896044563367
2.2364989893394815
-1.6596446712266166
1.2686897473724903
-2.789894903234029
-1.4574511081136765
0.8456035723366941
-2.0911070544506063
1.1911582692721838
0.7010681620344061
-0.425066936121715
0.6947637016307677
2.1241027861505195
1.16533602524945
2.3123095486581744
0.7626165413910027
-0.43357827803295024
-0.35026794833123365
-1.7888386754176762
-1.6709614443219416
2.6317255557928
-1.1951772755197243
-2.613907499839281
1.208993647707687
0.10026341423980023
-1.2574527200039929
0.33125543799355284
-0.23785005040095908
-0.8157790820285032
-1.9322512853841518
-2.6783652017606863
0.9236792835796663
3.1040510111710007
-0.9276955779550264
2.953490679135334
-1.0242199980205342
-2.367907576404876
-0.251896153923183
0.9802117044026613
0.7161722304532326
1.7597213251338468
0.2751233654741081
-0.40017064559806625
2.6798156564584614
2.6442889598580006
-3.359150776473103
2.350441708663096
-1.929900591031343
-0.007905157211677283
-0.952701653708953
-0.23020247587338893
1.0557565556346504
0.033643836020338824
2.761886819004855
1.9752902323293067
1.0897482930257842
-0.7525598852947235
-0.9316051038882005
-2.6793878906797235
-0.09362629107525544
-2.011435448617876
-1.0257185563690938
-2.714680159332303
3.852850192307908
4.178288454655259
2.330594528634383
-2.246442138959936
-0.7883826102472784
2.210972127863684
0.020730682044979964
1.8381938944723715
-1.8303861927824736
2.234498128998255
1.8742910396288184
-0.593386031129588
-1.9092246203433447
-0.03950939676059528
-2.037714379202513
-1.5355726179439917
-3.2519919868573606
2.160568855738158
0.9299356637286564
-1.4466682758730443
1.1708813357957872
-1.9951133894812123
2.0233219981635457
1.31938895497517
-2.234704263301216
-3.6007936102754057
-1.5338666022959595
3.407960630080025
-3.6386274632002187
-0.5232413290541893
-0.15723964022963877
-3.158446279544789
0.8458161672319608
-2.598863178526947
-3.856011893969505
2.036826088441606
-0.9650012794063034
-0.3635234268543708
0.1315369336712935
3.617003735776714
-0.5549813436562765
-2.158828963361846
-3.3223010580491437
-0.8240440945990661
2.614980077047722
0.541370912924422
-3.263675222168223
1.1501816435473313
-0.3602539297357348
-0.2594805148483126
3.6014053273155104
-3.0450429671809642
0.5684147679807108
-0.3788271317718157
-0.8904963645948243
2.5408912638770937
0.32476737155606106
-2.504644006573316
2.442282875386748
-0.47285626332487496
-0.1940615667909107
-2.8402971318440313
-0.8146182984517908
1.067550507875254
-0.184439079735787
4.8116327802959376
-1.700110711968258
-3.394087352089331
-4.512368787707178
-2.3171889382460034
-0.3373345725259349
0.676692365637694
-1.1426514309807163
0.5461449630513981
-0.1682398472016473
0.9073714011936809
-2.764823396684865
0.25256578679454245
-1.3068197325303874
0.378717768521021
0.040377571860381156
-1.5461554464155283
-0.35474595617269866
-0.500785322378666
1.7502692529695907
-2.332306236170113
0.9768422943709156
-2.450102729034703
-1.3785455208963548
-4.158595086797323
1.0956488637516824
-0.9441485488429977
-3.160726384894528
-0.4297308156992845
0.2628777032648115
0.14062237142927092
-0.2482712914238716
1.127035815134282
1.4904871914096254
0.01978209769722128
-3.1558681613962793
-0.5413466681733139
-1.7427058477757322
-2.210091441399317
2.110724824639613
0.30654740108739365
-3.2998275764905562
-0.3307753037836818
-0.5204779233236462
0.6066836190920877
-0.06339814608505412
-3.15385349339705
-2.053373494763413
2.325664670991209
2.17481354957892
-0.9080071683313093
-0.923733303951304
0.8891137539601108
0.2677831514742819
-0.7058958985927557
-0.47719093228545617
-1.6414079411153863
0.36732198746577316
-0.934378006077698
1.2309903115186338
-3.486697349370039
-2.6654853980234083
0.5881787769093361
-3.029376317327559
-0.007172128565307023
4.562756381570003
-0.15625319210241528
-1.1379719815780867
-0.3428459770122525
-3.1303637224280108
-3.6081011804333154
2.5484293270216143
-3.679771261903217
-0.8860809854074092
4.848727679301414
-0.3284157299616788
0.01330576608149503
3.1938735742113398
-1.77632382520683
-3.6931229043788925
-0.0656764486245911
1.0832008525683245
3.27052804804907
0.0141397177297371
0.23956964726090213
1.5608073556320985
3.008807476856025
3.1604427736681036
1.833879355877703
-1.709322094608244
1.5718410572812873
0.1711109311932435
0.31562063642960947
-3.0919051087033376
1.5377269530594464
1.3652100540292205
0.2327138962471027
-1.2315437793727115
-1.100533020919113
1.031757410893852
0.8059362479389987
-0.9850598273271116
-4.169492746592832
2.402903952477878
3.2757616040056394
1.621268118306582
1.4019396832554696
2.1803403630252056
0.028985968629327896
-0.9341846785096659
0.4076128251039721
-2.7288258771855327
-4.338612788148024
-0.7066819724144264
0.45340386281969947
1.3895309273182614
0.13267099553562312
2.620430482269017
-2.533099756039319
-0.8198724496712897
-0.8300495028119297
1.2413774782262448
-0.21625825042152336
0.5200681557211874
-2.923986610811345
3.9899553283645175
-4.033128387821261
2.6551124862493536
2.0986210372873577
-0.9858686669342638
1.5149501393748694
2.8266674870085335
-0.48290416539610526
2.0194891267914157
-0.383824267397864
-0.9542491335336355
2.602441709505777
2.7377733988276285
1.103768025026021
1.670178227203552
1.607250743359753
-2.723218477506597
3.769360039668925
-1.5587780287595372
0.9416442147910851
-0.9921476161491096
1.1905519312206088
0.6359930160459069
-0.30850026015362797
0.6472036695310623
1.228872989039111
-2.0082042387219454
-4.364787175305642
-4.8126331383680165
4.354404837336519
0.05870488366221949
2.915243755202402
3.334968666106019
-3.046684509711404
-3.363384407851649
-1.479300518872464
0.11111169887170025
-0.22544816635540588
-0.046984079247017085
-2.2627986552460237
3.2706018149621072
1.6719436178433469
1.2377320206762048
3.720287268634767
-3.803726510664832
-1.202032869741589
-0.6491043003493207
-3.651400822236428
2.9246624227970957
-0.5945806781016496
-0.8796146808751302
0.5131059099620437
-2.040723665370495
-0.586748400733752
2.0449889992142776
-1.001389025801512
-1.472286735616944
3.892813907692905
-2.98046062062229
0.11379570864644695
1.9388771523352712
-0.36924056556510054
-1.2617261233586161
0.22604712369312052
0.6965420327321206
-1.0751412302873637
-3.5673357495959723
1.3573217267643396
-1.9744877003689432
-0.23102510293916545
0.5999712037851528
-1.00270613088209
1.466632167604421
-2.416552148833422
-4.621229934276168
0.290039017402381
-2.8031080638674792
-1.3528604049964725
-0.7722991003956488
-2.2494968276579055
2.730882764334986
0.3873896680709432
1.5636893061335078
-1.3329936958518633
0.6598472668464863
-1.3158705246629
-1.9841084357308665
0.34603207009734493
1.084580319694418
2.344409046951215
1.9516111229826811
1.355551162338352
0.3984248537872448
-0.09641869289715199
-0.06956147696647896
3.923131668953905
-0.9233818575417914
3.9093990231973734
-1.2571364503228568
-2.3549167252022034
1.1282332116614566
-2.1547300047328295
1.6896108759210304
-0.3371127304746526
2.8669687931027408
0.8489232726012974
1.7579473266981438
1.4631606049460717
3.657037962331388
0.3827356828036148
-0.6487881999456063
2.457407235716171
1.2904029216112156
-1.988032414039777
2.2278188814464337
0.49780230329049324
-0.348391769734544
3.4471602683700002
0.3059844305313575
-0.5147370068019881
-3.673538642076315
2.00694180235657
2.9904234314865636
-0.7739459902537067
-2.1891885522445
0.6574946806851374
1.6772716644968282
2.693178070951909
-0.0243249838926618
2.7849321266083296
0.09347850921463419
0.84880219902288
1.4449597736503983
1.8568356430064359
0.12692377893526885
0.1839678250043575
2.542036039514113
4.12920256429131
-4.1964934331549815
-1.868161909383212
-2.538594407591357
0.5550528962838841
-1.9325431575844054
1.510728354241034
-2.6782816757195076
-1.9490523649983764
-1.9788808050865712
-1.8468269394377148
1.7563868385279457
0.27766591241491545
1.2804605051782523
1.877276843472357
1.6980482407333501
3.0912936071435735
1.1025491545002564
0.9566020531667514
