-4.0212667901123496
0.5832096921707679
2.648343085938372
2.4214097319938257
-0.2980533826720131
-1.0590222484772198
-3.3526147318979382
0.7218702200286513
2.041009149781659
-0.42768621794174333
-0.0074817170594959626
0.3071031063529933
-2.944109590890258
-1.3110372037364653
-0.4142601281541225
1.5693492693212505
-1.1349841819463622
3.116631323874063
-0.21349006660120673
0.12115354727086558
3.5972091107653905
-0.2817560948628146
1.1910850117841778
-0.5282046946536503
0.6624829937435462
2.612608748648281
1.3088266412989498
0.32725171054098423
0.99792618205029
-1.6552560003614416
-0.20826884421922642
1.6699496311828677
-0.05506036495442013
-0.8358855745349278
0.8734326696065118
-1.2254504398834603
2.4140684828804675
-0.4329723454987331
-4.326070627712932
-1.6839834907686206
2.993684032607241
1.2594411907889378
2.026281043511135
0.7262255959247672
-1.3412386979326951
1.696428819109268
-0.5184694616322494
-0.044647722737815254
1.736005278321548
1.3545579208570515
2.148097149600163
0.7942988267241753
0.781574552533741
-0.1065730885777807
-2.9781072660242174
-1.0855950768602454
2.027652994874341
1.3626118607711741
0.46341119183371937
3.7806937976845907
-0.9458815806215419
3.6102745626700945
0.4780396536972833
-0.4050964778229127
3.3415592003485806
-2.950320077850175
2.4558424845535938
-0.5754457860015821
-1.6381112411887087
-2.06012611642678
1.0270688438734528
2.6742981331664453
-0.13719216246270172
1.3367713335264901
0.6896317827297995
-3.9441919337504463
0.0023633655469224024
-1.1290959911974676
-2.135189638854059
-1.7875517095587035
-2.0101437106980637
1.5080791102964666
-2.9625752958171576
-1.8450179031284195
-0.11065320102309428
2.4491975354942954
-1.3632663082426788
2.6645635937423675
0.24200597424963943
0.3254824303749082
1.314304902677209
2.819265533189431
-1.8364329536245347
2.8453680164876145
1.275107625472422
-0.19960799995476108
-4.426877381224039
1.0492982019325443
1.318077885955732
0.1348255457361236
0.20952059587199034
-0.6713138013952018
-2.757592801838134
-4.4703395632905485
1.0916073230600554
1.3652830153019564
-0.724196979976754
-2.5446292189399315
-0.9214315476123541
2.1472077626893613
-3.8190275285806217
1.6337634891182042
0.18661722891947452
1.2178857025718335
4.696578041016273
2.586966545301651
-0.6817185425916423
-2.6858504893363633
-3.0310833839845266
3.4037028450176274
-2.9394637634405996
-0.4502516557991627
-1.369428991736068
0.8790986583068217
2.208036551721899
0.30051735236726396
0.1822838207281623
1.1842772720382442
2.6676955466988908
-0.052541148105076374
-0.6656956075941416
1.2219883624635197
2.4008620439681363
-1.36601808014858
1.96345814413776
0.824521638282476
2.059344475108979
-4.8064469584144485
4.342188243829073
0.9501564236157489
0.971533449624342
-1.5959934224996295
-0.7041790002941792
3.034396391588522
3.1348713160452135
0.7247660474971775
-1.055697186047159
-0.3477617878053261
-0.12908069562085078
4.673224102690048
-3.315339820135373
1.6477272739531867
1.7992733605049578
1.9965347164317555
1.0704323429950593
1.8870471568635079
2.786576579366092
0.7950633035823511
-0.7556730826556546
0.7913945260555986
3.5268789005300745
0.753749194130898
-2.41965222095402
3.805889848931673
-2.5904034076735707
1.637626319113243
2.1916453795804216
0.9607724014456842
1.3313166001950396
0.20775534284344666
1.9603403656002496
3.6811307113756477
4.107700744148975
0.7138154835875261
1.7455697533238017
-0.9985813821316318
0.14173670362883772
-0.8803936490293003
-1.573995094545662
-3.658994214568314
1.0045863788101785
1.2177102774209758
-2.5669067592092585
-3.002986105264889
-2.4147177080687263
-0.21043527311779164
-2.5687276715596465
1.510687795428759
0.4655216491273517
0.9671942895239893
0.8014058381083555
0.06355142773117617
1.1758086518327828
-0.04714584463851601
-2.416306276335398
-3.9403998923240557
1.9891926665805109
1.2528321168209722
0.5363029077126507
-1.9502239229587968
-3.0911442520132844
-1.4183380382603028
-1.0340270694755382
0.15498152055521563
1.5057974962789966
-0.40700357557713795
-1.0131573179460873
-3.856125836737242
-0.7371327576168241
0.5933903955780049
2.863749998183563
2.3217005447151196
-2.9186063719103945
1.3952447194179662
0.09625508279522821
-0.6135874700966404
-2.3933376061220817
0.4651589690726956
2.899634544929783
-1.5916799325649875
1.0284919203804703
0.5239462853159371
-1.2608999326352026
-3.9104714139054813
-0.9868440795468825
-0.2454436399329647
-2.4265115786303744
-0.5405884184040022
-1.5770961290851653
-1.225840126808654
-3.535324869666987
0.16236901984279317
2.4793294004886945
-1.473357673295367
-0.7910405344016853
-1.5058804246949906
-2.973163671063943
4.251759243800411
-1.3533261032347421
-2.657220210478916
-0.44754854367062924
0.6871996337243576
-0.6937355868053514
-3.8090236943105538
-1.3817627007716642
3.6598114035482747
3.039094764469135
0.33524553095501375
1.3625490298274419
3.2222359903967663
0.3012225266625528
0.47896613729851933
1.726392316612503
-1.5087968615357257
-0.2616016714625653
-2.1449212473665806
2.061127067652261
-0.6562638508863041
-1.2694621418432597
0.03483959412288962
0.7737692302085302
0.12751748531294282
2.5519158978668175
2.57885948959521
-1.3338597328490889
0.5416636430903434
-0.19666642724041683
1.6866785408429434
1.624114526708587
-1.1558385935605682
1.7725079860651296
-1.998875105548043
-2.6867864700011928
2.542213057249523
-1.621065616498547
-3.2762901143975314
3.536798882980664
1.7217425076809927
3.3594718081718646
-0.8026921285234665
0.9131122412273238
0.172311491183596
1.3509001528625908
-3.8876292899658145
2.527412842072445
-0.5363042320800115
4.525700316389188
-2.507072042492533
-1.7845366577960968
1.1303712258508218
-3.5626914254060633
-0.38137778116609233
-3.8653875363961987
-2.8798393471925308
0.7310900926144932
-0.960970616725803
-0.7212739200224241
-1.3367092372144889
2.377289245536895
-1.1634857029773147
-0.40678490244046817
-1.2818918343775274
4.082199140855785
2.2938714560438513
2.3464122839782826
-1.8502925604283615
0.5338061472098112
-0.8769996976321002
-1.5864550165408837
-4.202282462756173
-1.861844451894638
-0.5891326852181783
-2.870442563331326
2.589499386405732
-2.0973089296414518
0.4390011243878278
-2.632970878061674
-0.1449964761900695
-0.8771842529268996
1.532774336081601
4.495441569572942
1.999537270783878
1.5279267158724767
2.096719776538385
0.8780429717078517
-1.309306954532179
-1.4568277682322748
2.992132391067784
2.5625596121536347
1.7156860538302576
4.323180366135534
1.4132057765239752
-0.1779941026168652
-3.3346477162014034
2.2140123650537973
-0.5820457998968314
-0.7981582849229057
-0.3989427946979518
2.2995862641672145
1.2701696127556859
-0.2702728122507132
-1.1392362091156172
0.6888258939986298
-0.25133564196713154
-4.055874887510543
2.1605109302358665
-1.8002203937200776
1.5800475949800439
0.39800152687398827
-0.8524470605354302
1.0969640787355677
2.151289116128038
-1.7061263509987006
-0.4385924123281373
1.5381792425262444
-0.34168425202618136
1.9064549611496648
2.15906557682648
0.3870469330707431
-1.153104718398557
-2.5508510053055646
-0.439390357439992
0.04752117109873222
-0.4979458360847945
2.040640021160416
-0.828505725272743
-0.02337792139380901
-0.15771953013092643
-1.5721684635058608
0.3377345233775664
-2.4683584399165404
-0.02523766502799063
0.12138245706532103
2.8902559320617898
-3.191927395323877
0.5679116548197563
-0.39990912859904393
-2.7653448927976805
3.1245100416254497
1.89742270939202
2.2403757131961783
1.1426183460908876
0.8107753497066588
-1.5778842576169438
-1.3728938003946638
-1.598747026857854
1.955512831471105
-0.9541841761431544
2.902027761229678
-0.5234231301832049
-1.2304906195183918
-1.778482600976108
-0.19396241393942892
4.3474195812435585
2.220986046416698
3.0540836593379375
3.0715558215856236
2.665982198587322
-0.4008865227785984
1.5577302446399504
2.8212461533630795
-3.5986911213479162
-1.3380010783603264
-2.7754543091968458
-0.37066722715266387
0.12191682723700614
1.0253956047074186
0.060295374891616405
2.9017654411142093
-0.9261616472077319
-2.551613295604636
-0.7562379571615665
1.231482641501002
0.21032151886980532
-2.3277104734256913
-2.4341293597684985
2.38502147307198
-3.6705581156714677
2.4690344161720006
-2.1951514059380504
0.5767261405694617
-1.524126575588948
0.5552642997173819
1.1936709051509737
-1.3131965307563083
1.7630711216514627
-1.9715906028585368
-1.8639590989130983
3.079476555163658
-0.22788802137324105
-2.019018194062332
1.3271563074114656
3.6774852029194323
-2.3165522389247135
2.9493451661031607
1.4355095497361554
-3.0508146956005127
-0.7021836275936151
2.853205152045282
-4.498026565356257
-0.5355050090103042
-1.8974349063811613
-3.9179260117821535
-1.7875766427699618
-0.3240619262502671
-2.460367708370921
-3.615042955648586
1.2001429363100184
0.5810366272271157
0.6314406065093263
-1.7804890182480184
-4.465734731775315
0.9222996551859155
-0.8790506617763028
-1.7830727565207214
-2.449499872460155
2.5810605134742355
-2.717882670271062
0.41878581502493795
-1.819604568728713
1.8214106243539372
0.5570268982484365
2.9421321542320653
0.9353839654797933
2.0404834241154157
-0.8240839862331572
-1.2709724185055078
-1.2981335524147513
-4.3186674979777795
-3.083627370684791
-1.9631783668652982
-0.49642299413984414
2.9646603310999176
0.15793724450691604
0.325396967021927
1.3874877373872008
0.09564311343590282
2.3883679794233013
-1.8023620689673863
1.5894942536160857
-0.39789580830312854
-0.6821869517836365
1.049369881641884
0.13613976887393608
0.4602835611873899
-0.2428539728854363
1.0850235669978314
-1.961377378803284
-4.335542873750816
2.4167091787281176
-0.6447297538430175
0.23533896938313315
-0.10334788226250424
-1.21828193332858
-0.5271199293065965
-1.5607887074145164
-0.04728902573038063
2.220576745712527
1.6630536471907353
-0.95394846938748
0.580951817615504
-1.5176490499855269
-0.19552471648388625
-3.739790136212197
-1.6103219515570621
2.739654450637013
-0.8826597039231588
0.5937580450444346
1.479784447729176
3.333193248148748
2.154602794796215
-2.10454126986554
2.458711639499235
2.37422061084985
0.7526984836777488
-0.9342313989532416
-2.5080023586927562
-1.6388470111266118
1.5979886701767665
0.6141285166510482
-0.9513226849602118
0.9665948227764436
3.0651773390395984
1.2147863994992556
-0.003220288943658889
-1.8489755624425852
0.9839510601080388
4.417408551493471
1.705172702635399
0.7593898602745592
0.9900906055170675
2.668722648660153
-1.1919942766947225
-0.2431353339604092
0.1173071005215276
-2.198552041271821
-1.7120008155356665
1.260013882654305
0.28604897567654763
3.1467607256161867
0.5348330995030968
-0.4803792707837298
1.3455324701016202
-2.5734565155015283
0.03488162918792703
-1.988577420166151
1.3252444867505013
0.5816710199264385
3.348547266611577
3.7910073003056146
-3.447831536745715
-3.3074200574644443
-2.9685599646342236
0.2691204350669856
-0.7100174191995285
-0.8516248816445513
-1.8443426436078387
-1.4363678429150313
0.5564807510979364
3.22071940471242
0.08740936112022046
-2.4155865105716394
0.7754661509254848
1.198760299271087
1.1772422516105474
3.007374436484588
0.9193675953022749
0.2413405522508576
-0.9808893307060489
0.29391047881249843
1.7988282207545647
-1.8972558123044365
2.934545787066048
-3.08798911083386
-0.844482336213257
-3.111771737912558
-2.6618277530037373
3.915275621702082
-2.785584656614052
-0.004411323060081074
-1.3591773299323724
2.0360933378356267
3.3518186403714587
2.3990127578461964
3.3464994329392184
2.449229928461665
1.5353209747149195
-0.5685350205328716
-5.656247014180771E-4
-2.63792459786021
2.192015361781957
-0.7781403334775288
-2.362504090721424
0.5878033418367608
1.1611681505980234
3.9432677953270723
-1.5918056564824168
3.257688788169202
0.3876177055251334
0.028409118232862518
-2.9964658517205334
-0.17116318541133102
3.012143330498809
2.5086797157504526
-0.4300356532587468
-0.45642847324614566
0.5150592717176856
-1.367035067887506
-0.250323719594451
3.4967343242650304
-0.4307207530532855
0.9224861599248904
-0.4905004387833367
2.4671439137202844
-3.740894780260681
-0.1820655155939448
2.413644862290977
0.6694644525770701
-4.679011972592186
1.0751386842848132
1.9965448813811721
0.582735802894744
-2.93748939918478
3.065517992153948
-2.107956753428026
-0.9881873530293672
-0.3841553369267807
-0.862429163359713
-2.624820058387825
-0.4620360892520923
-0.8180713350128337
0.19564803203736858
-0.027173626858131072
1.5148831958155229
0.9216200050012718
2.6522616377615837
-2.2005843975183796
0.7663580150940097
-1.8499314535731939
1.9101787728417055
-0.7259779436645974
2.14185084270735
2.490564107177406
1.5305504902156
-1.1249613767402002
-0.913761567969769
-2.3558954377346857
-1.756674035380473
0.5887007563855482
0.3799631574689616
-0.569060679554795
2.9562015027973536
2.7077086184877577
-0.794157017023041
-0.2396668983741328
2.9183555238847836
-3.3638030356033135
-0.301207602747227
2.1848035098377157
0.1952178266030149
2.3573026792583396
-3.8652963246636243
1.6950816497131402
1.6105240675995087
3.2195795931309346
-0.08526276972698899
1.412043618826413
0.3119062262618937
2.69851160801361
-0.49872623267841476
-1.1681331077782542
4.116267223627858
0.7893728637237492
3.4617748437085227
-0.7193419841341031
0.7911916628099469
-2.312314244798137
-3.2231951555727054
-0.7651971313608854
0.42864033701748183
-2.586473205740875
0.5684627652238922
2.163290528960763
0.06718144116999314
-0.9640698402289907
0.40547368402459494
-0.45174119808621516
0.7190062821959959
-1.846361890231739
3.341191217672733
-0.2599866629659937
1.9579799653199037
-3.711549441879738
-1.1592407193911094
-2.6972319053947906
-0.7750230624065262
0.8474209030994334
-1.2463152596155527
0.5073601337072788
-0.9932470909441271
3.3101497399694906
1.4880695101603365
-0.37281441421134076
-2.955399202395439
-1.7025728788351093
-4.457246252413279
-1.3063905855186027
-0.27095808006212696
1.1774717924546212
-2.4463816723135623
-1.632903429511904
-1.1631965725872462
-3.1339822293655617
0.010297588585656214
-2.419682336200343
-0.23367096314659452
2.476499149832314
3.7995528273945802
1.6094746759105887
-1.5719231136250822
1.4765827569131398
0.7315553844132743
-0.7698977070176292
1.9458509702111857
2.007297531410679
1.2053300164828635
-3.3864103624364486
-1.6745812094816837
2.021012634658605
-2.8303913357441197
0.6206755211255138
0.24666361729375996
-1.1054878050268524
0.5353438240898883
-0.8518336091348848
3.135522057231421
1.1734186935591797
-2.8038671785689315
1.185126814777677
2.671956589251678
0.10421304700387557
-3.187198176137155
-0.7652073529729864
1.8902139910440026
-1.3898965344644076
-1.481600375912453
-3.2415435059014492
-1.972382250260828
0.3669906958772504
2.699852713225203
-1.702422960627457
-0.7218536503757704
-3.3642179741048954
-0.9874710820173735
-0.06964091011138285
1.6070473926623605
3.507302255918619
0.7839626866988347
2.7190579145954072
0.7827345273476288
-2.7839476997011943
0.9629900428780109
-3.195744144556391
-0.21777712139619432
0.1790666788187939
-0.22945713605103668
-1.1976390936857062
-3.273653398504033
0.4161160911756032
4.208354676187449
0.1625788919253237
3.5010132828886102
-2.9924892700105357
-0.4181740900932325
-0.8603924739026336
0.22074313515572053
-0.7542508900506446
3.1932986451846177
-0.9616964655124618
-4.30925668976602
2.137264864801406
0.36199318807417047
-4.613427090688484
-0.9762330827477217
0.9105224737707635
-2.073146919699706
-0.3072676480817256
2.568008264121615
2.186708408659084
0.38855147843531324
2.4435948764647533
1.302281820155996
4.469272686521766
-1.1530928553170174
-2.0004725929628373
-1.145261866258059
0.6085656800393568
-2.110039473426556
-0.9572688937079221
0.3013628610226875
-0.10217654314628577
0.590959881331405
3.2349943541265813
-3.099487562362045
-2.5432485826334466
-3.230491109204222
-0.25883177961906423
-2.0802651408346726
-1.4410451170890322
-0.3268780771430996
3.274615020635307
-0.2888756660674723
-4.440533000159954
1.2354420360740899
-1.6791207224366267
-2.808537106793368
0.07862544266374627
-3.932632563595207
1.1958310063520783
-2.116604736262116
-1.9014546984540486
-0.6626612740067075
2.5945324347897247
3.673890907228026
0.6284416489496224
-1.3029635472536962
-1.7129234135844662
0.4462391591717857
2.59504723359099
0.40873809689379614
0.6176490608502827
0.7418314461472273
2.6143799885836367
-0.16941353804605352
-1.5369378152407753
-0.39202274093831635
1.3011067705088564
1.4160165201379975
3.3070119734972074
-1.2119944482510259
0.7717563026596276
3.383594318741676
4.086307374910429
-0.5900978087676472
-2.001972558828656
-2.7864855239817192
-1.5346767215739603
-1.6702685217356041
-0.3335524000682005
-2.8729913190127894
3.194924227706614
-1.7139070394952776
1.2006271549603578
-0.29508589014117625
-3.7878870722960967
2.021864388167385
-2.397637943554433
-1.1983485086795937
-1.8633498881401076
0.5294784582201268
-1.232165731072727
-4.089134988380424
0.8208971780805232
0.5759862086241214
-3.064840265384907
1.138969917388006
0.6091317355088111
1.6641533675918714
3.919533629340904
-0.05713745966080985
-1.0374140193934
-2.4141554689913547
0.7922239472417107
0.7880386762889442
-1.8935425514747743
2.7239408024428764
-2.3403381574339424
3.8833737015278667
-0.6448578672198519
-1.740957509364557
-3.8011189687009583
1.1488115510873196
1.7719410093259285
3.437208235840308
-2.3944468836228427
2.5722148243410965
-1.1805113085520702
-2.9450220869244976
-1.3891281157538995
-0.8883761124576202
0.6571545810148427
-0.6820684967792081
-1.776465147856921
-2.7008220907095875
-0.2583324478115856
-0.7709670063454527
-2.1469277173638814
0.7029439103871402
-2.6127880000629258
2.6630091151803787
2.4707737329412582
-1.597091894817233
3.9412477795659466
1.2830134670521551
0.464463324125616
-4.362624831164372
0.23230194411577632
-2.5441735671055667
-0.1566290335034375
1.7760302291259715
2.945983390232904
0.3218386081062814
3.449352663435969
0.7759081741677858
1.5854709270660514
-1.8239290272338526
0.8307079495436225
-0.7234739567662868
-0.327277846498234
2.316479754143187
4.434844754128129
2.49042271950817
-2.1533429144386758
-2.484203990916964
2.776042577130057
3.045361319454699
1.514562876189693
-0.7268491493943313
-1.7654378176469447
-2.065560608317688
0.7129726006838517
-1.9982643960747057
2.143354408721228
-1.2696380525321507
-0.16573517747988986
0.30874714567766137
-0.1813845151253375
0.22012176526685767
-0.12476226760840925
2.5238686056343935
-1.8095594462483116
2.6163421403815916
0.8639047242271243
-3.367465209379941
3.6898245806091285
-2.4984715407303577
2.1207634128633783
-1.2297665215129228
-1.9517387664579675
2.6614804914063086
3.0107859257169483
0.4340906752654672
4.666188984459934
0.9641147584164507
1.8423844102791915
-2.4320073775297497
-1.793464384372394
-1.5600529147503879
0.5695959389960268
-2.322508767926775
0.06960911312862184
1.720484991137369
-2.046256936964516
0.13074648117997656
2.4055877714874496
-0.009219229835250031
-1.1591850584367314
-0.19824755608116518
-1.679143552272906
1.6123941741366181
2.2108221687852856
-0.7879009975334776
0.9344417890980106
0.573015547570882
0.6553740251734896
-0.6724809560389291
-1.0592058821866224
2.9189998176155214
-1.0602719286156526
-0.834529273464863
1.3351677539451536
-1.67294146206319
4.305563046460459
-0.6299958258145428
-1.042151720620117
-3.0286355128049327
-3.8292761287624653
-0.089835730125841
0.5134777789306075
1.8423152760972243
-2.1178104304643384
2.0581783105312037
0.7217282006315889
-3.326792889118694
3.1785132060802836
-0.19632174379727363
3.25557126360898
-0.3689313310050255
0.01798599483633989
0.86020939175259
1.123397216222531
2.9279054152593655
-0.5712274839674145
-2.5797277723645005
2.151230798365658
-1.4913958347312277
2.0372689720421646
-3.1848481576652277
2.2212938048925297
-0.02825252074067386
-0.06906522684229932
2.235780524407631
-1.0768323295456956
0.8795879912204675
1.5118464031947314
-1.329113722396606
-1.726198774117766
-0.38656610438992134
1.997223036397907
4.218677070310942
-2.837382134036372
0.9306932377554822
-2.776823419125936
1.9283087734408775
-0.8220307095948332
-0.6201702050769016
-1.5920672111940308
-2.6726101282516
1.4711875246321404
-0.27052255091909894
0.5307760341650427
1.7917702966558697
0.3144845428864791
-0.43203334209966027
-3.017033962695414
-3.086134471569862
-1.991050960396206
4.229509105457998
-1.8531223529643064
0.025766221500025388
3.79889123615419
4.203294213689462
1.5596136732009325
1.0333830851587438
1.448786013985162
0.18174486265436385
-3.6826609508726795
0.7178760068379231
1.1390618339842296
0.9041827969154299
-0.6234107772998647
0.6606194598780144
-1.6630103180926337
3.9521560579794923
-3.591199615113176
-0.05204771108791428
2.298917637045714
-0.34732540123345235
-0.13568794973325193
-1.1880369792819119
-3.1398957391046487
-1.7543932074161588
-3.0979066018078427
-0.6364396417214557
-3.831600393247723
-4.52851365466765
-0.15855953813096402
-1.4259214097075792
-1.9819770508219627
-3.2640206568096066
1.7918985542154555
3.6616680209129737
2.4396893125136327
0.007260795490122263
0.11765463360029216
0.038721493060825285
3.2033331523290514
-2.3974478813348297
0.39265422183735943
-3.0234153486055098
-0.1103208171764758
2.0200686229619835
-1.4973098892647827
1.14380258290951
3.1869122803425234
0.9726265851479745
3.550714191322239
-1.8258492952341732
1.0686935503001593
-3.2208390939400493
-0.7783787933308663
2.420701941268147
-1.4902256613386085
0.2704036067782374
1.2627561349575251
0.05217738904663349
-1.6045408504253666
-0.6350292649971361
-1.2636062943064328
0.6478339279729878
-3.7188357415798587
-2.5278887118214994
-3.299560032424142
2.447135753341883
1.6583258130854068
-3.1226350201135458
-2.026391789287283
1.4104614242076252
-1.6170955637496318
-2.7326191085715137
1.6413155109136208
-0.7529035418559502
-3.0772624117037592
-0.4498536316818309
0.9585536888659676
-4.433239689397271
1.0799902798994827
0.1268749253490684
-1.694018452031591
-0.689080889758012
1.8449526372098668
0.7718057982109467
-0.1445095300016057
-0.37986634104592865
-3.962564122750342
-0.7238370632522129
-2.398506861888408
1.2936918327887639
-2.607985176096171
1.0125238426546561
1.414183294025698
-0.0022232448540360217
-2.2566302112629772
1.5758492504568606
-1.2289796778001794
2.3784203999761724
0.9679739353504369
0.6574227879697156
-0.177315443794809
1.2354910906349295
-2.6616194093579413
2.3079499014488514
0.4497565040519378
0.9139680539030608
0.9463563236601996
1.7460688324138491
0.9663678993244407
-1.9312510383786303
2.8511126162860503
-1.1314807194293461
3.127076061256459
2.9592447370387127
2.608885671725482
-1.3817762250102634
3.093210513679839
1.4300077818395227
-4.1598880303606105
-1.633472984563583
-1.9850571010568416
-2.2663532911431896
0.4904539567702232
-2.5341529860825784
3.885327646617985
-1.6477250714703842
-0.5580784552569789
-0.8710148390147601
-2.677431394585743
1.973745727076092
2.130341941253443
-0.20865236874594784
-1.0632453722259068
0.7789215569702446
-2.1745724903653483
1.1123255506919945
0.9373209546932695
-1.8037710143994106
-1.7703100638154035
-0.22791365985645218
1.6374807313441861
-1.7202520087257698
-2.947545725452545
0.22002552029196387
-0.48811865961880896
1.8670877975027111
-0.7847817591956534
0.5311270711787661
-0.536267881323758
-0.3267031828539918
2.344610999119344
1.5264861018386
-1.0423458044419158
-2.5229422202360334
-1.7908016237821842
-0.6857604610193246
1.674504978767387
-1.4445811824988173
1.7563865838747397
1.4071586647808891
1.3444234813468543
-1.4766917699066346
0.4056732503351945
1.5731507028319784
-1.5856509843212465
-2.2659135389639826
-3.7455041718121223
-1.4250787293409628
2.2062626516385366
1.3973812173641118
-1.14707165971774
-1.044953090495485
1.222400761327346
-2.42954118195123
1.2034748175766725
4.0227066040635915
-0.7463082390144088
-1.8206190927907318
1.642211582600822
-3.801674250295025
-0.05233418041473836
-1.7738045551787274
-0.7424734910973605
-0.1276220219148394
-2.5079139630000666
-1.6615862811772018
0.5027055475177806
-3.065401701308825
-3.929446531046671
0.8170215462407537
-0.3413825179476675
2.1298566180043528
0.746333980104775
4.339277077791836
0.8027464583589663
3.3969406234718025
2.4306587064259633
-2.5274578930181026
3.9408219837984024
2.346499180140674
-0.40825418979589045
1.1553995216750006
-2.042704057933573
0.03439619571737218
-0.6392037971043774
0.30230603433044667
-1.9590810737184783
3.1867239412384465
0.691211068176969
-0.31197044937646645
0.24166178552887052
1.032727422243036
-2.772717108158627
-0.7318786442703864
0.8152372207532016
2.901887893563929
-2.461392243617766
-0.908324839803778
-1.9885322277689408
1.7414177831793722
0.3764717990047899
3.962618937851906
3.9627512347188616
-1.2895858503328
-2.391540558104691
-1.9942061671493034
-0.6711248675804287
-0.9930760927210889
-2.5124652711326037
-0.7059327396062312
-1.6455730314724233
-0.9158316097899122
0.9118445693076098
-0.3072686510166406
-3.0049467028950696
0.41217765886417457
-1.6685041804135938
0.07743682898273274
1.7688168652459506
-0.058913931506301864
-0.041446189236276076
1.081911652692129
-3.011099895088268
-2.5776627321582066
-3.0634855237273584
-0.46828510225069486
3.033906830094802
-0.25595082040736594
-3.874501492025716
0.7202762076400808
-1.6879873461303578
2.43679018499167
1.1594186511861198
-3.3165306160234502
-2.424789159911318
3.5060137116830057
2.4313691631232883
0.6289729175257774
-0.7600915743837424
-0.25259524319519944
3.6634883963434826
-2.3233363860449603
-0.6298828328082484
0.7013857679074618
2.7175434571292048
-2.9337032281713293
-0.0205046590926945
0.4030321354800259
-0.6975116525672216
0.9887210804793605
-0.6915161691957623
-2.916350735496321
2.2352440932830904
0.19687811901024999
1.7327929071025712
0.9802582005623339
-1.0890483277670113
1.552838945387437
-0.04051560283346323
0.4092425229872959
-0.3610521926317518
-2.332877036986532
-2.833096957982783
-3.7395947312947393
-0.49928704965909354
-1.2134460620728171
1.7447040511751837
0.06768532101121316
0.3860424895233514
-2.9130985167356194
2.2902300525978765
0.8127847091445046
0.8636909527808245
3.5265555080498645
0.5174844504945395
-4.38204411963938
1.5427367391857993
-2.582511571039554
-0.2650476983790879
-0.5158014722682118
3.5809227371073797
-1.1302492205156645
1.5485201186790487
-0.7688824314336693
-2.0037832877853146
-0.7342475925867258
-1.5542580138658493
1.794690739092828
-1.562153773219109
-0.07942093258202476
-0.08229585786814031
-2.960803791793904
0.07305510307077268
-0.9154054120135333
-0.2252632470676046
0.23955053856618935
-2.75416663902222
-2.555423517675045
-2.6877764565711386
-0.6096930491873802
2.5638693563270296
2.279639056802707
-0.017240425211960453
2.497563250609489
0.06997411285929167
0.4281897258721834
0.2309051505719819
0.010030938905681186
0.15422940553297027
0.22217176748208445
4.146789793163194
-2.4544872210367576
-1.1368919764627488
-2.455158611417109
4.594811291619507
-0.9309574242877576
-0.7381836449569095
-3.8316697514200015
1.4736841353104468
0.6789332488923938
-2.4938904152696435
-2.4727563799859773
-3.2359147598123834
0.15698643399905343
1.2798304656816883
0.08454272662015261
-2.979853039295804
2.4391112571158127
-1.74558035299862
3.445963151679671
0.9610476039160156
-3.837396046970621
2.2266494128195324
-2.62078199417286
-0.18104907110455315
1.44633753733088
-0.40917058991377964
0.8942358845812015
3.0995413462176975
-0.939889107780691
-1.1982639281956748
-3.4593153110516957
-2.5885916876925137
1.139409233426055
0.48451356804770107
0.07903037079181885
1.0205278254986134
-1.3981763211514817
-4.15220215759828
0.6813804097171389
-3.2139089086727024
0.42138158828852035
1.056313652335434
1.8183633183394359
1.1339322127195293
-0.0829631150003598
0.21919363794498725
-2.0117081779837287
1.7238017688436584
-1.7884299087117932
-0.3497293213179571
2.4448633195917227
1.466739404887148
0.017149598552094414
1.0565924880010304
1.0796434830948933
1.548794010162264
1.9038021158626948
1.3114088859751178
-2.3844137695895786
1.1173400619454739
-1.7929566295606394
1.4678818919076244
0.2678379405206204
1.2862439278617237
-0.2690806861982833
2.669768704459729
0.028078325773015056
1.1161257239861397
0.40270771485619694
1.6153263702166942
0.7286444151625662
-1.774029925560507
-2.9644707238848644
3.230690294376026
1.0426917022101083
-3.3076655011061944
2.3551187503512296
-1.7910253505782796
-1.4233612375853442
-0.10759547306648187
1.447007429059855
-1.928653984095825
1.2111485742972503
0.9471474694382427
1.7803645743056271
0.40631883273052916
0.8468931470372381
-1.5791866501139336
1.9647493143373156
-3.056475636385946
-0.28864449171751705
-0.06696648986686604
-0.6039766687376908
2.1182020551105945
-0.6170851644294284
1.3397674797310235
-3.052327715113942
-0.21733694426029948
2.688468039884447
4.139345866622836
3.8637895047573503
0.7209770067926464
3.6308359689653087
-1.2401366399476073
1.0099673613274374
-1.3768684982040507
0.5022050057088121
-3.615832929669957
0.6383511893683902
2.174913909622257
-2.660146653145482
-3.0313060762395354
-4.176898452912294
0.919765405252067
-1.1195868156705608
1.1124050940907773
-0.27748270010122367
2.5488588403290926
-0.8310827451082399
-1.567931418918871
-0.17593051539063076
-0.7243517141440212
-1.021118647035354
0.10013896063737593
-2.671406250878054
0.9511418046673779
2.1996714213177855
-1.7985151789384437
-3.170104802290111
-2.4238538199032327
1.3474053988762869
-0.43478545101248356
-3.553988947222338
-1.1332648415259907
-2.6443579834067172
1.7278482228425707
3.5583848886631904
3.5291897828584164
-1.1978977496825443
-1.3159102208245743
1.3152011266459125
0.90066170509209
0.7276777822602565
-0.9185564410932412
-3.944871892205017
-2.3881915738926867
3.203974191650766
-0.485068813017965
0.8077240207565299
1.9276526926772695
-0.1943612441653828
0.5781550531513222
0.026749828789275565
-1.5770871601245
1.1437240841778251
-1.6730410170623586
0.7126451867809989
0.6480565309507885
-1.3836638005667963
3.8119376564308616
0.08041253563642359
4.4423281111499655
-1.4671811895290974
3.3360427562654524
-0.07083754095744066
-0.4500037097517522
1.7677217204784648
-2.9064626720867026
2.8695683212227205
2.1960775112202366
-0.8991952579971058
-1.153452399751406
0.5654824511213974
-3.7222214094326778
-2.6006728508972574
-0.7045378151059
-0.8540393004617197
0.8279154778507409
1.7988714302794615
0.7994294669276951
1.9439483052058795
-3.5934487270887905
-0.961046615887204
1.103202583917865
-0.2821239430025688
-1.9228895771698258
-2.8903336473059955
3.726581092233542
3.512415739451777
-2.3767879864038157
1.3656105917003725
2.6727020703581843
0.3146466800225729
-2.3375213685034013
-2.7366407770106793
-0.8885729240555007
1.6618812676514017
0.3135662423955279
-0.12129292531020974
2.6940783768919587
0.3574017826127933
3.0726669445582644
0.3599568349014375
0.15577102219512273
0.450357450312024
-0.44426459239888283
-0.5265111760206731
3.8615940238333026
0.6360700356701432
-2.2373139151446733
-1.6021329021188806
-2.0471108473994692
1.2330015101371061
-1.4801847845263536
1.922729305141536
-0.25012340416713796
-0.10736900961964957
1.756693809498569
4.20871353149173
-0.9331217848938604
1.1984913514458473
3.273784067598887
-2.735331413887139
-1.9036101874703775
0.31061733279893755
-0.34297166558002035
-2.7015997815165256
-0.4817506560874858
0.8116524853039384
-1.004339346931277
-0.9027973744636189
0.4901542755681225
-3.0891328499211363
0.059491137265520466
-1.4055748696185582
0.1757751720443066
0.16233571135390612
2.591912781649504
-1.2216765331842332
-1.5332819590073141
0.8535251652584228
1.3748808522636002
-0.9005537040642104
-1.4454156893953853
4.2205429486418415
-3.2778846282248253
3.5328076556714185
1.0093774640535051
1.6462952502893695
-0.9432242761281247
2.451094106911578
-2.979491738890433
1.9978053877656459
0.22985848743482862
-1.5348433190050899
3.456647571366522
-1.7410577198456725
-0.7644328476002351
1.3880381803742758
2.400675992531557
-0.38519058050937627
-0.02009442703368447
2.4787858627230257
-2.1840171455032324
4.144043775108308
-1.2412570840036352
-1.8777006102605776
2.0003606533994724
2.27527451215758
-0.8983980397382991
-1.8985363016118302
4.483748708482589
1.163992374125633
-3.3625797819846057
-1.3821834731762084
1.0260743211365995
0.1460792380872724
1.6385329033265164
0.21700189186257068
0.37144090759755377
2.424247202401291
1.8991291558035885
0.7752588777187547
-3.5850856350851052
3.143638950754159
-1.3955686362897757
-1.2968057983488945
-1.5618429328422683
4.012836591598345
-2.153154208651289
1.5230919395490305
-2.9298408876543784
-0.37346756947963033
0.445337185935621
-0.02399358158723608
-1.370682441823019
0.6461090235975165
-2.275724878189635
-2.185108341243151
0.5031131925354022
-1.0056211599655536
0.9080040121426967
2.440015311042343
0.22163535332956563
0.22073579952184907
1.7873846204859114
1.5329080849811936
0.8812035240831482
3.1929646912716105
-2.6854411466698673
0.8450983294517505
0.5743375609349489
-2.7280370246551637
0.782187230624344
-1.702119026270465
-1.517675095063415
-2.874379101278629
2.2434091017880284
-0.4506268300187831
0.2866357412383138
0.3381130856226733
0.8287748551694585
0.18510338903434054
0.5554356511432239
-2.02915030479495
1.6164016040818248
-0.3116128710653743
-0.23855350489705707
-1.7686626740971332
-0.2883988496606138
2.346736584349806
3.5874036570247876
3.406201261311623
-0.8077697071854595
0.2505563932505701
-2.824637302356523
0.2146169272105194
-0.42398511035879827
-1.4596257754621265
-3.0238982408119837
-1.2615985159378318
2.466094686847316
3.0588557153439724
-2.145126634856705
0.08501588328064624
-3.968956772231632
-4.436143231492604
3.109753223935717
2.939727715559105
-0.02439185760884177
-3.341241974916572
0.058835508017285765
4.163182571844941
-1.3415747630899801
1.59633668305869
-1.1474720458755048
3.5906370019685423
0.01295563145248868
-0.8875769151653974
2.1671932759542356
-1.8108986124399298
2.927894225355984
-1.5544082687813239
3.436388223376287
0.7286422379816071
0.743302314231181
-0.30086198120968244
-3.724049569790889
3.124095355152978
3.518711818629782
-2.2984098651373066
-2.2408162858737395
-0.39656092202464466
-3.2705479140927745
-0.47799393419718506
3.198389586534315
-0.14092258689678272
-0.9525494006000663
0.7963050784255934
0.08899787116385927
2.3382833803558634
1.8627548312173354
1.0208860144098137
3.872543742179557
-2.170947098940296
-1.7979722351388125
-2.030221222780465
-1.8252566645072004
-1.5023820070094076
3.7002655160653073
1.3915823200543542
-2.825083340306733
-2.466128760664853
-2.7180121355653055
1.142437227945562
-2.2369922003854636
-0.4390505987293234
-0.7918482365950869
-0.08871633067575901
-0.859546476864147
1.9652278435594148
-0.8549635195676946
0.6936544493060639
2.5211493156597107
-2.697025016138809
1.9113525210985038
-0.8297468050392397
3.5887622392338487
-3.0600837255081332
-1.440177159971805
1.1465672557994289
0.36664262098951506
1.0799598330581124
0.4494861081177898
-4.790232862113006
-0.8434169262050388
0.3393301014519805
3.9649735937120267
0.7591392235923451
1.2026742460927924
4.0223638848100425
-1.4609917648667459
-3.4336946909829846
-2.2634898748431094
0.2552147028857126
0.6343758230726793
0.02147578562073149
1.05998871445885
-1.8662813866533798
1.3416203720212283
2.221989625555662
-0.6780377495158602
2.041669376596615
0.24871009747640893
-0.9406120772781097
2.6449838227692344
-1.7042458155166926
-1.761072059252021
-1.5387259254498526
-1.7415973001452452
4.27339938711267
-3.1267661968431337
-1.05579256896989
-2.7059435084754178
0.17977639705028814
-2.9866512193343473
-0.3661161314806507
0.9008110344156708
-1.3897822733285494
-0.6581858513294825
1.908850487380266
3.3341985900600997
-2.9357066620603276
-0.5647293803786324
2.8240053577826805
4.677403007269939
-1.4322028886357931
0.04721181529294849
-4.52986713451931
-4.1501572640503275
0.5588929428639053
-1.743539990428939
1.425724687831797
-1.4403984636603395
2.194672063427314
0.13761398575735218
0.4573342696578929
2.855957323740542
0.23436937666282276
0.6097204170180879
2.624718330988986
-0.06174234838244397
-1.344509367353795
1.1194171983700305
2.9470122332079844
-2.1226066092782316
2.159100021298666
2.81479984080563
-1.2138086054670996
2.9061205972432997
3.720516799953101
2.866260622549361
0.10406722048252526
-1.065520927104484
1.3416729970332901
1.5905498199080343
2.749068101134211
-2.0534408999386335
4.161381551561761
3.0343099793056534
-0.07094337697117914
3.9348661214995535
-1.9202365713518046
-3.3266669999995324
-2.9735695072065615
3.028532016521083
1.0530859018947178
-2.1162102030181105
-0.0882403385585877
-2.528374500151297
-1.7847393081184357
-0.1583180589840899
1.912208040489988
-3.8921913440579434
-3.0177477854814883
4.506767206005038
-0.4090086697203693
-0.9724074179641207
2.2956455970010348
-4.65279351651954
2.4941177870133675
-0.9655602512794874
-2.8383738692330964
-0.5388151860436963
2.0206670996847405
2.585963741632093
3.641616913465741
-3.2482470481175874
4.572852415273361
2.8664779418894057
-0.5491712664769599
3.811144225582282
-0.8578823713613906
-2.352859022375891
0.320968502276342
0.17081154429063572
-0.5124788405276348
-0.4100507623573513
3.28335857363153
-0.4265609098401124
1.0626528938174729
1.6518286754091112
1.028716310954969
-1.0768250370397374
-2.152661581760727
0.24507261810862657
2.499843409928844
2.570337974238317
4.240376479098833
-1.189621445961337
-0.12652439631588197
-0.4131538002368407
2.1695631244629494
-0.5412686418541295
2.0875422589384565
1.6886182518509094
3.57525032374473
0.3383856309325708
0.07008693648838094
-0.5388023628884753
3.423689169848524
1.3831938654925322
3.826097232690108
-0.4551510739656366
3.406409482226551
-3.90146591352443
1.5384944537376848
0.4353780371075504
1.481883456929416
-2.9589160262361562
0.8395353881806003
-0.44307642625181076
2.4157257035984627
-2.3513073440321883
-2.591128113387911
-0.7370281852383016
-0.5243235785874933
-1.9233984176327654
1.0545217805690172
-0.5781559897591448
-2.562377487371493
2.69626059201042
-0.5670003192048063
-0.7570935770455439
2.058901076048704
1.9129940903699447
-0.4351407502419802
-4.000246891759313
1.1751398555363872
0.9587632287506533
2.301892508338117
-1.6933888726029627
-2.4231175613259186
-1.683723536349241
-0.09775738554078828
1.6042184856050858
-1.1777520621910753
-3.569302330472697
-3.1303248479627297
-1.4885749145715472
-0.8581228790958373
2.365201872486821
-0.786740623872821
-3.301234652205511
3.5924120422325214
-3.9433715510952783
-2.7162894378779594
1.940255175683801
4.614762555940697
3.8274826760581
-2.6573582243604545
3.9996596027582005
-3.8465930884676793
-0.1894663093638731
-2.9790240125669536
-1.9925153782849576
0.49297720659545574
-2.0577386931653097
-0.1772310638756145
-1.0150587517679344
-2.031618782841293
-2.8186001010889803
-1.169309317136144
2.1711312919771903
-0.2952914502186199
2.6088303842946696
-0.23058090806503495
-3.1902923410810295
-1.456828034790471
0.06506888465961203
-1.4168079361776913
1.0512553036508705
-1.6906660216283163
-3.018396004876508
-1.3162290648036583
0.6276466990463634
1.5798690630054701
-2.937667941457332
3.0250631389320697
-1.0453820580419828
1.1041097030437446
-3.5286617227502526
1.1606561660864014
1.3188196603007842
0.03662952477791981
4.183277380538996
-3.5594903436475005
0.8055889892442769
1.1371099637877333
-0.8473985432710838
-1.4969392863460893
-1.3763050807909056
0.09374250856224364
1.9578844212764173
1.2189863676703734
1.4833060401068012
3.1264168491032347
-1.4225043528449106
1.2428776819116436
3.6834309728618755
-0.974057274395149
-1.0471298571905807
-2.670925504473963
1.5650818537597102
0.7855592327677279
-2.0043731646780176
0.5679085194316951
-2.0135904019629196
1.9809761710917848
1.6947846537854483
0.6986086913404499
-0.5239372016247223
-1.9447967876372894
0.9803257353422419
3.6551150201461935
-1.2789811642993039
2.664413333321437
0.9993569389998214
-4.498946293339466
0.045137195307942246
4.241090696796214
-1.5388815318562252
-2.089878217175614
0.5346865459424816
2.9307147241987828
-0.2929095111665321
0.34813174669831826
-0.5329067348220897
-1.9417711749692805
2.1624473643663165
4.112967564604151
-1.3008364352286885
-3.719455515779809
1.825109126596714
-1.6113008350406566
-3.328972355610155
-4.418669858489353
4.448641518129214
-1.5298920872362372
-1.317943239206664
0.2643354892158867
3.0752525867442824
1.3138729459952019
1.0950032054879233
2.1015012931152843
-0.42486223777733567
3.5726663180190608
-2.875387710203806
-2.207896574347338
-2.1515777835094694
2.2684088389253274
1.866957522451776
2.8891830788577324
1.3459510961469547
-1.7390632794333472
4.225748525698625
2.3495112501071516
-2.434823050163461
-2.3316728070796637
-1.6081388386305453
-2.136660755373304
-2.822604464424845
1.3951353572164091
-2.4676596930067753
2.120183734886438
0.4425785109277798
2.9247904434546297
-2.654874203512596
0.1668967796859162
-1.4319455108303898
-0.46759723082291105
-2.8642493756195777
-1.9857279747098002
2.667287411364266
-2.9257698368343017
1.072262077131649
-1.3515654888183937
2.9750022273741497
3.5100553744486724
-2.7253850349998974
0.6032679104911653
0.9749088473935354
-3.685276695208913
2.394788065064067
-0.7498765015692428
-2.9037263880386104
-1.0649119795683046
-0.6561261570874866
0.9610682550687
1.6355881244574204
-3.5513797561137634
0.8223881677679166
0.30191520367679847
1.5595856626138134
0.5799253560852238
1.3100564960607008
0.41128981471297166
0.8458561306332588
4.2314208215271005
0.17131973644202336
-3.27801794132742
2.017307607777358
0.6844243333134541
-1.4671859639190687
4.180833094995163
-3.4732741724549863
-2.3730983347470107
2.5890728421332434
3.1234067763061892
1.6476819529849194
-3.8358744720990607
0.9927022744785106
-1.040302660633702
1.528037151041095
-0.03150677637227317
-1.0147223579282283
0.8271210778218467
0.062295225545261346
-0.275244261311939
1.9252148957212787
-0.6329553652720532
-1.760946996152092
3.0269063654075046
0.8688626889705475
-1.218903780178315
-1.3802017534142852
-0.1170204446932579
2.8610675732971913
-1.6764853008033014
-0.39469485189378295
3.984009884419932
-1.4085368597925023
-1.6142186277593238
-2.8541225049294017
-0.10659854090166454
0.07272997399798209
1.3297888619463127
1.5516896252613046
-3.687043101502457
0.9970793884312269
2.225793796102444
2.0594751051037585
0.5818174886382104
2.4272095247307828
-0.348594976733127
-3.1881873281175936
-0.4354379203833165
1.47798462347407
-3.292142084670484
0.9052601787242525
2.0847176619599295
0.6450850792125773
2.4098218067016144
0.16358623734173428
-1.9400713278394723
0.4368831882176294
3.6049950707473557
-1.7076509699906337
-0.5049623346371006
2.9657889944313536
2.579733095354303
0.07107369939956198
3.489325075788784
-0.8446804951066071
0.5069628386951055
-1.7607238513756678
2.414160628367355
-2.7808586578357444
1.8926322818149393
1.7325857776953453
1.417312557536023
0.06833511312683127
0.17694443578364583
-2.0747850857567487
-1.5898304191368604
-0.6968673207259377
-0.3533728742265816
-3.4649737273841383
-3.3058787380820003
-1.5546224549847296
-1.1855119392105955
-2.1525518636529655
0.38234895332452723
-1.932042686065079
0.4225040272283005
-2.0855128920002652
2.773277722795632
0.4774588765711769
-1.7753033047754823
3.3850887174215862
-2.1680633152869655
1.6062964717409218
0.7060422368312891
3.6230951363699155
-0.06451828367175061
-2.229437311067857
-3.1063327550037254
-2.2309491879147436
-2.9608738814956572
-0.050148489290909204
-0.5834213260803056
-0.5978934656309844
2.418733274579995
3.2453040586975384
-0.029819859257071535
1.458269917523642
0.1463181338741686
-0.8278728148231673
2.341822085638181
-0.9387460707019146
4.454709561756143
-1.5571642771422982
-1.8463612737063735
-2.0778262421231206
-1.8523770094975522
1.8974649585937966
-4.521082111745708
0.9643406688233909
0.21139191109255817
-2.762991684068923
0.4882587332756738
0.8294035900504024
-2.2153881130041753
-0.7836740818266499
-2.7182378739541617
0.9210879707982569
-2.35805764815395
0.9527768561996877
1.063507841869133
-2.3572163042250085
2.348319946561982
-0.9931761870557121
-0.1854338876179218
1.4852291417471108
1.2398312655133452
-0.10913988794033314
-0.37920511932606304
-0.3794565442413482
-3.6125031698602754
0.6625091837782651
3.811671380469641
2.6588566009587695
-1.2997860638954901
1.2586480056094693
1.0664095597591583
-1.7762129859586642
-0.6768899566204016
1.2264016051607056
-2.356387067893539
-0.9969833562058108
1.487557410081113
-1.4926392957397585
-1.109288231681007
2.930214406854419
2.9690957220686394
2.931273093443238
0.1894353292978579
-1.845444181489428
4.309517516947554
-2.9245440268987086
2.4935708094644604
0.4540922188339529
2.959361291841816
-2.8538182124920177
2.615255593764497
-4.250783989124607
3.497066274012931
1.5382874702296596
-1.583944384767889
0.3724744371399842
-0.91896282904049
-0.2707454392608124
-0.9409213487107126
1.7509806952619633
-0.7091317402868205
-0.8359863129794265
0.47837311058912757
2.157672683918042
-0.48602114274442965
-2.213279349535227
1.221861372095495
-1.812329808441861
-2.96609240537883
-0.12424455282377789
-1.1759412502516815
-1.3840223102520381
3.9765185051862537
-2.161805483271553
1.8648271444070321
-1.7072123584782828
-2.7296346188668084
2.620004274232827
-2.1295850220379116
0.7326289533419943
0.777467632107785
0.3882091969910948
-2.7869696148555323
2.0536148105128533
4.750745962704057
3.141280658950534
-1.8347984323969204
3.9230366853115277
-2.225631951943887
-4.0960002902734
-1.7348292357606425
-1.8344425834197302
1.343254684839873
-1.8369577734138578
2.1495744757702346
0.6902512676308405
2.2379950323423667
2.199535985371458
1.009657813119123
2.3927411789941524
2.8514240286045993
0.9748419530602465
-1.1727245414055512
-0.3113151518421359
-0.3768919369017376
-1.7741937813021407
0.546925619339278
-2.665142680372961
-0.26200853059831264
-1.5742636444869724
-2.659928451825865
1.1940817919564726
1.2454534956139787
4.2673497485405605
-0.8820034357182954
-1.399741737759252
1.7550253357404828
-0.6760561192339186
-0.5505552353302492
-1.0202607439809719
0.8650165072595213
-1.454959045006322
-1.9607032138720006
2.3853036041851645
1.480302616795119
4.2427529701496525
0.9245310204759845
-1.4010221871166544
0.17552260701277467
0.22512156637416858
-1.4562802826765981
-0.5400446825724015
-3.2400642614763426
-3.267320422822141
-3.163689920883241
-2.9261373553152477
-1.7998098747954328
3.83448487772491
1.527941049292558
0.5596240415578562
-2.942750648571239
0.9398768947867255
-4.241955368287904
-1.0098264059903297
-0.4062683281760182
0.08220763402642106
1.2059829637387685
3.183264457112269
-1.292092795534292
0.630792151234405
2.871970055638766
-1.001373693275072
-3.1493933504535137
3.08733479352364
-2.3309711773804045
-0.20227929220783736
-0.9187105223732335
-0.3769243844357779
-3.0177665602255885
0.7223429766666682
1.4195225863106964
4.012911508726515
-1.6485128007882481
2.4483229891638514
-0.35188076790255873
-1.377261689142368
1.4340839624877073
2.070572617683048
-1.2758124028762348
1.106266795432762
3.403306889392999
-1.2242679744153167
-2.0456599358528655
3.467560595945487
-1.0606891029157346
1.9586622786410488
-2.9096878875497616
-3.85445312188398
-0.03145910851570344
-0.5609637962732559
-1.4987577939605763
-0.22324980003271389
0.3079345346205047
3.4342771897406266
0.5788606927482562
2.292497988162006
0.37016121729734497
1.9450957002569425
2.5318399796883786
-0.9931497686809387
-2.913855265826742
-1.7901277756779925
0.7255541526705018
-1.6485000439428417
-0.7988771792460096
-4.115860361356228
1.7234989639331761
0.9138979805537462
3.1004904533263935
-2.398588006042906
2.186621845918303
-0.5651508180805451
-0.6783210462425209
-0.42838908932728437
-4.213187720615408
2.4218323565656825
-0.09168026266620166
-0.12665878404726572
2.2908026951385616
-0.9657080470530945
1.762944447542671
3.0962619409257615
3.9707282260175187
-2.1028473617317545
1.1544685278310087
-1.0101934546412643
-0.5024018293868404
2.498807437231438
-0.46328868465222817
2.7745006491669586
0.47392674031212456
0.8298266791194732
0.8342003772580333
-0.22787333226903383
0.7617739394854133
1.918641397019472
0.3515122805650348
2.010986461622416
-1.2375533163995895
1.9204485644956701
0.4623962494295175
-0.5374875592110988
2.8041108560757806
2.415588758774044
-1.7650642678566957
-1.4345249699497806
-0.20643752849795005
3.573647286534935
0.14899321415935918
0.6940386495895218
2.2884087205539396
-0.16047279929316483
4.062190319103058
-1.7740849886384416
-0.8540887634576055
0.7977450953460825
-1.4193255053686502
0.8668639479504998
-0.09526330350887902
-0.12879980684181236
-0.009081113859264356
-0.11220726453210128
-1.944129997587983
3.5106651540539495
1.9088090048707158
2.9307018918491083
-1.6410641737834561
-1.4687496886110232
-2.1977367595615376
-2.9602708428032174
-1.639817949696083
0.2520902113146084
1.5436400047875187
2.5735415746807235
-0.7316287402078414
-0.9044974772388864
-3.8518214424137303
0.6553243239046562
1.3448344889851642
-1.6981294223330385
0.8547257785183469
-3.1833817630940375
3.963933527053444
0.4164972247892531
-3.2950020518425305
-1.5087461708649137
0.5001845699113558
0.2046823742961812
0.7776279402237471
4.015634148109668
3.1982911623962442
-3.3487267424188643
4.233246663396519
0.7916142720901282
3.1823375040987423
1.700935905197399
-0.6731486838508784
0.2682292399311076
0.760392298123857
-1.6045984387811836
0.5437067595832699
-2.601480861474838
1.1807724279927259
1.0639334821873736
0.015033689315531173
-2.7722983611230028
-4.003783283529514
0.22326806247044806
-2.630268672996109
1.2689436874568787
0.19222016911723383
-0.15672225415455987
4.1783849598056
-3.677021379442012
0.23577776425461083
-0.3653930170744517
-1.8541906733902027
-1.6021775055310892
3.2007894587437073
0.014530333372108739
-2.7916235342974516
-0.6151627597094436
-2.8736257208260962
-2.592715878481117
-1.3076204557515814
-0.8526072029190463
-2.2356551301648473
-2.464880373233374
-1.3103190882827835
0.6783749380875332
1.8720926767532702
-0.6436701865802403
1.8068958231342087
0.9827921358432712
2.2071326804691576
-2.6935013755952237
-3.5556386591188613
0.34173026704885423
-0.6204412490887912
-0.5007775406436016
0.7611402963044327
2.6139032131050013
0.7186586860534
-0.45744579738437263
-0.517689435084014
-0.7689463293532302
-3.6900602158090674
-0.3725786412233256
-3.2952109850977354
-0.45655060327665264
2.3588146075723664
-2.4557356600098594
-0.14205879770901375
0.17172830890547108
2.0371962971039785
0.2841502624555554
-0.024774274543722274
1.0213408687136543
-1.0307448179721308
1.880606657182918
-1.5668755386768178
0.6158403374287147
3.512584181644393
-1.851569696555285
0.3136067018827464
-1.59472977325253
-3.008974511961499
-4.024283441426444
-0.4536199474937004
1.7059000548857401
4.035406548421213
-0.17463665055438637
0.9871748440714244
-0.07244186545495579
-1.8115628345064578
3.1022958698572576
-0.4116846325768986
3.7448123543335683
0.9300157344441047
-2.957334595922985
-3.182175541334901
-3.131751127849354
-0.7208037140238779
4.781270108919579
-0.5166848836658999
-1.9279024040372321
2.12906532255052
-1.746550762526931
1.116915604445858
1.1344563821371552
0.47077929767696647
0.5876979662739754
1.077480604878775
0.34636208170280813
1.6630117999453677
1.6452579598455075
1.5263380023280364
4.2459596941528375
-2.096939006393568
-0.6370719223210359
-2.567180605052649
0.23401895125089034
-0.9441330265597294
-0.4446513560597287
-0.23417318036214552
2.727048696385778
-0.00280959471449016
1.8330083788471283
-2.972315395334914
-2.4957410965222078
-2.3728005722411254
-0.7077756427391657
0.28652570931976484
-0.09538004407725786
2.710718719735117
-0.36665620458498693
1.8634642200180778
4.530270668704919
1.7003870385649842
0.3634187763833818
-2.1691979785472957
-0.8874777845265482
-1.3010242820091904
0.7396044288423016
-0.5224788368213229
-4.803288097595172
-2.2828819184780995
3.1095283169690067
-1.1016888676617942
-1.6978476884816738
0.3826969703170775
-3.6951159852771687
-1.137618266655311
0.21343005329036924
4.258144439155875
-1.2555041227077273
-2.881689363781568
1.0593006198100035
1.9219003725109256
-1.0968920915505853
0.29117621988848885
-1.1645675392655823
0.9702821371520705
0.802143811100346
2.5282253681996036
4.02724707130996
0.09601351341084863
-2.821308805721101
-0.9506727825323185
1.9891079912001306
1.3996644999952643
-2.0110429016218276
-0.2415388277817343
0.7361067699847046
-0.9097493184816905
1.9024472158206844
-1.9275098120485321
1.804696711908905
-0.26875676791047987
-1.5568831369686835
0.1234697982361661
-3.1615750110558203
-0.8117608617973087
-1.5662543661209551
-0.5092581266798168
2.5550112525304907
-3.5654589248586834
0.39978334341678634
2.6190634385476432
1.7510245996603673
-0.6291027348070721
0.5889204586840688
0.07902065735730535
-1.9995923057731093
-2.184347012931918
-0.7373708647142889
-1.1740213948237117
-3.2969003242215678
-1.178439809486735
0.915928578051882
-4.386184700144725
0.14000531549781647
-0.5245011773356048
1.0816221110914237
1.7196913600176496
-0.8094372033932116
2.337357735740543
-2.624742485124573
4.136104725544136
-0.6308416014226781
3.6743250573342223
-2.562940717738348
-1.6135191570100678
3.8366398663041963
-0.353159264224729
1.4270842020851677
3.120547601144275
1.0431763710913522
0.6024565969705076
1.7298492947548318
-3.354254952999593
-0.34128360242838385
-1.366141363147056
-2.475317385588678
0.5509214025200637
-1.5527058543786736
-1.4427014750295197
1.8780462401095526
-4.421436375678891
3.7414324286281717
-2.5323143839192324
4.014082343110214
-0.09818761245529917
-2.8271061507333304
3.026588829467978
-0.5803678257160649
-0.037486389667481745
1.3160292772208995
0.6393984262494528
0.4399767725502115
4.026554314007887
0.8999745159392143
4.677899279562148
0.021551175505563624
-1.3872662567015719
2.245944182860566
3.9045025386530074
1.2578810821746926
-2.048581042695633
-1.4141266078260473
-3.745611377132329
0.39499196089973154
1.6292378272069037
-1.0813429158855326
3.131809713160372
0.9525405953826649
0.5760543300840337
3.0602365467761787
-1.6231967384908947
1.6169207755295387
-3.449519137032434
0.5437851351137044
-2.9414353141410845
-4.437410897201984
0.28017499970611626
1.0262392313398285
-0.7482695270458217
-1.1421343285650614
-1.5868280124992344
3.8574295061290518
-1.0481780571547272
0.6114565638809437
-0.5634985512405672
-0.5319428907758699
-1.7139011887320286
-2.484051250596356
-1.2816600423343119
0.23277029589031795
-2.8239269728016514
-4.555471875967472
-2.1700510743164694
3.464586415837595
-1.3920679037126655
-4.242830209259019
-1.696352918791935
-0.8030872406011627
-0.33287644042936204
-1.0274486820514213
-0.016932128346720088
0.409414987380309
-1.5066507578883126
3.4619390438645112
-0.8780464681215525
3.3539826160589215
-2.6877804746369858
1.8212954825363066
1.3877325709656656
0.6370430404574425
1.6998177480198544
-2.422138748114032
-0.07386728072670379
-0.2855277737323867
1.2364249891513674
-0.1125413889777982
-1.356919441873839
-0.5446462229302358
1.705654816842638
3.878768015454111
0.8601344351434254
-2.5691644496998323
-1.0047515203497421
4.30082678915177
3.49970315416373
0.5843338149811865
-0.1442201739185709
0.1300013965848974
1.956300321023961
1.939334795217709
4.673520652916816
-2.207318480384682
0.8100833323783431
1.0010443375329903
2.4137159911044876
0.659947124351258
0.5389278573897149
0.5081351735183587
-2.1094797464373762
2.470458287461068
-4.614713349531929
-2.809158452705571
-3.4801577364978296
-2.6621825230617215
-2.4659150395014633
-0.808348501177852
1.7113518757464867
-1.0013451981263104
2.7578996611003137
2.804847243113573
0.05589546460111183
1.9576851811682916
2.6856742928529767
1.1911429678052154
-0.5354273817783639
2.1859892868472572
-1.1487803247709467
-2.2763301069025745
0.41572228160832037
0.028765796298478863
-1.3222518931558822
1.6215597046619723
0.4660691980592997
-2.0211919243054153
-1.4453053139347312
-1.4726249140657823
2.1822809773735905
0.9719513388058059
-0.8369277940327258
-1.3153619121369928
-0.3508155200326317
-3.139255404444495
-1.7943878874040209
0.37170618012175527
3.710893335310856
-0.2774065654742497
0.6979403647140527
1.248246125807423
1.1010948368144455
-1.3413727912933135
1.9770385978260991
0.2705552256076138
2.618747212007531
-0.2604631077855085
-1.4167604203301842
-2.168019852031688
0.5054370747606063
-1.2453625992108912
-2.8279905538671963
-3.2153163636994524
0.18064753685345458
2.42040183588942
1.6117636186191366
1.9990091607468772
1.4911852955238725
0.7047179434241739
-1.5760317042211582
1.1166923899356902
-0.3689808885492938
2.9231182702498693
0.7217777733856847
-0.8458284380990388
0.8877775467708078
0.26323147825326876
0.8034559089977051
-0.387756233049688
3.3721579305488456
2.393708236300693
-3.4431663756863604
-0.25167928822486374
-2.1135063982642666
0.8138679577788861
1.8310503893306471
-2.3324690969201654
4.088733632208762
-3.399680568519422
0.9318328478151656
-1.1110798191038178
2.1080808878363264
0.2068036252162797
-2.6034439304992714
0.04299917898761585
-0.23145871094419057
0.9735086551673917
-2.794657623336083
2.3568897170152576
0.5766322150700897
4.0021088511466765
1.5844434540096737
-2.4166828627514603
-2.3704970123429496
2.0527744835140798
-0.4418413966453931
-0.9702985899438774
-1.400287452523111
0.11940631708813543
0.4055382048007816
0.34359618162833216
-3.0470796118844823
0.33934081274288275
-3.8218787029191192
-0.28927573316993627
-0.44526458628602716
-0.10622067753334186
-0.5650394144017872
-2.878137812097538
-4.177023673269473
-0.4448102192182801
1.3511790969766455
2.364821218831036
-1.418409106105532
0.5379301404817227
0.3563156629458577
1.3977763440056128
1.7724867283227361
2.308345706370497
-3.5412969946578308
-1.2398062797663405
0.18152153190482967
-0.9894121731801833
1.4121320287716244
-1.3223952275231066
1.3349029027297838
-2.8355930836065344
-0.11894876638377139
2.516478257430788
-0.27775010150844004
2.291166524297232
1.760551056133897
-4.754559712037962
3.502563033379582
2.124330676844073
0.807383761966553
-1.4409083591331857
-1.150644504562798
4.060674114420525
-0.26173264129757356
-1.679327361011873
2.0911943480573973
-0.4915351055712265
-3.0482734620072183
-1.02017343071717
-0.19609855213955307
-2.2111302742514876
0.029717101212372476
-2.378290679826614
2.010665152302856
2.246832102239465
1.1752863576231958
0.30369791340847385
-1.3536881957957707
-3.7723274422525934
-0.2574815922775473
-1.6640537901860102
-0.558012976539914
1.5756624512390696
-2.984985285428289
-2.8379619945330696
2.3864978792898652
-2.6891802150350945
-1.6108400066247226
0.49598840537692523
0.920565675264895
1.1401773466879979
3.1184228535292875
2.371842201091783
0.020236397152073593
-3.540225340889669
1.7749413724211394
-0.2378794881591595
1.3257044417766757
-2.496378431156873
1.584645568398178
-1.5786351373326672
2.4717947397890963
0.2958849580524321
-0.20783818871535864
-0.3889719779873968
0.7763552397544529
-2.937452322274611
0.21175612975479075
0.36196487002270517
1.4428096348214239
-3.2412091868406483
-1.8794401106807062
-0.06923237184878417
0.4331205857557352
-0.6316516193807677
-1.3496689250575171
0.10620177606685122
-2.832587274451801
-3.368916222374048
3.834002847686236
-2.978012343008032
-2.7934940770998637
1.8550404385826273
3.463263668701365
-2.8678191062691196
0.07360846232514273
1.4692138575329814
-0.08657360309068007
0.00539944773469303
-2.6285787857835494
0.9732971317354022
2.0918292380847987
0.5941494003803149
-3.6490993355204933
-2.059351471048356
-1.3339759109631064
-1.3645025621780467
-0.912066781816463
-0.2692679599593002
0.7279990289013011
-2.160658179430474
-2.5758307571218375
3.5672806118497133
-0.9493138946013384
-2.479469808318663
-1.1717328946395424
-3.3615680955945915
1.0930048933618497
-0.6689242187919824
3.3337977537010897
-1.1249133600730952
-2.0903101558565638
1.7487208078099288
1.7100588317162262
1.063739909204044
1.122154287391941
-0.02190218437885083
0.022049846269319162
0.9500348323098549
0.10663835875002725
-1.0792617311771067
0.7358566295314112
-0.010710837291314057
-0.44410650855415956
1.8701792165052944
0.5256964675724478
3.4002438591996
-2.429349478186778
-2.4115825752138185
-0.06112689401228444
1.1782853323436746
-0.5628765493344301
-1.5800388072806282
0.07489255689706198
-2.2756102062316743
2.2467997848609653
-2.9002700059808624
1.4349876514223165
-2.253959553578165
0.5147632424956421
-0.08894880744209854
0.09830434814312872
1.0863663167002282
-2.0471956345765996
3.8500053147683335
-3.6190025563865764
-0.8622442983061468
0.5535646735264121
0.45236815833141275
1.1344860877354797
0.49619064829004356
1.1419662536505388
-1.0605991522473923
-0.16087959914167727
3.5125548413327228
0.5501771114963776
1.3387382023703065
-0.3504927887883449
-1.6028364472504464
0.5723607521120994
-2.7633766763510166
-0.45225341792897167
1.5337673582952176
-1.1445382671104283
-4.182258923018777
-1.2391712136067712
-0.3407232162946938
0.8822758782272837
2.8488988218859337
-1.4015595819146678
1.5654615985661824
-0.7969441433197182
0.2628048306526831
2.867431309303165
-0.02112897437439276
0.07190207635929191
0.9981938669065684
-2.980808013976092
1.275227913297257
-2.355812114234241
-3.2474480712345026
1.1861905745737595
-4.3154554453057905
0.8912712709991204
1.3036864243146313
-2.7360799165517085
-4.356787991148344
3.3887407699243384
2.0563954977033925
0.1945057181644767
-0.050688423950604466
-3.8655532488452375
2.4704853812930123
-1.3917768465179834
1.3773985692607942
3.5525677155892623
3.026384127741974
-0.02082451641801253
0.40900979035364005
2.8399621723122683
-1.6153967948394474
0.45138186070302067
2.7351430649301953
-3.188944476921744
-1.6047019340633812
-0.5084746806944058
-1.8130407241435973
0.3975113896021978
0.6141747020155537
-0.47538914088628814
-1.2490431860105002
0.958939649098165
1.9809950108699734
0.7087842643367765
-1.6751299217531472
-2.4391122934388387
-2.6830711209882177
1.005560646258374
-3.1294613347301654
-0.6236313151553188
2.2970052857416294
1.7017124414367124
1.6200009669881132
3.367173433558118
3.55390936541278
3.53906942898211
2.9910591143613985
1.4012185477203762
-1.4306215985432518
-1.3915229281107817
2.8685674209820813
1.962179234344786
-1.9905548939419728
-1.8358341796048272
-2.0923070960564343
1.6076570572232924
-1.8402220450244253
1.5147804390561697
0.5153995141170653
1.3321335587533905
1.1173706566887147
-3.8526803141663093
0.16640293960812735
2.9909583734654643
0.3948276941444817
-0.7597641480823021
2.7098505947679206
0.9416223850591705
-0.4065021307275538
0.7219447140954518
0.32297261544922895
-0.9414327761844599
1.801707035375001
-1.9690045916067405
-0.23204443284421483
-1.722221771073646
-2.6256642364227627
2.7341504787765882
-3.391710321336131
-0.17258596474737686
-2.2500027737362647
-0.8413735708002701
3.0408381785209633
-0.6992800164404644
2.9620611926979987
0.19474391520333634
1.9998791744713547
1.7274785137397042
0.49977651402542334
0.42523872291489906
0.18937051585862275
-2.1997578245498635
-1.8242598464760853
-3.262517998901769
-2.300313113037978
-3.588395274645239
-1.3440341156389146
-3.425138435340729
1.8650801673631272
-1.3412453957065775
-1.6912019714868438
-1.0164271902399047
-1.9818880652292692
-1.5284344814888806
3.0289252217496228
3.6110701648787558
-0.20269092810545075
0.02047124948900514
-1.3072596020973228
2.8124282140133
1.664290831255098
-2.939623787238697
-1.0987012264241944
2.0208632673559808
1.2866212252467086
-0.6331496196242442
2.667123826306638
3.538665260694045
-0.5573698965479479
1.4208601618875554
-0.29888941135311775
3.9047896412760497
0.10446118036771068
3.4982839330502062
-4.044223450802349
-0.00464110211732871
-1.6444106675421493
0.32046276401196794
-2.918889622867341
-0.9866747445139173
-1.2009375525366837
2.422036451791638
-2.5507311642465647
2.5235428511323774
-2.887284714216183
0.3923151853249216
-2.5956302825767716
-0.31049975912112826
2.4076053469482837
-2.853564914790013
1.3936343691733815
-0.13203732799218093
-1.9540763600850837
-1.617449818382374
-0.36387325274077753
-0.2822244336051529
-1.4253747906846184
1.3813087744714183
0.9853403347850409
-0.020923213391510487
0.4310339555124201
-2.6961346762470213
-0.3581171590925569
2.0791703227120184
-0.9233294506069729
-2.8553223978229543
3.372508376608924
-0.2786908796444387
0.21555142325554932
-3.504661604553666
-4.108252378402601
0.6126386450484262
2.753211736532193
-0.7243072510703781
1.0623853047945029
3.487550691338967
1.1527007447401116
0.5884908655368448
-3.428964785054832
-4.417303501405497
-0.156201180381917
-1.1461747305511185
-0.2649362225551566
0.7199114388234413
-2.658291055315507
-2.620396541937092
-1.9028902682921687
-1.8467013754014099
-2.2685305990237623
0.5243061469271021
2.463452956829874
-2.663277117040053
2.174339424122972
-0.39172027767762163
0.042480426903311885
-1.232034278388607
3.0924078257717795
-1.2701849075724958
0.339499288999884
1.0657892315167206
3.687674125342519
0.6422606576555965
-3.5358515275534237
-0.5638388831686629
0.4518522596347201
-2.151579153959698
-0.4933426677065311
0.6838894668273245
-3.676852987687267
-0.931510426612626
3.639201916035117
-0.0740821783795198
2.1462533798016246
1.2377697760467474
-0.4013901103181632
-0.837469959573327
4.09182789803343
2.1904263643640505
-0.7933384915072582
2.862715747673569
-0.3083167358366683
4.185526128852438
3.5842395311120785
-4.280054134304941
0.145955203189589
-1.5683884998911268
-2.284423792521236
-2.2653917357236235
1.5584921685387225
0.7660606514344287
-0.9811514743828815
1.779353035777248
2.7567184656774963
-1.3545187822882079
-2.4206303758386998
3.8035993632520158
2.352218035051952
-0.3966092099482095
-4.298369762069571
0.8334503610502142
2.698293059693709
1.3314313107504865
-0.5635650458369215
1.9232703885139575
-1.5992561857700691
-1.4596305150125914
-0.26061076710933107
2.215170992738202
2.038121983486208
-3.2428681015716156
0.9169810004829708
0.2626575223186278
-0.2522938974070582
-1.7858746819642048
-0.9834875281779614
-1.22531437720874
-0.6665500688258346
-0.012907719139962026
-2.1838721272170836
-1.0636219089333463
-1.4478466178951406
-0.4622485949662489
0.07118981275101133
-1.5373473593327467
1.2341062213692582
-2.1825256841180996
1.6732525120518775
3.5410079258269174
3.8944540104945826
0.08824519410222686
-3.622115813011527
-0.18027819647171206
-4.508462299814395
-0.382841882815379
3.7575847857048648
-2.4022917870384934
2.9884544839893135
4.400697604977456
-1.9639465362659765
1.372285161363855
0.37409236369638776
2.0750555289127
0.460052588495115
-1.0988975691020055
-1.2001124745751421
-1.8312672984757294
2.865120053894734
-0.0655206651399971
0.488552954779121
-2.1463247489666006
-4.908621666574787
-0.22559685046834854
-0.9289691081973852
1.351197152373525
3.9056923509376746
-2.1835627911363935
4.007918597198565
-1.8510632157457052
1.086423852424912
1.2307892137982055
1.751614666119079
0.18509962869525154
3.3270347305207677
3.938790308040408
1.3054399058511836
-0.8437647938537776
1.6147866870279066
1.0410330878997631
-3.1640199117941137
-1.8951998608924634
-2.2592109108658143
-1.1465793373660378
-0.005098983339847374
-2.5572444136212695
0.5976453848617493
0.7073764975387062
4.606487465888831
0.5674498232617653
-0.07905490946831462
-1.329537612157118
1.3771531554809533
-0.7739628099203544
0.1308556645960688
1.343658766002151
0.2831745820761462
3.7846800120113464
-3.0699395389436286
2.8915537963802573
-1.7071024891566844
-1.4412117111173839
4.314295512198137
-1.5383068497688255
0.07966492722380103
2.3605419697742134
-0.34826739954039954
1.1493398952036427
-0.6182809503427125
-0.5800496124302584
-0.5125385563300409
0.663894082601237
-1.3346744663395982
0.8356959779846092
-1.2706815465250276
-1.1467765962295515
-0.25263051225594635
-3.2879871651152355
0.8713139226101243
2.2421533067570563
-1.96632439613542
-0.8621486757439287
1.9109058458970756
1.74136749756841
3.0292998622263667
1.1645769989529593
0.6163730501875164
-0.3170318887484189
-2.2229555574212307
-3.0615446653895235
-2.199466099020813
-0.6610527033111175
-0.11955520805886977
3.144170975883189
-2.7429355469789334
-2.921182809359302
1.7674798103464333
-3.084367061110744
1.0156635047254063
2.3226519620881145
-2.1487452994161345
0.37031408649409103
1.5723149219307158
0.44578823185301375
1.2439060279205112
-3.0766237521938558
-1.2491015093705178
3.7914368034900634
-2.3200202721246694
-0.4621690623530612
-1.1476022729462125
0.9474545436256925
-0.6944677959278938
1.0669839926298441
-1.2520441697732148
-0.5564749735982999
0.9892027955529117
1.8454164637955293
2.5720290249370747
2.0250019956050442
1.8115105122936042
-0.3152495450324104
-1.3281128608605757
1.6596598632988808
-0.6113776502725827
2.4304497880847036
-0.5302869520753326
0.43360649062929557
4.686844441890427
-1.7640941016936476
1.8935484438764485
-2.5073941031101077
-0.01591387929021304
3.710059063665871
1.0333380129924588
1.1850601820541817
-2.365453423573423
0.09480514855043909
-0.3216788103786161
-4.437097891345945
2.2928740376625565
-2.3715640458749574
-3.6079784420635486
1.3966488203071656
-0.7459525358541077
-1.7486326962122978
-0.21891640506257515
1.8608633743999414
1.565231341157382
-3.1896002469766365
1.6142069715135587
-1.953721186940034
3.565853270689053
0.9177657537205137
-3.552569881783887
-0.5451685500755206
3.512152489685048
-0.378787888874371
-4.587991570604442
-0.36614607548641676
-2.0575458487427363
1.0413666461163422
1.8211434317120412
-2.894321349477389
0.4394131034031534
-0.8673586717645103
1.2518068750639206
-3.251097864663525
2.4454825971645624
-0.27608084696079427
-1.2420857161963825
1.78755841289462
3.7878544899756412
0.9952770292012243
0.8710954280584424
1.5444531102907058
0.5691217567787699
-1.4530059649108797
0.045312453229562344
0.11490802936337374
-1.9200844629022606
-4.782905818989207
-0.7984241903042157
1.1171647089241605
1.3897628367813901
0.8036744524572597
-0.9709922477801785
-1.324299947371407
1.2724174851359662
1.8482683881271196
0.6985032530605197
-0.20630004506088828
-1.8780855850329057
1.6364941799194375
1.645239811922226
-1.7290552447560783
-3.4844043805812754
0.5722391133023351
2.0762828029951326
0.32335416621394497
-1.9196402097191188
-2.9183724528953388
-0.14045992260804274
2.060441930183297
0.3183833956071198
4.2030252942193576
1.4503143983857405
-1.0230682015568155
-0.9514344261574315
-2.9806711311354306
1.511701690807072
2.614782479531416
-2.880054801650103
1.0887893326472602
-1.1149107300590408
-0.4481265505693348
2.0533401053482985
2.030622036296025
1.5670000196249103
-2.126399240126202
0.2674598193850688
1.4216511697439853
-1.6514648797335014
1.283632875024237
0.5457408752851967
-0.8397604766412154
-0.22633587229738383
1.0100765667993605
-0.5998463134872427
-2.5462466584239385
1.072612172398062
-4.336696355837028
-4.011766513843408
1.5858124482159819
-0.27340349282726084
-0.7983130924729078
-0.7604163800781749
2.6195752267159924
0.32015859667642355
2.1614966996355722
-0.15190015696221204
2.1933094541232534
-0.6626549056125377
1.3072078596800774
-0.21382961753099616
-0.4355026200130141
2.5579862845401693
-2.1415337086474158
1.997095647968235
1.058726794052291
2.7103225035366307
-0.5500333347815356
-2.0780177211475457
-2.9203838986333777
0.03622689473028551
0.9804883799517368
0.5173593588484265
1.8360266388165827
3.425277693346005
-0.4926560894802279
0.4197673135636495
-4.0571921324795435
-0.2260732437037074
3.3424860718125746
-2.086430069367453
2.0513283770709174
-0.7739835839287426
0.5065251965600903
-1.6417624415979404
-1.333956374034467
-1.0491065403754596
1.6969074498984194
-1.2686446495263959
-2.69665379833786
3.115371864398006
-2.0734972537689957
-2.056398517278297
-1.8510464520897374
1.7057912297622408
2.9888526711817915
-1.418049523295058
-0.6299204611579551
0.8564253672362869
0.9063284389083615
2.737347450159235
0.2386413457010167
2.3404863486359324
3.5174499581242893
-0.42689425371994805
3.2217523715347287
-0.12002264207311708
-1.640385602029017
2.29027711524484
-4.804251174572356
-0.06935685229497235
-2.996515865004609
-2.8537553354918805
2.940002648751275
-0.40173242822178423
-1.0047138768417034
2.182788421872742
-1.933230219381712
4.342569602474951
1.5632714505425018
-1.6801270916940703
1.5433217811517732
-1.8750537389268458
0.24458377192436664
0.4714087996777496
-2.037384761319767
-1.3436865770604447
0.5887888826508756
1.3392356156990606
-0.2812560007627356
0.4012944903947844
1.0943141974915043
0.5415784093062426
1.2434278249126107
-2.0049931481865384
2.534048984296733
1.732226139827822
3.459785723183216
-2.2713049231069493
-1.1736467034313574
0.36668336207578367
-1.3903548304148305
-0.23953662569601164
-0.39227168257942857
-0.22845581870461862
0.6106353168435602
3.7073534304342344
-0.33660289788746356
-1.826661011470832
1.0993160088675795
0.27502276314396923
0.37204373777365696
-0.6568961050954898
1.3165921828440066
1.5812678465984116
-1.6790351751185477
-0.48707706763450975
-0.00833690634937767
-2.1703528589055026
1.2478794364641002
-1.7793078056996108
-2.619243460130853
-2.0105494808764055
-3.5343498070031467
0.7393581442540342
0.6168987922179241
2.1382664962956413
-3.073836006855542
-0.2531231925153894
0.5269687645562491
3.1233980051978762
0.07962317567564381
-1.1068531813877338
0.07228876740826484
0.1983743210174156
-0.31450293168815646
0.9201646047410481
-0.4310012549694049
2.290812261186639
0.731382687179428
-2.0083474833668786
-1.155533067981879
-1.4421264026715992
-2.3839731476923687
1.8884096029271211
1.4859853950939463
-1.1144287942864413
0.7527576632775647
-3.2743655011249113
1.337999745293493
1.98817223561236
1.7495764828774054
-3.1515282362824406
1.4041260310429426
-1.2360508173755629
-2.677840286026319
-2.4379699794158256
0.31020044655744883
3.563528785496697
2.096021517453723
-3.647875723879327
1.4846161326580587
1.0270880688919115
0.4540848938040538
-2.7470118339735885
0.2121937475140423
1.1466484936985866
2.585916075975908
1.0182123780051864
-1.282161703729774
0.20971753734492893
-0.10513466523410564
-1.2488475348838906
-0.5637696873236558
0.2805282931784374
-0.08062899299186688
1.651061555969242
1.6238023170560782
-0.12487388664927757
0.9246715614394403
-0.46880532347437764
1.4692510279185884
-1.5134465196844662
1.3211796813132453
-4.234864280401962
0.8588339418702224
2.616381907862179
4.065764370716725
-3.682402348885921
-0.04729842130692785
-4.031157645184466
1.2021955107016584
0.5159448285694572
-1.2714850996822626
-3.536197271192597
-1.3030034258397212
-3.781311457726229
-2.351403034617217
-2.2751570053250223
-3.2730410430188597
-2.962795866723948
2.6068719043869324
-2.3013221194985642
0.5745652735440032
-0.7330777858174109
-0.6881640442102461
2.062177919371858
2.2875741800191
-3.815758621821103
-2.738183446206704
0.07323755326082004
3.259013701000735
-2.6345857480839454
-1.5312349722756937
0.5217407391015769
-2.116163706507147
0.6836557676894173
-3.9131654175872645
0.4368746460983858
-1.5515171527060705
-0.35927575602878914
3.10199373884614
-0.7929590097378125
1.4096079617291668
-1.3107744346646637
1.2389250418505329
0.7686146266557143
0.2182140703063551
4.201888890167523
0.24145832000761303
1.519800435444389
-0.15455317225079357
3.744066635890732
-2.3172099073017125
1.6158371536635716
-1.833699774945805
-3.6942945435345544
-0.5382633041511375
2.3017989652811215
-0.6425180901262744
1.149040887388912
-3.858725565096641
1.9392455876284034
-0.5343114810237788
-2.071735391872834
-4.714387153517788
-1.6170307919129168
-0.6974587234315102
0.7374137934542526
-0.047945175714353416
0.36408878558744906
-0.17756818575741562
-1.2572662611933763
3.49389088279488
0.5357434235668634
0.13952816830931258
-3.9442369923902483
0.8305790046494559
-2.16236861986364
3.3401906867631737
3.5033906465571794
1.3414598039454746
1.8356486572781736
0.2470484721931263
-0.04886304802678376
3.539255918135595
-3.307125743637133
1.2909855713433402
-4.1640939333591644
-3.320391882509585
-2.571847459964049
-3.3527123878558633
1.5644619647317548
4.462894735122112
-3.881474549796084
-0.207801379542093
-1.566123001710057
0.9845879496112371
0.7017590617051012
-0.3638625492384855
-0.2697982683150988
-0.909605880716017
-0.9647788297969644
-3.6101744253332715
4.661610154869155
1.2924296885240736
-4.132646127652973
-3.680426797191386
2.7822645315079715
3.402682174846575
0.3779956760692593
0.547977868189188
1.5631552394143922
1.0400063415074459
1.9438004518244627
-1.9437194161388547
-0.23383805447980188
-0.8330944140832046
1.7850032177872288
-1.9553656264087977
-0.7224121779685899
-0.18765179840519108
3.1497858067601006
-3.1934679234727934
3.0574168712892114
-1.8631308600152177
2.692487490424335
-0.7263562458397914
-3.1394572867763584
1.996206631838961
-4.298084156139382
0.3873150709539943
2.3862218086473916
0.1597249650439192
2.8360030004774512
1.4529757848403924
-0.4880028374029538
-0.6601302761368784
1.0190613881815984
-3.3662919946807075
0.2683471200968448
0.18891237439882036
1.1578857360560302
-0.260775825074421
2.2103041064594087
2.4192257328793856
0.3329536542404261
-3.5334930350006837
-1.1577011069260197
-0.7966525749083732
1.1209735134306111
-2.7516426092631194
-0.24752490821497286
1.0100775674299713
0.7050301385526565
0.8661037834942231
3.1127276706723843
-0.9671384806056399
2.4285774900628527
-1.0172783493897364
3.2007139196261067
-1.633292113183542
-2.550469811466212
1.7526120688325806
0.6000862626846546
1.0898918805879525
-0.8492983596325661
-0.3357077821078991
-2.2648006311569064
4.406693241595081
2.9628404712838563
1.772244433710255
-2.6034618729206875
-0.9925799712739494
-0.7434854844574326
0.47417619569238
-3.0868808391776446
2.8019679276903258
1.9590916833593606
-2.0100603372349553
0.628115278831507
0.18316257772033895
0.5530695621788306
-0.30163712541215437
3.333952035937332
-3.0238602852047847
3.1120027017364142
-0.511761002576844
2.323126992706213
1.2300090638351509
-1.969724063202738
2.279727519233746
0.7110020395724925
0.008053127721519893
2.102977614888961
-1.1275859284850487
-0.313182339133804
2.3327124680326308
-2.3878813012703497
-1.7237178136151208
2.3491809943965927
3.441604453025047
1.0754507911046627
-2.318156929607115
1.782275071903439
0.5108285578665339
1.3141303929977561
0.22567797016848168
1.0290422136232449
0.0018059377085921646
-0.5045174082583309
0.7076381682896731
2.6175885897533933
-3.2120949824998632
-1.1928891805581792
-0.5840429645187735
0.2970631455788463
0.21710074462448103
1.4186054314030465
-0.783478214774902
0.6392574560094684
2.2669211109063223
0.38709886240027847
1.062554514016146
-2.837820815247976
-2.0520733470800527
-0.8370808580524114
-1.9190454308121159
-0.3681513804086771
-1.8880230158198277
-3.64840831292512
-1.6084496625747113
-3.8014335113437636
-0.17846888877145584
-1.6115633165817242
-3.18448854719185
1.0239057328946728
4.436233501033726
2.7820167415050774
0.6291714546529177
0.054675290621649
3.5730354084334226
-0.4173199471232132
-0.4804906392008761
2.600106557707799
-1.9038989531490076
3.7324522428149196
-0.10245646063037739
1.3685129634582087
0.29274922860116614
-4.047474130396578
3.7258833644184697
-1.380328536896207
-0.6083202400051908
-0.17540288369207158
2.016693007071172
1.0891775790480036
0.5797352175571575
2.7223007856740296
-1.843685885830166
1.3410218232155984
2.6734482101333032
-1.7510074519216552
-3.7872008816752905
-1.7953593772376237
-0.39837681142654446
2.838128212030079
-0.6173950138772755
-1.0473121321409313
0.8552034293123945
-0.8275076800818986
-1.2673040553551331
0.8757806508431498
1.060674339698195
-0.9214773652484243
-2.6056917287015846
4.910467029085269
3.833249986094355
-1.4480166578701563
0.3646236009533599
-1.023333599368162
0.06609667481941761
-2.4287639336130367
0.07260309033094448
3.680832262121431
-4.18816003459243
2.354356980292451
2.8652313523252504
-1.9589106463531554
-0.0873915007805175
-2.2836460498689712
1.5704216061360943
-2.1094097338052924
-3.4651383810666774
2.182729089816477
-0.7071709812567875
-0.38465193881136805
-2.2347468811360978
-1.4843595576550195
-0.4011736341910028
-3.117210692784448
1.4237795917560412
-2.6910892300537146
-1.7531116085066683
-1.9827193438058184
4.250463700343321
-3.6918659580058115
1.6196370581168247
1.6788779834251821
0.6218237450447583
-1.887870311802741
-2.9862036996698365
3.501548010032331
1.9533769503641327
-1.088006134973197
-0.0556922703321544
-3.6528871521554045
-3.055570817530996
0.9239999635713301
-1.381144393879241
-3.168832987300643
2.8213985950199714
1.1725948500597299
0.739053193158151
0.7772171226993008
-2.2640746058134478
-0.720256187699527
2.7845376952463416
0.25529405092060253
-0.5259833644694414
-3.0831266145119463
1.9362266393528023
-0.13871158034279807
0.6324756359901293
-3.4243389181837296
0.7949840170700355
-0.10674206089990879
0.41886692530206737
2.313923358017944
0.051946068615627006
4.080957626548006
3.2312664691072506
0.1328509942822791
-0.7332415473899978
-0.47515680281219286
-0.8259531040161383
0.641841952070759
0.9099718516676213
1.500796352860945
1.6659475351590207
1.6671824489047165
2.8258493223250643
0.7868233029355889
2.2966802637422603
-1.5391750979648542
4.271832737364972
1.1679754672182159
3.0883203741849847
-0.8344855523566119
0.6909205859780088
-0.22425637948155175
-3.6822684763416023
3.1925122404484063
-2.626796041718829
-2.0818265397745512
-2.943721851620825
0.1681672403692973
-2.837185306731855
0.05695504860256495
-1.4169297677497843
2.1055846911187452
-2.6334670362551273
3.5877343346759503
0.8279956009851213
-3.5423570026239393
1.0203041795067005
2.0798971212612707
2.000785823176614
-2.292391751503188
-2.330082451294924
-0.3679239338099627
3.5623677602336836
0.15359593473929833
-1.17790650354884
3.9996306362448273
-1.3052488320155549
-0.4568691078957676
-1.7777680174189237
1.1503488147255803
-0.5743003019963004
-3.7859458723018027
2.115070854781143
3.904621971272375
2.5644385326828214
-2.6019722147653344
-0.35549573265896417
2.3163426634423336
-0.3953538488874413
-3.6571113837833082
-1.4511891767261327
-1.5492250839790906
0.750982491220916
0.9100971931015334
-3.6924570398127425
-1.784353475952202
-1.7745992927865353
-0.6964640132938578
1.8963255240108383
-2.098284913793906
4.009495458310505
0.5859057048221388
-1.694185247058954
-1.9109443245727997
-2.8208646996425353
2.6389675008695845
0.9810671058247631
-2.42467755059344
0.9876313712448881
0.22388469638910635
-2.662430023093469
-0.017769307727583783
-0.14631020729719957
0.7979105831203857
-2.489820590175862
0.6965146448406947
-3.5895991265245373
0.7436755014317541
-3.5087787513801207
1.8016048579834054
3.771511567865814
-0.3326803881627194
-2.1859999809116015
-2.3437195734563296
-1.8287649802862873
0.4217252269183486
-1.0620306294747812
-1.223457181443024
2.1338442418436885
2.511095790938368
3.491812170992981
1.6769626338982742
3.3293005572966567
-3.4668674567530124
0.5306806589024005
-2.6722511616648563
-0.7288316772703007
2.3150589329946913
0.9638468301875429
0.883791285565974
-1.9869363454281046
-1.6002567747923035
1.309013612884045
0.34192488113051844
-1.1057662161650939E-4
0.5381675776047081
-0.07046537579591527
-3.2173328306527518
1.2301045349938666
1.8444960398621784
0.9107962656663742
3.852678665740311
-2.1147214281251783
-2.7300103943019565
0.7320075671892052
-0.8558051896158858
2.5831821973674463
0.05201845980058861
-2.1103472722022922
0.12768206837800045
-2.5893385839416503
-2.2055767247372984
0.6288513913243226
-2.706034511742923
-1.107451299301771
0.8354720527637074
2.9388806361781667
-2.8379207240237805
0.0528574396878132
0.5596674864028461
-1.0308930786880421
-2.190909324494454
-0.2754864648098341
0.309648665217615
1.021577497113814
-0.4218548626043228
-0.7361301391993984
-3.445556861627699
1.2765228016080532
-1.3790144749573066
1.82625815389633
-2.0296844627642923
2.4070182331052274
0.9311930419878806
-0.6411755013680636
0.09046341791539736
2.239056745179705
4.524401363383457
-2.5330994839887757
3.1798116583680422
-2.386718525321096
2.421733145075515
-1.6898401557314198
-4.0088458634977435
2.6046279859973307
-0.9072905751401235
-3.315190507206993
3.058892980312225
-3.7438726460236884
3.0138811638679033
-0.5519336766197815
-1.8133746914486024
-0.016881001889707647
-2.0005659613155817
-1.5588309383901717
1.7848283490309904
-0.19587618013164487
0.9600156576489662
-2.932824801936661
-0.28510893508674695
-1.4453726246243177
3.7460354923787027
0.6797930331683477
-3.704254961270629
3.240023560757825
-3.268312929506831
0.9394989704427636
-0.8706591181531882
-2.3160320536539527
1.795943540143118
-0.7068103586278374
-1.5987754417562698
-4.371608539435981
-2.64322466724023
-0.2663799157188178
-1.6875401096847753
-0.5585753227187698
3.114840587591833
0.9948756977869411
3.2991487298426416
4.589481246785024
2.162898480056988
3.340130681311489
-3.304200020766096
0.0297527358133598
-1.8828052981351604
0.0979409812645029
-0.5012053751706874
-0.3206377752926546
-0.07292949846325048
-0.8966778543067528
-3.1138000954682292
0.11742997020691481
2.01904311766925
-0.8001368392509312
0.15018059111972093
-0.32370323168487225
-2.5683900923639014
1.9591242875816428
1.6982570117288724
-0.9218402586351604
1.5970249726511723
-1.2264283878620361
0.7796624042209965
3.7733665562421943
-0.5737023238391821
3.479295059878624
2.593046697728438
-1.8633781706747696
3.3536650602375078
0.6647625133825406
3.431778424022959
1.6773504584933625
-0.0032145292191194663
-0.17814038392668952
4.523093933160139
2.4204751395388935
-1.9110934862149298
0.49546290814936167
2.217345173013107
2.613850497656334
-4.660745942568036
-1.4121998007121923
-2.816406209463502
1.9186096757303863
1.8778945827054476
-1.0261549208538643
0.26780378294992246
-1.761330241093931
-2.0586789754466723
-0.41600418055287225
-2.3301179786962667
1.3456478538483272
3.455009414403002
2.110291156606599
3.0958151493260964
-0.5445618490176809
2.1691998188188366
-0.5075894735196647
-0.45884394568393283
-1.087302905744057
3.004149034118924
0.33970803644015835
3.3621057307726354
2.1394907865119057
-3.738893256400153
0.44553422836062495
3.290445074628993
-0.9956487665297458
2.3552634167509927
1.5500907454011394
2.048562801310964
-3.2320061592248734
0.7269208375431564
-2.491928565375635
-1.779168433202705
-1.2380567858585088
-3.4128634040889665
-1.982662021432061
-3.962418683878629
1.956321763218194
3.1540900022472846
0.06488083109554443
0.7279213424455677
3.5730462965579237
-2.9635791664664546
2.246315860324366
-2.902341632485685
-3.0993150523579445
-0.5802088723590946
-2.88483520825407
-1.011435638208761
1.4672261758618987
0.7129192737568552
-3.2818274634536153
-2.724760224041281
-2.2729945976240264
1.309337062506056
-3.5270913958264454
4.055826125602667
1.4180435579422386
-3.8788808327606534
-2.456096625523168
0.6928153889001926
-2.2539553327331796
0.540835422035128
-2.1264296227250337
2.360207253406525
0.5513050333346379
0.48797536788753604
2.0241638645616824
1.7532645774853082
1.6147806247228171
-0.8039035987989926
-0.012979933510635089
-0.3828849522594271
0.2595661234319704
3.3969432824321397
0.11533551416009136
-0.24954747276163447
-1.5959661246360328
-3.4422085434144867
1.3367290322248873
1.140583766196357
-3.777117673320644
-3.1717379075840015
-0.19816033326660598
-0.11392483797771602
-1.42765438456986
2.3528609195151886
0.1252096099264408
3.563245389391186
-2.664188035449887
1.6054881740880376
-3.625297996772104
0.6927561285506822
-0.1538961878028433
1.4021727011728036
2.9657045427734543
-2.037449338648044
3.5406670275064807
0.24827774762781152
0.616367129605
2.8633906260447493
2.005920508621487
-0.32356977296056844
-2.479873722992458
4.393239210217927
-2.432983732223956
1.2314211398863932
0.8917629524954442
-0.5132569899251638
0.5792589906148748
1.7583307182541819
-0.9567532095576482
-2.1739390155633465
0.5774365156303576
-0.3498754371756885
4.145614917483471
-2.3107087584531656
-0.5606900026149864
-0.2890266271432389
0.833136389533653
0.49274594971498487
1.7195144543399317
-0.7084554514528829
0.8060108550789593
1.6833230237107175
-2.689880715477736
-1.6474823295697343
-1.4121461408045284
0.6372259955328925
1.5840991518288146
1.1125707196018597
-1.4057846832095353
-2.7787185334771225
3.1779646026814534
1.9370912786035872
3.668385357659049
2.673104506365931
-0.4301962900989702
3.1238585336621862
0.24073369932236077
2.456360948914509
0.608982389881989
2.241948828012104
0.26783444056042915
-1.2526219320352978
0.15375699961435751
-3.3198865817876175
0.10762705096577241
0.20935250841378172
0.9730449224843318
-1.9391206049516858
1.4868609790824818
1.7104062108720006
-1.9313936976346864
-0.8233770575309038
-0.2829232593805733
1.6417395776856785
0.5738868817615594
1.1038652255997863
-0.6846290906976704
-0.5078670090262727
2.3857684724995503
-1.8479589501457565
-2.813801979135047
-3.6649556339872835
-3.314517248323675
-1.6970101628706953
-1.4795444538545341
0.8845569053107076
-0.4950677708491371
1.797420327705599
0.568105614340463
-1.223577796492474
2.4946737067587104
0.52459609514363
4.4405811324988305
2.7304523469010644
0.04981031071014019
0.8714958159979411
0.09922730009891789
1.2505086909346996
0.9500444371197986
-2.312305586937484
-0.31397182355201325
-1.481660307153293
-0.3298591041222365
2.0222180453947587
-0.6471312217932828
-1.8624854112529192
-2.4829500893990213
0.2886210009821477
-0.2544187528093156
3.3837063354039336
-1.2500596970437456
-2.4854639503114027
0.2990278009257641
-3.3824284999254464
-3.160607108377161
-2.6680536876553647
-2.500532260489346
0.5164774639252414
1.022004136162523
1.3644310231822765
-2.729540492370039
3.7813279751362923
-1.6933497949231078
0.6676328689496858
1.638548214514869
-1.025263923868292
-3.9113399172906167
1.8791990583890779
-0.16501068732836544
0.14679491948939205
0.5281502039517312
0.7344435818955475
-1.0102448126095886
-2.095304950063435
-4.1512312156223565
0.6039843796621907
-0.42592106586664924
-0.4175585762990397
-0.286900347445739
-1.2903998040798053
0.7477826718609291
2.1669162839309735
-0.169022820578677
2.6745630727534415
0.7676399755296579
0.6365404183972259
1.9569604723608602
0.06469096307308053
-2.3869741892095666
-0.6312176545441721
-0.5667810496120245
-1.4236244033322536
-0.014901437768346959
-0.7272356217929135
-0.5659233514783195
-0.47217029361416163
-1.1642297050887924
3.303217124486718
-3.9315322597046425
2.3098104619990947
-0.41729023398434784
3.0120311491058933
0.4965515950413182
2.4520626972632265
0.16663194220486321
3.7936560893784748
-1.7832614821955115
0.9617371385971007
0.10712219026501546
-3.5194009204043866
-1.3206251389512413
-2.4099715125050416
0.7132457673842856
-2.0547322164029307
2.383339326563261
0.6832894591628247
1.605192417801888
3.3644138399071575
0.6117986996972538
1.2748648099297153
3.703205808075165
-2.1975767893224485
-2.0366262087503464
-0.9261010772725831
3.84004894881983
-0.2302968705712276
-2.165034159201398
-1.9926329073344782
1.1532542175810145
-0.5875820497145439
1.0124926666809957
-1.0284224745154387
0.4134078640915164
-1.0101775238898536
-2.47421436402874
-2.550602530830598
-2.5552788111464295
-1.704557912001547
1.9238960691170162
-1.3505487634362074
1.7941358176089566
2.6783516063016
2.1270618545576983
-2.176458397882724
1.8052141450466745
-3.6791989119478874
-2.9884151003594446
3.418543150169222
2.253065350545229
-1.5715604776168055
-2.116131520473471
0.7190180893257097
-0.3034431327941207
-0.010613508537316463
3.9998636202843283
-1.3631935369047103
0.7040594717996904
-1.2415994766420408
-2.7138221753038434
2.3038360559329405
-1.8910203978249358
0.12239636502108131
1.4190917006946964
-0.875591753805006
0.45132535611503943
-3.496440470718519
0.4177370989780371
0.9432035405324023
-0.2384418609367006
-2.043693008725786
1.9076851509427941
-0.014737852844519117
2.842979692963655
1.6143481996439961
0.2111946842382375
1.2241854086600417
1.208903344388078
-2.3559081493140868
-0.5796304439067068
-1.1651884107970965
-0.1691377410638899
-0.6393494208937183
-3.3905218615659325
-0.6133877907542575
-0.14589958916314405
0.16269393094776952
0.3426811852637517
-0.5659366832750727
0.4366011408989623
-0.05760150589325619
4.633420645770325
0.160237664348874
-0.13210121177762035
-1.3732541499897808
-1.4882809190990263
1.7298703192354363
1.123926778701171
-0.4935823310848002
1.355637851026096
0.00814710185793821
2.014150784975036
0.008539953502268993
-0.8568526912894967
-1.6985348977431176
0.07723639205108102
2.5695231455230494
-3.219344921947886
1.776416160602082
-2.618497807066502
-1.7357496018034042
1.6644464741696072
2.2132429325912706
0.3864086425523552
0.8478649014394701
-1.3687159616309774
0.7500180542409116
0.02133098662594568
-1.133597546851527
1.4544164427746664
1.273795057979774
2.1378680838640225
-1.5074761110889034
-3.958750150569621
2.1149827466939057
-1.5080635187723455
-0.2574061386141224
-4.5110728652208385
-1.298808247860634
-1.588100823532777
3.7313577505070956
2.15406828804462
-0.17319568618089742
1.308979694253015
-1.379534196540794
-3.107078582264252
0.19451578122291258
0.18621143166056853
1.9170958385406176
0.6281725338979074
1.8850998441023477
1.3021720797613479
-3.2210772822074727
-1.601333181413031
2.4116453231272583
0.1457533005983429
-0.01831422649919201
1.0482897012010988
-2.985483027369339
-1.1217847572202642
-0.7943958929197792
-0.28974267809669163
-2.146712617269422
0.39877689453409704
-2.703111066207845
-1.7569315749404737
2.7518928050645486
-0.8100094091384287
1.1606043819213019
-1.225634447708194
-3.846739116504859
-0.9008475813174539
-2.058874452666554
-4.491044062056333
-0.06033852510556326
-1.7880018967830211
1.146443945441062
-3.042755702106051
-3.22497011752969
0.9749326177230069
-0.6274289013501431
1.740323891202647
-1.374487132821375
2.722046676106681
0.2842896562549009
3.1279789395947715
3.114486983201585
1.7631670839327533
2.508501890789801
-2.5341532785833243
0.36830019908278844
-0.810807010238715
-1.9035738401095426
1.6479894448386396
-1.9910140220297738
1.5509669494909328
3.2108906561362205
-0.20887250480638275
-3.049800786064172
-3.4320689425056443
4.694975629976439
4.266781777040143
0.6526259545376165
2.022818994377564
0.17825191808908425
-3.7524241482303484
0.4951151145001864
2.9986319354686297
-0.6231309515579841
0.9239502852119659
-0.08221663437850069
2.6141506599837463
-0.7562613317589784
-2.4524659798994786
-0.0066582196892390755
1.4142326245398928
-4.374932688906776
4.457429360176256
-0.9171036920649844
0.5711438822704978
-0.9205132917383936
-0.7543458858069974
-0.767530381702044
-0.9468236751530941
2.5160307429560675
-0.7820040780186156
1.966496987475037
-0.0831999458437771
-1.6927885751381417
2.3065255890895346
1.1345436113167668
0.8786010629151271
-2.46655895330013
-1.4099790496152513
0.46749542579781966
4.323254030970225
-0.9849465784397069
-2.421448707115952
3.499471788099336
-3.0962201794819197
0.7881713628040754
1.4184712504945436
-1.4882878278921767
-1.109661181899987
-3.3193265457146612
-0.825924904998729
1.1546833695729188
-1.5761906659242402
0.6445068256543403
2.3421618260994963
2.4046618092990037
0.8304003447859453
-3.4994011685174877
-3.2442412189405063
-0.4889632594451432
-1.8464498277067438
0.7526156900736973
1.0332576685936972
-2.409413565615238
-0.9406390915471086
1.125819043552149
1.7292086613516475
-0.47502215712897644
-0.728183919617134
-1.5127300147924867
0.34302578106037895
1.8177379957294049
-2.305964910624967
-0.1963690058532488
2.3418525634969463
-0.93305153164291
3.3718127398812765
-0.20718422973195771
-1.646163009520202
-0.2900875326865915
-1.544307005226826
3.925735621467265
-2.311932567219498
0.6960443772368059
-2.682171597246562
0.43439463126631317
-0.6625820794097179
-1.2557675672346318
-3.02012492082449
-1.0174176667203854
0.6205551559951373
0.8409233908889198
-0.9918278470478219
3.6554135130049175
3.6193531254023967
-3.3648194621477403
-1.96754309808587
-2.076034199494334
-0.4320292933952907
0.38696368252013
-2.955635808723904
-0.7587341334360735
-3.6501632126801686
0.12488254482929162
-0.3680371468182415
-4.074128615901698
-0.7412018591194052
1.669672042226681
-0.6934250602238817
-1.0106973778361659
0.18067494844244303
0.17964065920161998
1.078131754375181
1.563570387293518
0.35147824480744005
-3.1256581815786464
0.43531460483839823
3.585052316853254
-3.1514629915472216
-1.40728309461951
-0.11326976509397157
-0.6090337491733688
2.9707851495491546
2.841961802224568
-1.780627620620269
0.8846919416433163
-2.3355414247513626
0.9933657316699493
2.6306175362633986
-1.073810097026759
-0.8495468924319449
-2.7186267018952286
-1.1099935237516383
0.6037682100655202
2.9095920175371837
1.2621180052525123
-0.3129397467877887
0.04344612706011097
4.182053801926182
-3.6123205214125624
1.3213827576560178
0.41216723649629206
0.1372099347970117
2.3523134169415103
-1.1087035839191643
-0.22889188477466238
1.8701232201933036
3.8669028507075507
0.13726494087338992
-1.5646635759556382
-3.6190439688214484
-1.4821156495617904
-1.9036499682749102
0.49606467877615135
3.693538539996471
1.3668939634494173
2.7239536979800634
2.161754091652569
-0.7306525088378889
-1.0526112425979317
1.6390958596511913
-0.42568584532009535
-3.1268549737889164
0.3144888974822093
0.14947621429081503
-1.243348987260723
2.0465269943284317
-2.195706620561342
0.7125730821931446
0.34781193722816095
1.3456330142993083
0.1589182939060656
-3.010974688611396
-3.2180197854051387
-2.500735407240845
0.6735071679936318
-2.355449225528992
-0.4324352941660392
0.6436652033132502
-1.9785349837176818
0.056649550374574975
-0.6773610871647933
0.7902093765614127
-2.5858360664227447
-0.9176583276428403
-3.7770228395848777
1.6822526939409492
-0.24862754239540852
1.0431918566434777
3.518938110563852
1.1973917470803892
1.4186562359762855
-1.9161333028578555
1.7774468685210136
-1.548616652126098
-2.6119971783414604
-1.9395201300658549
-3.494676263455318
-2.240024447258193
0.2779182057731706
0.1149697898652855
-3.1897890505068918
-0.38510274691032276
3.0292457512992383
1.0917645923879795
-2.2446526147657755
3.8302593424662748
-2.1470412127112626
-2.04701836030026
-0.9355593531483948
0.015614584961857747
-0.8938246335047149
-3.6515893871291145
-2.167113117809038
0.531929195347089
-2.247354895074893
0.4965347650835841
-2.0984119642609533
1.0867128084592577
0.06395958644150523
-0.4671652216851847
-1.4503827290918943
-0.8754398536407426
-1.782264941160816
0.48162830846921967
0.16198128914225007
-4.830647672635251
0.4490179359441768
3.007696068793745
4.528731103482757
-2.7256319292551106
3.4111617576499222
1.1039412035865674
-2.5683299324855104
3.7365551998736657
-0.5975705247935048
1.8713350372063369
1.174909450731739
-0.7687879729250442
1.114565392336822
1.5473977385335993
-0.2844781486382222
4.523330066037633
1.5595917470839424
-1.0605365158824407
4.050542439661238
-0.08815435662290305
-3.1689228293103877
-3.5810182105961212
0.5165672796422962
-2.4369485918133234
-0.6438719403994362
-1.366896749827831
-0.3417999366517108
2.88941970699787
-0.7056476679230916
-0.9101990834559621
3.321595835083496
0.13008450165611674
1.7400464564874059
-0.22722363874577578
2.6293527416934768
2.289233946542653
-2.616146416361685
-1.0575987824891695
-0.5069983471005752
0.588663357387233
-0.7098528280065326
2.27894391868944
-0.6806574728854837
-1.409261770589365
3.446383989324533
2.524331446611672
-2.433120621597495
1.1480174095707674
0.7406819227304258
2.778696044170349
-2.1913972799934607
-1.6642139938544793
-1.9761300176623073
-1.392042257866854
3.9573694774632853
-0.4762511145158017
0.9122607897202029
-0.8813089832408654
-0.689870082717392
2.7431347861955286
0.987395395041613
-2.843472081823778
0.06725404289947345
-0.49454085611072385
0.0490114590169517
-1.2156551314331714
0.9832036511170648
0.22919886048909444
4.077483749627148
2.19648614066202
0.804803171300035
0.4306258446349509
-0.43801312790425184
1.2252708430624342
0.15335771571104662
-2.1649487094059445
4.850631938776469
-1.4039630555731373
-0.49313054840721326
0.5647301299018355
-0.8211761807946201
4.086968567000353
-0.06139950012883855
1.5596754624835225
2.032093433681153
2.7499601560285303
-0.731765411331021
-0.6123666299466404
-4.500349237948274
3.3487641280590146
1.2818858900232222
0.5994673970013538
-2.72508860805692
2.170675083135987
-4.322794967178964
-1.2137960043657314
-3.0407539966012322
-2.6320014005008816
1.3898339240972137
0.4939873269110917
-1.6747982601360247
-1.0144450609219424
0.9574571365340927
3.1531947880454845
-4.804553498389492
-0.16953156089144938
-1.4222984311875142
0.17796217965610506
-1.4063133983474052
-2.6595084229431434
-0.4838665967467626
3.3923695858140555
2.8238056165002217
1.6071145586843345
-1.4793967521658367
2.9395370286799896
-1.8665225950026714
-0.2902903600436897
-0.10181196001285375
-0.1701196249663317
2.618500904074139
1.516961181638683
-3.089018283152784
1.284777375952356
1.0241079610274246
-2.8881690546903807
-1.8530175156996633
-0.9681060555881528
-1.9005067732317187
0.996306798409162
-1.4776713850040708
0.7084208500897016
-0.838182108808122
-1.767810596551095
2.5711313527288895
-0.47153047946581994
0.5259344969694002
2.674161855254915
2.6791554377468447
2.370879363152657
-2.543914269496277
-2.548604872267491
-0.08240208345003985
1.4436846266307146
-2.704174605075443
-2.1460606395791397
