-1.6964913364486978
-1.9611972928677859
0.3450796608975234
-1.2217624776293237
1.642666611240705
1.4760717906770258
2.9290852673725434
1.3911312933606923
1.0656847085754795
0.6006597767082283
2.3207391923792446
0.8180426494998986
-2.908015411029259
2.1473596543409066
1.6491285001480391
-0.059633439295214
-4.169721524879835
0.16436975334493042
-0.6289689951353259
0.19685570826781962
-0.565644893308599
-0.3693825460748273
1.1123305923275086
1.6075556098310768
-2.1565807488703888
-0.39617239813965943
1.1493225351642098
-1.4539340645314294
-2.894032066430577
0.2925730224533216
2.0173601116330264
0.8485213214772359
-1.4883563570958902
-0.8111654169267144
-2.499142712664154
-0.53689693577117
-0.5304025373444216
0.6182118734096502
-0.08998547959260662
3.033140500364858
4.008334650984441
-0.6556114456012936
-0.4900662790162417
-1.6600439155738358
0.2574173940464453
-2.5196341146917267
-1.9082185463510724
0.4657850345361934
-2.601008298827793
-0.5566273824352095
-0.3583201789961486
-1.7457287800414512
-1.1446848415555824
-4.462467971621582
-0.4685361304734127
-1.966685462268036
-0.2525819233041846
2.8222156595278496
0.5097972301364643
-2.877163038129793
0.5581803519074316
-0.24377639948485733
2.2183975515260936
1.3017952608182908
-0.6585601233454251
-2.4513761842245607
-3.1229726273601095
0.7910480384993186
0.22143559148166056
-0.2836548655131944
-1.7153660232056747
0.2540006824501116
-0.1911991625358489
-1.3362223587074493
1.6356573965516221
2.2285551779545627
-0.21481192085669681
-0.44876327274383865
1.5718572395552513
-1.1395379144282267
-3.104071237046174
1.370791017212338
0.2549248954831012
-3.042058821003355
3.9730168965723673
-0.5754891699771367
-1.1522945042864077
1.0560169474697199
-1.610289610121298
0.2444292221324267
-1.4489679635787127
-0.6003171519755968
0.16635157210937646
2.509391986539012
-0.3991998840767225
-2.3062783056963703
-1.7149474153092625
-0.3545063350027494
-0.38852702986391935
0.4210498825730493
1.0271875186275996
-1.288265623760569
-0.5471642494364041
-0.371909375229645
-1.079342439455769
0.21664183245157334
3.6158149680882277
0.9372588680602552
1.6858460839326932
4.073830362926765
2.1393601894883525
1.830630751322087
2.2586836240523334
1.3009290485855407
-2.9684101062472448
1.654736641760917
-0.19011564563459615
1.287054311677172
0.09950657447170506
-1.2952541204092902
-0.7211960802087423
-0.24587328800715164
-0.3140137513454874
-1.201717821172304
-0.39652898238508066
1.6207798445939499
3.6499089653242107
0.3834635811833965
-1.7218676992218775
-0.398388234595452
0.8792017641737461
1.0512362038884455
-0.783861304145331
2.3921298756243283
-1.233138500196533
0.1828368175007306
1.6254620174397292
2.9025476428342962
-1.0901261790884909
-2.411975566801494
1.9139063690826092
1.1410999977071323
-1.5824125216443667
3.1423348422797326
-3.8051415139069427
1.6752030706705696
-0.7409521381850532
-2.9829452694246203
0.741798552576037
-4.539834588787724
2.626676830866506
0.6526751081182687
2.37301231723551
0.9226164863393845
1.2964233792305047
-2.228475791702988
-3.200766672633219
-0.8915642288874994
-3.1645973052525225
-3.842813021756299
1.490268939427872
-2.2406392848518153
-1.1852792147071178
-0.8977725297698723
1.108693498073902
-0.8330157968693026
-0.7353097037518807
1.98786498674706
-2.7937959968966126
-3.3819332777053703
-1.3701610553457348
-1.3316699086518662
0.09724749394557586
-0.685755851010217
1.4572075010204328
-2.6839436537516415
0.013279907337189928
0.554751849777073
3.4535144710431314
0.9199924705504456
-0.35236033760309454
-0.8467116860300873
-2.18426652794302
2.023021522053862
-4.111478556010507
3.6765628671444235
2.85019830978975
1.573360797999162
2.7580986303983277
-0.3051349387381247
-1.6363498228633004
-3.0581447696611868
3.017383793285101
-0.4158202792555158
3.0344978651866072
3.436745803039833
0.7871900908396036
-0.124468263132696
0.3467085999338814
-0.031791752416501125
-2.5486855980314713
0.9963292432357563
0.11858252731275151
-2.110756162193086
-1.6940025530506018
4.195141525299943
3.3057212886290954
-1.6304461295337098
2.1928465940018316
0.46268013548251263
-2.896664311084054
-2.0547602856960507
1.5227064764867162
1.4531498520497246
2.84102918991277
2.1538780259497172
-0.03203644506054253
2.0354523044242594
-0.7113750530614952
2.060488075791034
0.30219799731243013
-0.4307061927373366
2.9139285482565223
-1.4618949087032214
-0.4931446313481899
-0.6820927625957979
-1.4795653777410536
-0.8275242873223044
-1.1476208709808497
-3.4990253676349905
-3.357553638297703
-2.4612027394979283
0.5896144263972184
-0.8080176519349663
0.7365065727906804
-0.16979051418643548
-0.19470481584503838
-2.758134294273773
0.9499250096663187
-1.4178297244264377
-2.672600843636546
2.0830749679880025
-2.6685819001513322
-1.6251867284975339
-2.7848034984411454
1.9549296573155281
-0.5217074787064326
-1.6774826778470153
0.4993433951625664
2.9493664178494337
0.027487433135042632
-3.748524729004044
2.8201653346559272
0.1389967223703071
-0.5691900002606555
-0.5968240452863144
-1.8599434030489697
-1.2318004781299812
-0.67567706666906
-3.605237617975006
-3.9286505353182335
0.9292191485188476
-3.269008245022575
0.4972914012682842
-0.12409862842338154
1.5607900908027126
1.6160687429012635
3.755637119183629
-2.212105931997522
-0.5021521946588445
-0.04458287875474142
-2.7469809697789525
-0.2329635070803827
-2.0054117956934983
-0.18845694383911968
-3.1836151737109764
2.2283951505156647
-0.47392023156064417
-2.282903220890302
-0.5137877447268651
2.8414883141654523
-0.041177184164784136
2.5937232404917383
0.2980646084282057
-2.0118106946605248
1.7553363899019796
-0.18913746483703028
-0.6680130981291642
0.14774254151947894
-3.9238142377482217
2.331890293831161
-1.0528718343769181
-2.6595318026144494
-1.310458155572722
-3.2278134026776497
0.6884383077379038
2.433395704305608
-0.5347422592121878
1.4029228133847995
-2.635089212738823
-0.8796174819034445
0.33175684414901935
3.2601599723884624
-0.5710117042925457
-2.6026552417341198
1.5383166104184858
-2.6294665801738915
0.9752379501700003
0.4323862081043155
-3.955222602154049
-0.3495043503450053
0.07635590645788325
0.5629995603587699
1.9112336837382322
1.472446243082163
-1.8765020289203718
1.6198880541335814
-2.5039023249641756
-2.29534172311943
-1.6531326655534078
4.720141098329154
-0.6172799404154963
1.0065918061559416
-1.9050980657712155
0.22784434213916985
2.718598721735886
-0.5369439966766487
-0.22068680119894718
2.9751230281632397
-0.9607630793838644
0.015082470813903218
0.4841130124501715
-1.8249799757496148
1.2076609377651062
-0.08293215946485183
-0.33439057996795324
0.3868268425720397
0.43094576645444926
-1.2365255593563602
0.4535088344691703
2.783580318990195
0.1790651713393127
-1.8386485373704022
-1.2808737448793563
-0.790842468857534
1.84232378014401
-3.2968742997625755
0.1826223922441319
1.2472216131739835
-3.089732682163191
-2.740862308081978
-4.763999063940397
-2.284452121664781
0.6704712521288058
4.145044760725179
1.3755151742410632
-1.1922929051948228
2.097252905507723
-2.431351223492304
-1.9349053720523213
2.5619198006792647
-0.11867862312052087
-2.622100126377635
-1.125201177347301
0.4459688552840922
-0.5758303672845946
3.8334942719840073
0.7820988623617681
-0.03991693888565118
-4.4185867101933916
-2.504992192674755
0.3822008363220927
-3.8150128586174574
1.1338282135938957
0.6747696625291456
-3.037575299869851
0.036352977967873464
0.6529593943347077
2.760249078062448
-2.775121677098134
0.028593926983688567
-0.24650264068029717
1.8097361407458532
1.4965535642131547
0.3403377037372696
-0.5258780366115472
-0.3831407860660965
1.298550084687588
-2.5771202432971325
0.7868529356073898
2.8259202088845905
3.0560759205463985
2.3525290898793645
-1.1486060858785976
-2.808814094929178
-2.024008998383456
1.3744282400632497
1.875395064605564
-2.475234965857348
-2.3950443524450913
2.0348459148369016
-0.16725753442170826
0.520601941534739
0.29707392203501076
2.1194700806894784
2.356186815369432
-2.0813220081938373
-1.933933200700402
3.8034996897398514
0.8156865942500108
-2.7184406197185926
4.049190128152105
0.4158069036720867
-0.3101302164454445
-2.2544433036587423
-0.004163413366797686
3.0448598492448706
-3.3623508515915
-1.870275381294749
-0.9311243334424298
-0.5769118996354055
1.4873204217352831
-0.34486219683037356
-1.5839170767354793
-2.6617864753807194
3.780993423968688
0.6698014306850366
1.6198862156971394
0.11879961045494537
3.767733000053737
0.8713298512296882
0.7362961988253314
1.1983884199538832
1.7045222289350783
-3.0159258990613074
2.826386261355453
0.4558385100675168
0.32462899777346793
-2.3168952588402867
0.7543175129817494
-0.5594408005757419
0.23550366365716438
-0.26001655803102863
-1.7736773969823454
2.9301933393747994
-1.8064602927677627
-1.8630822433382257
3.740300113180072
-0.8773173202208134
3.043995874392118
1.9588992743229625
-1.5627366872250683
0.8654094493008081
-0.8375527857423322
-1.1460740834371108
2.6016763389472066
0.12333736718516417
2.2748797096842157
0.2967372837907891
-4.205483016837741
-1.7424343630856405
2.431492167371266
-0.1336997563478954
0.26002639092361146
-0.7807805600125548
-0.8406046830910304
1.9811500439206708
-2.5508943227430185
-1.8085316442341448
3.321773219268971
3.483733858390117
2.912164549917267
2.8799456916385298
0.8910347801575406
-4.697886504216502
-1.114805777659951
-0.09596176072374916
-1.8665286363704312
-3.4138832100844057
-0.4188006815631572
3.56766843811588
-1.5916845794091468
-1.2767755011641322
-0.7182697935848305
-0.6272069108181911
0.020268697397726864
1.4624639507601032
2.6530024727663815
4.649480491960644
0.38931136862422006
3.5727374547639332
-2.5110187282818552
-1.4512489677332523
-3.9873690038269864
0.3407987199608959
-0.47184769439600294
-1.0660110189441363
3.3079184825334913
0.3267157593520884
-0.7695530444625133
3.199871795884935
0.1448115578349177
-1.4961833378190865
0.39647774167064864
0.7480053596198407
-2.357855649233984
3.5013138876166794
0.4230571235287443
4.230500910722749
2.6243156842486903
0.8733483159917207
2.067816517765243
1.731734991226746
-0.025995479676141412
0.11269665638241695
-3.4353963155784784
2.7880141260812428
0.1300662471429323
-2.5962667454871817
-2.0844653228633483
-0.054215407169975846
1.4695093446285994
-3.2386809064194364
3.2271698196233407
-1.2639527265972421
-2.750945750546686
-3.201581850404797
-1.0913629900743447
-2.0436317744588397
2.2685050841264935
0.28496231171352726
2.627657882919523
2.980161817978934
-1.1638118620520452
-0.8555357008821778
0.7546515278016532
4.211460539691709
1.956657019163959
2.019690583397714
1.3099192530880255
-1.8703813919842052
-1.2883983206568317
1.8244957155946482
2.089583177641532
-1.8344530628847742
1.3128989138411438
-4.352982471459164
-1.0855092143352063
2.9307037926855726
-0.7407221714980582
-0.7525275890704032
-1.1817288470861593
-1.099396712296113
-0.15973113590181304
-1.3529583074011131
-1.968106255935283
0.1902525667763825
-2.788216759040323
1.024894963281123
-0.46481851802098645
2.4348872868518967
-0.2608142274440426
-2.688791420962271
0.16545354898362039
-1.6000306715047283
-4.506173578715044
-1.1343899202723509
-3.0363835850290246
2.563441460882989
0.7248205780039217
0.4303543775494658
-2.2162699422876404
-3.134468597252006
-3.827507568620323
1.9469565342155355
0.678454320644505
0.3151525566099342
-3.957285250967247
1.4299064578288967
-2.5500589072727404
-0.6019430133926702
-0.49575722264652544
1.047279180427308
0.6210546805998307
1.9873160221486776
-0.4477922927535043
-0.7081081519864696
-0.9362320415774924
-3.2332592256908472
-0.9357019730931845
0.9682959421900733
-2.9728791013737723
0.7994200095292504
-1.0837790329083863
-2.1466977537204817
1.242257264912222
2.491382689994968
2.9758486988524657
1.9363413028063594
1.2633986096696423
-2.8834361597761804
-0.13201842604371858
-1.0518038749970908
-2.3736707169225513
2.540485245023899
1.247610325088214
-0.6973679433324373
-2.2536865018167993
2.280685732953682
1.5870529763829158
-1.1071238973010344
-0.4783698425955721
-1.681494615503482
-0.8397167497628532
-3.013141645383796
-2.8687579184593086
1.0280945194661255
-1.8343741860460412
-1.2617701926925857
-0.5565791990268417
3.4651463093145787
1.80160546545541
-0.5800980957042555
0.29354218491936124
-2.4871601236758134
1.156645122101038
-1.9862489805142018
-4.153569208604331
-0.8984025614004167
-0.3186441857941602
2.1796771575337823
-1.2572696498956586
-0.09043073645126376
3.2332811463728732
-2.8173060913512216
3.913088048029216
-2.2043265785053405
0.38424250852014796
1.1151176033038985
0.8887391043831641
-1.4266375146029915
-2.0722573623957685
-1.4579910086589536
-2.5503828405281586
1.0273484567878721
1.410001427928511
0.19017628923204039
-0.5064936990945196
2.9621264267936427
-4.519552046373492
0.8300965735572126
1.8850705482670236
0.2793205961588827
-0.974058233245302
2.7855864237727777
0.22368235409031725
1.813795991475877
-0.23669757706985156
-2.6248270928858095
3.3254390985052953
-3.2499112948662603
-1.7204776566347844
-3.3158703310945485
1.2509390696765574
2.4051651344179357
1.27633914308799
-2.119535096861845
-1.2346016129094923
-0.3975434523939042
-1.0259925406566917
-2.372531682613396
-1.0052974086202506
-2.1359051968271725
1.3589667405147126
-1.2812760296732746
2.2994782254895436
-2.140748806965141
-1.9135235278945661
-3.552737030743653
-0.07915157232899644
-1.5108100740279875
2.291751448388546
1.9318925466481267
-2.4329237278856706
0.8568546256932784
-2.3527949888821094
-0.167597028800021
-1.5209214372107964
1.5024680043990453
-1.3207866847003298
2.7438397603954967
1.1337058171890808
2.3157554637632036
-0.583903087665145
4.634932567546141
1.0713054911326936
4.354210019452698
-0.1763262567062919
0.6873274038243614
2.0671981337832106
-1.9994273282558808
0.20342131474064815
0.8308099293632962
1.1577575879331052
1.7213586349967553
3.214280172687109
-0.6578024458468555
-2.4045431604058796
1.9296676419842846
-1.5914515009141605
2.9755254853212834
0.46068892629943115
-3.966434828889892
4.134385059939206
-0.3429336654221082
-0.17571589012589992
-3.710111068101403
1.6669779301420236
0.452576674127535
1.2453991705309253
-3.3816000052471127
-3.6622207659457895
-3.164989399759118
3.5678287006049856
-0.19102051918258378
0.5971195260220427
0.9752035721141341
-0.30955303481040414
-2.573751148668125
-1.1929137342355765
0.8797174630329754
0.3007159237320875
-0.1902322746708532
3.59522680587607
-1.8391034282599068
0.330013836062682
-1.6144412852595875
-1.3423313111176784
0.6618912305625749
-1.9205577723447864
2.8374911133855827
2.7728237368201576
2.1671208800324484
1.710110120419887
0.26897792692288114
0.04704343614370515
-3.3652285242281437
2.902249296949074
-1.1379132647172627
0.9515559780943503
-0.6703531563777425
2.9367023763977804
3.2620230987265786
-0.6884088046145022
-2.8915920250429368
0.5394535384342014
-0.8857965236672372
-0.20555559141786173
0.2353078123516629
1.502915098359346
-0.9534022953570502
-3.954179774470113
3.1401632092684832
0.1505961687580572
2.462845749193461
3.9713084295411076
1.34825741611114
2.108499034962331
-3.5009426354633044
0.37296133732609704
-2.992386426117463
-1.4477122741624404
0.427427958225295
1.4578354816462284
0.31803092531888993
-3.404835895904004
0.9975470799212243
-3.7174885778908346
-0.726290728195608
0.7009732005246947
0.7956875836648
-0.05665028020006619
-0.1280438633337153
-0.0020457680110878393
-2.7066680332871895
1.1156168639098845
-0.5408403103719317
1.2936462484580145
-0.26100752889384304
-0.7157441170499924
0.19227039587963465
-2.339076989369037
1.0696518089895406
-4.041885293973701
0.28449853607962416
-2.5633932187121227
2.6845068061733146
0.08108023329971402
0.07610690371127868
-1.5395608312643017
-1.1461317450403106
2.3892227259799244
0.535085868002266
2.4193075677783225
3.582391850704344
-1.6038713018963717
1.450958813567477
-0.8808976902543628
-3.1379903965774907
0.15727460097714657
-3.504352115864993
0.568652626105585
-1.9988398029234715
1.3990705557472518
2.7707214160053115
-0.371981216729651
-1.8326506446691808
0.9369953320794282
1.9923416440345147
-1.7916062194792892
-0.4200335958739756
-0.6601784981977423
-4.27638173639301
-0.278513328659213
-1.3979744432331116
-1.6522588300655832
-2.978661034171242
0.7135782180783861
0.23923993084738848
-1.5685166147687173
0.7387558626863163
1.4967573534262948
1.1635472510195903
-1.2197297576313404
-0.017062512712875687
0.6437913063676229
-1.113763940757237
-0.08436356220847276
0.9431318167964295
-1.887067198451686
4.1081707246142365
-1.3620342329278603
3.4875117925790247
1.987162951160943
-1.1789702845851568
0.1871493178005244
-0.16087037658782122
3.518939906607051
2.5399980212129645
-2.5562846966830777
-1.2334330316160413
0.49218333293601463
-1.358572692053101
2.02343999206735
-2.5376436466417975
-1.5499187788228566
-1.2870462260567042
2.1268953683404286
-1.277031740601625
0.08774344773634925
-3.2721143791205893
-3.0756161412670338
0.2696520604625084
-2.775473559737083
0.7899892772587245
-2.5913563509811155
-0.5782553242945646
0.39775734928304246
-0.542424057729439
-1.5011635247001527
-0.6093702415195266
0.9729074355449863
0.2987169602665719
2.245589981110893
-4.555438596522004
0.3719369263333534
-2.180405848881758
2.0080582332355372
2.7619840199293093
1.6636723114102234
-1.8598669394546081
2.3995284297044113
-1.4528648586431194
-2.0320136804698055
-2.1740621098612416
-0.0666080017404566
0.6386706981493792
2.5486677955548886
-0.8129305745377426
-0.9227390725814897
0.07803717379079075
0.9596088929094688
4.344155893601
-1.2795258465859927
-0.1977244515272097
-0.7415121680110398
0.5054661498846847
-1.2944331385845897
1.9967004397376598
-1.161604233488879
-1.350562930792849
1.5263775872114458
-3.7031551028228784
-2.612817130896165
3.1335441758995692
3.7297328093671642
1.348981990061181
0.797802213911761
-0.5505994482939031
-2.8623255691457854
1.8328034064755796
1.0540920277299348
-2.5326572911283716
-0.4401507276103789
-1.46297595209
-0.20153500071495692
-2.3588143814749376
-0.09131192345137525
-1.2726110181759007
-2.5484903940444155
2.2830094276018595
2.6154615174157234
-0.9711225367280157
-2.235688371046442
-0.46244076046016347
0.9276850841000075
-1.5328888145326038
2.603574837083774
2.239837065100318
-0.5788085100176154
3.6639166314597293
1.8389487721720637
-1.171952807457976
0.033766172343251806
-1.1577668121258746
3.17400474527621
4.139634523790579
1.8239161960335841
2.6936351943264714
1.749151468793603
-3.116959966555693
-0.7933806024994832
-0.297963481560422
-0.6193138166665118
-3.411738972115155
3.350653460604154
3.192162309509625
-1.7404562462195132
1.9839648895935327
1.8841237170245626
2.2800883787493373
-1.0087598837738085
3.478254237861794
-3.503600083723684
0.33754424598919874
2.7350036776516187
1.8855769440116286
-1.6385570202353348
-2.873120209829767
-2.577936019154794
0.8344689167942533
1.3357105999289185
2.0143602931885263
2.756920232714745
0.10695302802939487
2.446867373959345
0.629087168704895
-1.0657785593476745
-2.585866245654696
0.047313584800491554
2.2092687859986695
-1.1169572104026617
0.7298680472157313
-1.0665220274437262
0.13420268526193999
-1.0929629271047399
-1.1965860367714554
-2.38025764532214
-2.141203969648706
-2.5137956545668065
1.8748078851767722
-2.522881167196033
2.637045161340124
2.222551533918175
0.2133611280498721
-1.3831739611115517
4.4181626415128985
-0.3750184804776293
-2.2857228784778867
-2.6552629160809755
-2.8675995838054558
-2.260006702885367
2.776536971574381
0.05000064851266592
-0.09445991782148198
1.174835262288785
-0.8972412610279688
3.349158427895805
0.43624075641389237
-1.1517255240522637
3.4216102763458998
0.34676839982162705
-2.3056073985493537
-1.2186558818764348
-2.2171946535796634
-2.1447643236015743
-3.235962454818754
0.127634643329822
3.4827906985864665
-0.5976607479248551
2.6313186820216203
-2.803939298840619
-0.7896866358983821
-1.1096269835004737
0.7141564787289507
0.15175976266134014
0.6825016521291084
-0.2690769358700686
1.0863602997122244
-2.460125122363189
3.9501503844244885
4.335648315688304
-0.930558388612338
0.22164522560298763
-0.01915152158768932
-1.2767472136262614
-0.6631688831002269
-3.3520959434345983
2.6790818903826374
-2.7801986621030848
0.9642755748295823
-0.5783379656689354
-2.2498401196519726
1.9585269874457787
0.6781230818969377
2.669427164004736
4.775368715664651
2.110734457662795
1.8044519753556447
0.5899341269708482
-0.25982448900443633
-2.3406471081468974
1.0428962646265232
1.4865894505754418
0.513661671216338
2.5843276663735013
0.6842351689517581
-2.530846304079976
-2.5037407371346387
-2.774519655304036
3.303276522774002
-0.46387917459553324
-3.1681163447451772
-0.19571467870811302
1.5028292740095608
-2.082582197674952
-1.5018701395299756
1.8005885105214068
0.07439876245605359
2.5049892907069204
1.7042172541781573
2.190061084677485
2.57931915708432
-1.776413740532645
-0.2210754768462968
0.10064631694045151
0.2212423285904118
0.20267689929325966
2.1497795720676245
1.1724366770705184
-0.14831409506514903
-1.4676222033267148
0.2713195188778078
-2.9491126032656747
-1.1649371880330301
2.5320914634283365
0.6876556247418326
-1.9549648247327882
3.7975051920836274
-0.6815614023509664
-3.4741033128271592
-1.151808165271797
0.8966383178890003
-3.4802216562334616
0.6494881729421572
-3.070454379637312
-0.23532667105143099
-0.9870800141272904
2.3005203783009005
-1.1753992798536161
-1.503654268556919
-0.5287555550894137
-0.2008549858527666
-1.204650779140742
-2.9109414060944125
-2.3386503131799543
-3.464684569468021
-0.27560326410686836
1.6449072339480872
3.19702349847054
-2.287014663088142
1.6027541847020856
1.6407946537130047
1.7489174759692316
0.021174141964732652
1.6413064887438684
-2.296866746640363
-0.6278975268552262
1.7569398451474136
1.5406282944468803
-2.913942447040709
0.037390088840423975
0.5974425480729901
1.4365359550391892
-0.6257825071019859
0.9229822563410505
-3.4745894742424723
0.34645276351418397
-0.37554515973356545
-4.43333530529809
-2.731206666675903
-2.1051368966718678
-3.6937245276184543
-0.4404806811110653
-3.0534152809679407
-1.2785340304755124
1.361716510415659
3.603083559370091
-4.113981289764198
-0.5142280484926184
-0.2217513520821545
-0.38621125399864425
0.8514278846037495
0.5761421607533839
-2.485897497244925
1.2815844932409568
-0.09379587113797708
3.580436606553272
-1.470593613950661
1.894580352999432
-3.459316766270395
-0.24789967510891814
2.0879312622174595
1.8216775870897577
-1.6724416092681123
-0.2973145247285024
3.117519918866369
0.6983935332905308
-3.6537537765840398
-0.2640623444191876
0.744469394031753
2.458477129420755
-1.325675827604821
0.5668263526732404
4.241213571680715
-0.35719890258744263
-0.9008437426590038
3.3075748124689603
1.570401644852548
-0.38071069092410276
-2.197160845907768
-0.5868858962605047
0.2679105802064254
1.1924802103341041
0.1273965685140307
-4.594191965227752
-2.7416598897580933
0.18878583130300486
0.42133714484438584
2.609188235981072
2.7206187381428073
-1.6165448259342803
2.721953001848189
-1.0274456329207133
-1.1498036061915058
3.919551663617163
2.586588175367441
0.08151766231725618
1.4875790227642927
1.990051527504162
0.458334079805524
-0.6030421634956228
-2.8823287481873527
0.33474646773059835
2.4629881405655896
3.3295221339683856
0.8649812703423515
0.7668290679609259
-0.30204709679949354
-1.5575386228173143
0.5657364933276204
0.011951180887620315
3.1519112094064314
-3.240804334685946
-2.091062816338806
-0.46875915091583326
2.7309321051072795
1.6498887858639173
2.008843038787357
-2.9579209679263916
-2.8856017710839064
-2.531002162684746
0.7421043449465399
-3.4611654247877133
-3.8135081429445097
-1.9069360390937575
-0.8790433886966481
0.5375762924414512
-0.33671947858019907
-0.6821283919596292
3.750933843913782
-0.5032927400818761
-1.3626734621426666
0.3054150436580633
-2.3908915816145893
0.7716076539465494
1.9120141055182382
-1.6834821621248286
1.6035484734764758
0.8127022772378175
1.5150322767881865
-3.8663297411407256
-0.6795515246798883
-1.375465951601825
1.0729399185823003
3.6273909393553483
2.3239983567207974
1.7075696049213716
-0.09976132136137819
1.2487863766445204
-0.7306865358178194
0.5949939644578291
0.5606159482036897
3.306747420388132
1.518773756752992
0.11328025140420359
-0.2939031324896147
-1.793159155323643
0.7392745242842125
0.3205609116512707
-1.8872741906674972
-2.1310273101375468
-0.603613525003254
0.20558814260105046
0.9207602054008286
0.9917146412689438
-2.0131386107907296
-1.2426284027075856
-4.898992527049234
-2.1624615960672005
2.047734571999385
-1.0468080703313187
2.6288953937612476
0.5740374964709728
-2.4390686988813015
-1.567487216398929
0.08645362078491485
3.479120284660952
-0.4802978498852143
-2.119742689920314
