-2.3303650881094002
2.6742606827931827
-1.4097407653932068
-1.6394360872462406
-2.7282906261183784
-0.46345309044339134
0.2723754353451587
3.2819612065539756
1.443094966967764
2.185145654306475
-2.1089336144458732
-2.323208785608467
-1.638759798315202
-1.4486821850089526
2.1120918441938628
2.2128018087026344
-2.5841946778716585
1.1236716566359919
-0.05976408556525486
0.8141859704407975
0.9752656918627209
0.0612588250905937
1.7057547015155914
-3.3955078759022332
1.352958414882617
-3.751758183842147
0.655369093970489
-0.8686323762150969
-1.0778271499296925
-1.3883244100918812
1.4660197379261541
0.2640764513087086
1.3002407299362708
2.2330582548368474
-2.737798071937112
-2.0295981843881536
-0.9978393071304344
3.4645884112837595
-0.055079494810647125
0.7757838074876091
0.6707772363341159
-1.8128124994593509
-1.8966335770327032
0.4590190402304369
-0.2310747033617081
0.14369557487961762
-1.468265502547395
-3.2444395603014344
1.3953885984723917
0.19345708883221122
0.1929260256185761
-1.5972541546835064
-1.2200230129776128
0.7897685664832703
1.0627714386872333
1.0705311516732936
0.45683090831579587
0.996217516172045
1.6282950476113514
2.038562911390537
-2.5135712651207003
1.6128053644973253
2.3470665581246126
0.265196277856813
-0.41919294985838185
0.23000971686455096
-3.911209506694876
-0.39210083828738207
-3.3425452774826625
1.2437580788856066
0.17587688350256564
0.28263876118109155
-0.9291411082784977
0.6025261337938469
2.2717687431110973
-1.1428517487067675
-1.5996041132513172
0.05723395497558765
1.0882927461734002
2.299088308155246
0.09722532469022462
0.6463255353953691
1.024940470075017
-1.3809661791403416
-1.990304934504884
0.7816459908907862
-0.138110643537423
1.5877841928386387
-0.02298067501465236
3.058813305169013
1.6013873925178561
2.2974652695604325
4.116540234559359
0.16823148033582058
1.6532549693541077
0.025267999884295293
-2.8706911868107072
-0.42599560784299073
1.2191392129406884
2.3588082204607432
2.1137811355115357
-3.409290819883575
-0.7818204218750092
1.7768220611756276
-1.3691373346855789
1.445668724007399
-1.7373480871236326
-4.763157672206936
1.5665263105248617
-1.0743505619322409
-2.517358046095845
-0.8562425022269591
2.105363239293663
-3.275097601565438
-0.8283174944718247
-1.6501277226444826
2.107367655103948
-3.5727315370502133
-2.663107570370548
-0.665601428140996
0.5229402070899835
2.711254121286815
-0.9818106460985666
-2.5765119167492943
-2.2795402996840495
-0.27358443311130143
-2.1699855669969534
-2.182783727424702
-3.7201284479938255
-4.538247899067287
0.06187613704267996
0.25264303606261684
-0.005026368793002413
2.9625354130014583
-2.99996317541989
-2.547712231547796
-1.6691257685883494
-0.522756259387632
-0.027327262698873995
1.512619687416307
-0.4419295252231237
1.8526323386741492
1.236752073155278
-1.058903482779759
3.2144351598716803
4.369684305482825
-2.4215873862902484
-1.4547699892304344
1.43706046598533
-1.965919712129007
-1.5133410822275015
2.164993254632975
-0.49107920890788737
1.8608122552130535
-2.1571387572250296
3.3981894475575154
-0.954820919336488
-0.326885899833121
-0.5335233331702853
-1.320402254895279
1.053592747592172
-0.6981557669924213
0.3513156287134452
0.9219523458430555
1.1118659728247928
2.340025477108038
3.2620972423038173
0.4400136169382727
-1.3787256691266505
-0.6533681606885406
1.1204494325611014
-2.1517313627517747
-1.762523271703498
2.080432858822506
-4.169872382264673
-0.6884814566103692
-4.812103656755039
0.1802791573538133
-1.7177921667115708
3.0947791656290695
-2.830137329436623
-0.994481197817398
2.6208687569415985
3.1751118229546282
-0.11798889419588635
2.5965129415773367
1.2979654617821628
-0.9076770047730286
4.123533374784792
-3.1760524190224193
-0.7178028610669666
-2.54666807543362
0.6079051741940623
-2.4135120585386085
-1.4045366979118101
-0.7722098852476753
-3.4469607829765203
-1.1613215167416568
1.4858944367455236
-1.5440242781279419
-0.24764205799987005
0.2784880773084948
-0.8979362348263821
1.4143906725472861
-1.4493363856634043
-0.20530158940213994
-2.0751604831504373
2.101658677743081
-0.6285097962830569
-0.059181749371763404
2.036009321644418
-2.3687629547641524
-0.17882966464289113
-0.9803041993734298
2.141554480859937
-0.5498506021581262
-0.9315639666452723
0.9772852339891602
0.5640694131955988
-0.33357475370664535
-1.7386493952195785
-0.6251808676352522
-2.1823683050913227
-2.300576476726604
-1.8896154344878435
0.15128564065361413
4.085653851022379
1.2069603989987852
1.1407312570761083
-2.3398809777727587
-2.2050037769746544
-2.343265034695319
0.7564375653578078
-0.1310823622162021
-1.4337544489219913
0.13385075194853013
-0.17578745598660983
0.8843114067015432
1.5856016938850692
-2.716562961414293
0.4582582497232814
2.485233169507279
1.311724697554469
3.1786437851530347
-1.7907280612129477
3.326860784295296
1.442781714197602
0.9695943829871335
-2.6707282712689437
0.7544212388322526
3.6292978687446484
0.6175050718363121
-0.4027581786339767
0.6102002353332692
-2.8259843820575328
0.48514385191449216
-0.5029425586477404
4.407484645851711
2.440149080116032
-2.382407704536708
2.2746739993369656
-1.120542593736652
-0.501146120744545
1.5422382015714164
-1.94184532993895
-2.2542866715312755
0.4215031284649895
1.4639944996429812
3.697246420164088
0.6032453871914102
1.704081091519298
1.675568429253278
0.3051038922529832
-1.6021745892058485
-0.35257192176027086
0.002037042534327437
-1.9051478319876705
1.2882021279120741
0.5206080487189083
-0.8215092851392305
-3.1595403955975865
2.185926952682291
-1.1711785411264164
1.004532155115913
-2.0432720601574417
2.5319749997176975
-0.08349435372534054
-1.9257109686766798
2.202299021220479
3.834797081044216
-0.4213350852938594
2.8561706008872485
-1.1863036607919786
0.7642680839775197
-1.0712359320322937
-0.7455405520541094
-0.7449599684554264
-0.5720807521471889
-4.662242814196257
-3.8976719585274537
2.8526445813885246
2.396424590533529
-1.999752115224454
2.724026508827306
1.5792442162048266
3.9029230805617128
-0.07897306784020058
1.3115643217471766
0.9921064461851393
0.10228047895733795
3.730085757119859
0.8341218331977684
0.3276514371048091
0.7003216067281416
3.9328557426463906
-2.237477210054218
3.541694591687902
-0.2544609077655702
-2.575346029094967
2.7170023754259973
3.9472919297124998
-2.9921230298636954
0.2433697759993787
-1.3642334855295557
4.539797892988378
-0.9585728657847562
2.2004184054294127
-0.24269524890723418
1.8702434642435406
-0.03538617860915076
-2.377518979117585
1.7423488706376855
-0.24597709510866014
1.8158681507160697
-1.4723794515151112
2.1749141210055387
1.6815038230186812
-0.7253067374404198
-1.579414417167246
1.9552025433156828
-2.180671258777574
3.578167884008133
-1.3660888953770796
1.7320701832515026
-0.0943183452515094
0.7061065423795194
-0.5210489282639165
-0.8807231161983173
0.7618607289500202
3.1624542849203983
-0.8195858823630003
0.42139144598641465
1.3980232448612429
0.862938880814299
-3.1607605869483506
2.6813156821062356
-2.700335472087124
0.3650201108535489
2.941523657149894
0.4037589754013278
-2.8063842429465815
2.7824097819549336
-1.0629671720240474
1.860178977495581
0.3780558666389834
-0.16438860675226508
3.614559054127902
-0.052009807158446004
-3.6830009520321028
-2.016680477303773
-1.5080342110129803
-2.7311114923154625
-2.2029555543917065
0.933956062665307
-0.42065978397317333
0.4355837868268095
0.6539918527296338
-0.679390855622057
2.907534723156195
-1.5447812770451614
1.887890523395835
3.747066779935776
1.076400735854625
-0.3655965525126166
-1.0619119573081848
-0.10818481658134982
-1.7158569927614977
2.6323506730442086
2.3606045241391946
-3.8536106649895188
1.0451270183894645
0.7036260733092472
-1.1201866168118688
3.404962723239111
2.070081459902771
-0.5589570307999148
-1.9988203677192782
2.0092356628691657
-0.47699895328135294
-2.2498431998586814
-1.6985916026357022
0.34090946956571017
-0.7848254585159544
-3.1676146638357543
-2.9312754801225154
0.46337881948473586
1.6918178398733035
2.129541022802003
-0.45791573394174034
0.12667880747836285
-2.953197724972458
-1.9601810718770545
-4.137909597484163
1.2493601853173715
-0.5836804517826603
0.058375030700241394
2.5823544201338806
-0.24344307777527038
-1.4004367202542314
-0.3642351423838641
-3.684703450402562
-3.7077607905001133
1.4456207165867219
1.092669165590543
1.8379928497538551
3.1864820154712836
-0.3731741020230235
0.7104897383756384
1.9447190507487355
-2.9603185013500806
-2.7580212356373934
-2.09140155353335
1.4168592038300118
1.9559466705698505
-0.7459250282978632
-1.8959778742481161
-2.5236693211058085
-1.6632032747609506
-0.594282075826489
2.1704225129489356
-0.9699458773639533
-3.0847434595731222
-1.0014138512922324
-2.2401003043104994
-2.9467552772230214
-1.9721291812352193
4.487195743963821
1.3597738427193597
-1.498790304455021
-4.027230401107147
0.7467642291653062
2.17764956654316
1.0105440344579202
-2.0677798317456975
2.7547908074568426
1.638468137555822
0.8418904388672251
-1.9798158082959807
-2.065580740996399
3.9172693969677734
-3.717840122433781
0.5642279956783276
1.1618656640613139
-2.857603452278425
3.9704437780591837
2.891874959020966
0.5596773509644701
0.2628495377815634
0.3713303357413124
-2.634592340899148
0.28565438484882294
0.0954930322408376
-4.059804216664455
2.4425343862806272
-1.1114680823335872
3.9150949530314367
-1.035532825039188
-2.2879076620817784
-0.43664453090844674
1.9388282212146364
1.8803543332888797
2.714482798977875
0.36073999417510527
-0.2009373216077433
-2.9553751319117945
-0.7850645375182405
-3.764309635349343
0.8824889686514299
-0.5990023719701251
-2.8098701458493207
0.5183382650839226
3.0712748936578103
-1.3890532970847553
-1.1125710418985542
2.958927263083788
0.25387942941917047
2.6997690480242444
1.1716278536886462
2.1335907816417943
-2.1169803793652573
0.3310630001903897
0.7068630776654604
-1.1278951567460829
-1.9348290829429138
0.1484228656764058
2.175818303570752
-1.486518759373593
-2.0921172408410733
-1.9824010893283124
-1.0202989984995703
-0.651458109528542
2.6388156731134877
0.6720509394466373
-3.4467248176003973
4.512026900081715
1.9547762975758816
2.581833990122133
-1.9608340408126201
-0.6730250561464316
-0.5087644410166666
3.448673912294723
-2.9482196871182045
2.1017615547179838
1.6823897860139323
-1.0726459464146485
-2.2212228052824408
0.1685588680213721
3.853512729604054
1.4170748517272855
1.5858453377566453
-1.1840993989188635
-0.06468110547448941
-1.119209763201538
-4.337672102660488
0.20787664145766926
-0.08791661914925213
-1.657542750073683
-1.9556226033281998
0.14684123705318883
0.03528089707178791
-2.7081496920358856
-0.6914739055641936
-1.033975752127304
0.6574152853265219
-0.6797389343725134
0.20920158318258647
0.4259598591147919
1.479756361121174
2.1726022185010243
0.7422047938802261
-0.5050678075063065
-0.9581622773068222
0.1411692756176339
-0.20168212813340233
-2.6794680113373106
1.5261255218379624
3.068542134211851
-3.8501329824282693
0.11612974871223697
0.206767649770757
-0.04667208806274613
-0.5137340940852527
-0.11852827232584323
-1.9668088379941102
-1.7668452340732568
-2.6569847044066752
3.9600738376309317
-0.2863908860295381
-2.2422352878607996
-2.854793304791726
0.37732663492361357
-1.7547061594413822
0.2675974010456992
-1.2345448602359437
-2.4319044362037014
2.9849049462677386
-2.4582396367255366
1.3418139335893051
4.261031508725724
-1.2889889456596932
0.4922177736067146
-4.096115999232585
3.0339210279227853
0.8217237269897297
1.4749677115930893
-2.7652682726457884
-0.6433656958633827
-3.594659319964714
1.8108793180643012
-0.13867556539104395
3.524778603622461
0.917514924092647
-2.465491704494193
-0.5271166715881425
3.0886948442988866
0.7087996910014119
0.1438729358160155
-2.436002669678072
-2.3869852679367147
0.5752829295026615
0.012610627501569974
0.7295358756858844
-1.2633907483007913
1.8616079589180452
-0.448968661945724
-1.2962245356410633
2.164120045693574
-4.539872785520361
-1.012876274561943
1.1822742551189864
-0.15051038265261502
-0.005486583911476193
1.0199258231369603
-1.7213193670709772
-1.3436910494946737
-0.5370299921596334
3.2714987149613126
-0.588415371081182
-1.286981477854736
0.8261548449555077
-0.632979245574185
-4.552964066485488
-1.628831977384538
0.6903319119671708
-3.0180825730864695
4.177319107027306
3.0347721172361757
1.8592037422158485
-0.437265135996386
-1.54954654915136
0.8443889563448833
-1.5700717819525796
-0.29494508549467946
-2.5263954955691434
1.4390155991122877
0.297612537913664
0.8039680876421085
0.5312610865767381
-3.6644993605037013
-3.623120739639289
0.15402659489339732
3.4188355770905576
2.4397045749185837
1.4890690890817608
-0.17872243693363515
2.106168895209072
1.4116438700688
1.8448457620213659
-1.2934159024716263
-1.4438796739767303
2.112677689376796
-1.170245154554355
2.317392605751701
-1.0956173169330048
-1.5110188324193152
1.0652364500973877
-1.8819332496233743
-1.994750561290536
0.2761638598501288
-0.4064048320617831
-1.6174695964190862
1.2628459042692253
-1.2032875062516937
0.7142908262072322
-1.7610065977918616
-2.319140427666296
0.28740400400086824
1.9352418070831088
1.1631948769208384
-0.5286424431562523
-1.0077315551589967
0.24794903792524453
-1.0297162592877653
-2.1097373283546683
-2.5315927169531065
2.938149930711969
-0.6722924227855056
0.267110705890996
1.3446495502677311
0.6915471669634843
2.1383188914786686
2.7944863811676477
1.051795783636147
-2.2224941147739417
-1.7846315571778963
-0.6328075240162395
2.5542357145303893
-0.7506177791479609
1.7066096814698952
0.8898145163914426
-0.17585220468091525
-0.026567051871416548
-0.7678101584928224
0.11280044001239405
1.0851992514092543
0.17811547821183418
2.681126290933712
1.8713273298418478
1.2497244654753301
-2.269722199672429
-1.8047181632536469
3.3032129512124313
-1.855888086489824
1.5733133079836454
-1.3292511056311747
-0.6691814560420958
-0.741275545463219
1.3933781037866944
2.0737036253357006
-2.145621411904267
-2.7142613554677535
-1.5849402800862258
2.9360345771681837
-0.3437028054870726
0.671410388809377
-3.034274208901037
-0.606654170641403
-2.085268669120578
2.61005413497635
1.7081691853524585
-1.9202184286019945
2.0355675515164364
0.024374304998345264
0.7417642159369343
-0.7750658843393955
0.7736863767746989
0.38371422356158574
-1.3988103096850757
-0.66333846367338
-0.5078026786434945
3.2963415184673264
0.038995186182641604
-1.2563552475275557
1.0959861492394687
-0.4441934233497412
-1.446160051790764
1.4318589868432188
-3.9146039926571095
-0.10050163748655201
-0.011303139094967232
-0.5859123180797264
0.9571993187074058
0.5386850537144303
0.873708134464579
-0.9236687990512201
0.15393559683932295
3.463557652225548
1.4747877255426058
1.7443881233936191
1.3235896540568959
-2.1014037143277977
-1.8750490029436304
0.9842771028276758
-1.325732982202515
-3.6979110228917995
0.11240920719785027
-1.3247461476829214
-0.6402071144321811
1.390330174665628
0.5583651279238784
-2.4148530404438695
-2.290970744686237
2.1340158436415675
1.3376160341037764
2.484362830190047
1.995333019717165
-4.316742950882271
1.9153179101372968
2.219186661019075
-1.0581687440656145
-2.2255223748248234
1.6815934360840679
0.28155173197343053
0.3946649397373773
-1.257651866199355
1.0742727930029836
-3.975127224778826
-2.6578576662263735
-1.9750150696725455
0.8290000872045521
-1.550230183419068
0.7842157262719904
-1.312703637121117
-0.10356994879018325
-3.714805944061022
-0.1885034446508446
-0.1661397798610973
0.4704961596649599
-0.12325759647150603
-3.903770398008468
-0.6842390135206454
2.120852587456324
-1.3670021561817758
0.14787141187264774
-1.0344247438749454
-1.918364291428551
0.7294241389692411
-1.0406598491204309
-0.7644573182389175
-1.4202218154628024
-2.5128312241831585
-0.17500466896300101
1.480900094917287
-2.006371707171416
0.08968965711631646
0.5132265740215467
-0.5312539347922293
2.90184187253458
0.35576870618225276
0.07639022840077159
2.8793583000023486
3.0693353360111155
-1.2787480260188682
0.6853528779497163
-0.20317505037720657
-0.8664526592015361
0.7222102220828688
-0.02356109869657609
-3.693213149871398
-2.8468898988238496
0.844082479120386
-0.9282355746291849
-1.1453757444184054
-0.18447084078467166
-0.7588375143992219
0.6376354283131981
-0.7859725197649453
-0.8621855364428591
0.21267230606862822
2.4779950926033107
2.0024144209066357
0.4365528294258367
-1.0084602087333099
0.5600022383865271
-1.3656264328760346
2.773375958685824
4.134629360060094
2.869365534331004
4.141528795307847
-0.04959874397784932
-1.198136996302161
1.8779926415649462
0.019298468555242473
-2.142601539120204
-3.543098008728695
-2.698473843898379
-0.1619085852526311
-2.7124173261875475
0.6262709966188715
2.887922563592513
-0.18235849239910903
-2.7926752115092515
-0.9466313017328928
-1.9813942657603856
-2.2260051393902556
-1.0341510723452025
0.5239295353877855
-2.963640952648361
-3.699587670156119
-0.040027466155756065
1.8757442314348045
-0.7847476116412504
-1.321668612731241
3.1589818129224416
2.32314051692267
1.6916660672140749
-0.5627464888611835
0.9300426398994104
1.7074131727014819
0.01798654490888342
-3.362463691947939
-0.782394741945239
1.4304802466648423
-0.4564619421930744
-1.0243666333496364
0.8576804481505139
4.246266507471847
2.6604658511261974
4.081037393367654
-1.2122193252874394
0.8502201100735733
0.6685481900140424
1.5557231763143415
-1.9080355104234166
-0.005066348226796603
-1.9628921307710325
0.7734055870999095
-2.1589963224612085
-3.480889275648228
-0.20061485162370654
0.3591407359062423
1.159429313534815
-0.4467546296315092
-3.660170243399832
0.44115673661372
-0.2259528380101815
1.0630822614497515
0.9119257052024772
0.4824214845811672
2.395982425701763
-0.39973609789862924
-0.7479568927998147
2.248974311469923
-0.14964492026429735
1.1018177285728368
1.9837664144262686
0.2652439977310121
2.257255636848577
1.9060019157925392
3.1685816235762374
4.418353896854295
0.12563070708477614
3.0924256204519303
1.5805701134235814
3.0360736422669823
1.58436087455568
2.033399772405976
-1.655975848550077
-1.8472069857557247
1.10721801572399
-1.7065057166751403
0.9352874948967004
2.057213226005925
2.0420329889295803
-1.3483624680042336
-0.7194470579822989
-1.1228871874708204
-0.20092306126884907
0.13601075307184887
-2.6319786582343245
-1.3901182416541835
-0.11467746301310774
1.1378771146780278
-3.5700341432924363
0.7980933372607589
-2.972932071799952
-3.330701490698375
4.011489485311624
-0.779013283866256
0.37565839647224764
0.21285286710548956
-1.5707255985528845
1.7259110781714861
-1.7524216249866398
0.32133522347160787
-0.05157065811535598
-3.962943801951597
-2.7896065558899386
2.775158625689105
0.9373888417020118
-0.24642748350849672
-0.8117905682500562
-2.6760811990078475
2.7403760269770663
1.1633772411836547
-0.2921989402646124
0.08652253452697208
1.3210610376690906
4.50057507035924
-2.6376159226317117
-0.23351946552565378
-0.011780978941762098
-0.4060630780119585
-0.22734324604870365
-0.5331544381665537
-0.4832367419357945
1.6040665176722704
0.31460875905206254
-3.1546791372396346
-0.21572582586399053
-0.11377535384457452
0.5948761864733579
-0.12945218461849994
-0.023273489677222328
0.937863568470538
-0.5059241665174956
-0.37254364343526675
4.0923673752007925
0.22321521938841693
1.330761710754213
0.5368545050392479
-0.39402365315572885
-1.7767989899366539
0.8165195226795012
-0.5437289571830821
1.0241241565538937
0.8190893545999717
2.5375524178899136
-1.140148461390776
-3.1046030275503664
0.8801542212717406
0.5994950814179627
-0.8523602576235718
-3.6382506573479922
1.802442753601533
3.3623426511869186
1.8016434598555022
2.6258341081629846
-3.988242270945957
-2.068898561863585
-0.6508163068056754
-3.020139283713365
-1.1430383731916218
-0.8212913674890068
-0.18555038673059676
0.05491594519587124
-1.067086327830607
3.369465225609328
2.107255347487105
0.4798449055077264
-2.6823600306869686
-4.274726956810108
1.091466662851918
-1.618798599588649
-1.350183693496056
-1.9397646682042042
-1.4519111547934964
0.004829902074412589
0.270530953237323
-0.8369141993460574
-2.0109428603663995
0.9082841914884168
3.0404932057488683
0.05435014656566781
0.22059039790618387
-3.5787473595916914
0.07524444768402393
2.2560594829095857
2.766789426387749
-0.5417865660051264
-3.238465063345316
0.27082831984514366
-0.9528054889496805
0.6119611743936036
-1.6277342171030125
1.665054598348734
1.6814233818954285
0.2244949103165002
-1.5426950605752048
-3.989349914159605
0.3318161421959341
-2.6994091653872325
-0.05371755922362505
1.3575615036219735
2.7383072690276298
0.44632948193359934
1.1270413002255204
-0.7077770192419967
0.3741069665263357
-0.10747877788555102
-0.15584602160400288
-3.0111815526499073
1.977135207528157
1.424453551859629
1.3000340279101854
2.3765827504940242
1.6105119457030597
1.299586941341823
-0.59641366451039
-3.502737252952307
-1.4738522850209719
2.3306779176042856
1.5980149155716425
-1.463851461888959
-2.9182321387379067
-3.9634022333056116
0.898615404447991
-2.9418739666662455
2.866443657109025
0.3481080068251968
-2.8097280392239754
-0.6265247124613295
-1.7906773266593312
-1.6800393627256773
-4.86054160187625
2.1585776537250836
-0.8133782990540939
-3.1160880814958802
0.6028803149323345
-1.7303896113658648
1.1711703763352024
1.2297377885330967
-1.3173388033665128
1.1033003505973524
0.932548623985262
-0.49621775904826243
0.1345160896030322
4.403968040975355
-3.1379593116816418
2.0155505290444684
3.7749541768490005
-1.303430985468274
0.22339106678260123
0.7809995830008201
-2.990450773147865
3.6331266962606152
-0.4491266640613395
3.4918526910110463
-2.6649016185411307
1.2354943636104982
0.5941588348271547
-2.738084254326027
1.116035904141832
-0.1435897391814282
-0.9299193579669474
1.4995165201459717
3.414935669861634
-1.294038146266538
-1.3630165257465692
0.2966418156823613
-0.06668097137325152
2.7520642698028017
1.5580132881051239
-1.4947703069084697
-0.778866033774158
2.980669229310217
-1.0670599682591413
-2.6014487945863327
1.8352588023743441
-3.4415920923921757
3.8942083176958056
-1.846945096772533
0.8496052242898386
1.0679028875635388
-2.3863279854347916
0.3220883092440596
-2.8873056350479427
-0.11177781143991694
2.36738536279684
0.41478507949345983
1.2181365267157074
0.6063917623269088
1.6472291617035792
-2.621921620937099
-2.3605330879855093
-2.738489901848549
-0.3917452360757066
2.7161796619352216
-2.2958421840839316
1.495031409218351
-2.3930079356398326
3.7388539142665826
-0.12753669181795663
-2.5592343329146012
-0.8926458164585076
-0.28099663735551517
0.3103001406190093
-0.7000282096396976
-1.8938557477882159
-2.5722634067244017
1.4396953270805497
0.6126380906368527
1.7911093415822372
-2.1923733690134948
0.7033668965250112
-0.10590271738916542
-1.0419961598724121
1.1254526789973467
1.824377718594454
-0.9791131444353304
0.10687821854026053
-0.07257053099245561
-3.3055079800991822
2.1053016545540784
2.1376847992434946
-0.5816282807403078
3.3256742375038897
1.055915917123456
0.1260923019726268
-0.8566884086554386
-0.04471753121894227
-2.6855214319152543
3.5449601681809204
0.07446911260957809
3.737131205716883
1.653712244941193
-2.4785673890704176
0.8847387779532612
1.8516028660965893
0.3023900223294727
-2.7012298285015803
0.29538475960095223
-1.6079303878095128
5.007125309139724
1.1334533908610411
1.3061416304696758
-1.0970843106248105
-0.5215639139486782
2.699182942967898
1.9554436687457746
2.2035148593239016
2.867080359187485
-3.7086812683317643
3.1554334069408294
-1.8075553505993365
-0.549160745411416
0.8278551174146296
3.7667996942590647
0.04659649384770314
-0.674954844118827
-3.2709378800995403
-3.3157493663128768
-1.572145066212627
-1.2132223906128825
-0.8417787650332516
-3.31570921257639
2.6640971544237373
1.2595302458939055
-0.3980298094146825
4.030909142589142
1.2818008141638937
0.1431437302192617
1.0555246158127263
0.05955317557221094
-3.0232608323451275
3.8540133390270808
0.9467020383828283
-0.26589369604426827
-2.85992304637007
0.22315752270895575
2.07172838952635
-0.3746928027843068
-2.788025092775923
-1.3308187761315386
-1.5298253268039952
-2.222907976159024
-1.5785408979185513
-0.013551125293822271
-0.5874936400126175
-0.13533481459846244
0.10403617237417154
3.821827049253349
2.1878495012466104
0.4441124714739393
0.5632296142945726
-0.3610431174540158
-2.6967807462810502
-0.07251479905703073
-0.060109447563224505
-2.254447381490715
-3.438116460954734
0.8390682378875741
-1.4354504118702762
0.7008426642275708
0.7360806455137573
-2.0570966023608954
2.435963571190973
0.3505410834873137
2.0284971827782625
4.969079848329991
0.557140519576034
1.3267970665326516
-1.752026119550097
-1.768449449411944
3.115050136237942
-2.9840502970929723
0.10252558747394226
0.8391642846243357
-0.8769322128521212
-1.0329050645668658
